
\data\
ngram 1=717
ngram 2=1998
ngram 3=2283

\1-grams:
-1.339650	</s>
-99	<s>	-0.088930
-1.434901	a	-0.148868
-3.185639	ab	-0.073616
-3.185639	ability	-0.073616
-3.185639	above	-0.073616
-3.185639	absorbs	-0.073616
-3.185639	accept	-0.073616
-3.185639	accompanied	-0.073616
-2.431375	acid	-0.092834
-2.769141	acidic	-0.073616
-3.185639	acidity	-0.073616
-3.040134	acidosis	-0.073616
-2.769141	acids	-0.120777
-2.657162	across	-0.394643
-3.185639	act	-0.073616
-2.920419	active	-0.172795
-3.185639	ad	-0.073616
-3.185639	added	-0.073616
-3.040134	addition	-0.204222
-2.920419	adenine	-0.073616
-3.185639	adenosine	-0.073616
-3.185639	adjacent	-0.073616
-3.185639	administration	-0.073616
-3.185639	affects	-0.073616
-3.185639	affinity	-0.073616
-3.185639	against	-0.073616
-3.185639	aggregate	-0.073616
-3.185639	aided	-0.073616
-3.185639	alkaline	-0.073616
-3.185639	alkalinity	-0.073616
-3.185639	alkalosis	-0.073616
-3.040134	allows	-0.073616
-3.185639	along	-0.073616
-2.657162	amino	-0.164412
-3.040134	amphiphilic	-0.073616
-2.207180	an	-0.086333
-1.643541	and	-0.091779
-3.040134	anion	-0.073616
-2.920419	another	-0.156189
-3.185639	answer	-0.073616
-2.657162	any	-0.073616
-3.185639	applied	-0.073616
-3.040134	aq	-0.204222
-3.185639	aquaporin	-0.073616
-3.040134	aqueous	-0.073616
-2.142239	are	-0.099434
-3.185639	area	-0.073616
-3.185639	around	-0.073616
-2.431375	as	-0.116701
-3.185639	assembling	-0.073616
-3.040134	assembly	-0.073616
-3.185639	association	-0.073616
-3.185639	assumes	-0.073616
-3.040134	asymmetric	-0.073616
-3.040134	at	-0.073616
-2.769141	atom	-0.073616
-2.769141	atoms	-0.073616
-2.920419	atp	-0.073616
-3.185639	attraction	-0.073616
-3.185639	attractive	-0.073616
-3.185639	available	-0.073616
-3.040134	b	-0.073616
-3.185639	balanced	-0.073616
-2.376326	base	-0.121254
-2.769141	bases	-0.073616
-3.040134	basic	-0.073616
-2.657162	be	-0.073616
-3.185639	because	-0.073616
-3.185639	behaves	-0.073616
-3.185639	belongs	-0.073616
-3.185639	below	-0.073616
-3.185639	beng	-0.073616
-2.494428	between	-0.139873
-3.185639	beyond	-0.073616
-3.185639	bicarbonate	-0.073616
-3.040134	bilayer	-0.073616
-3.040134	binding	-0.073616
-3.185639	biochemical	-0.073616
-2.769141	biological	-0.204222
-3.185639	biomedical	-0.073616
-3.040134	biomolecules	-0.073616
-3.185639	block	-0.073616
-3.185639	blood	-0.073616
-3.185639	body	-0.073616
-2.494428	bond	-0.099434
-3.040134	bonded	-0.073616
-3.185639	bonding	-0.073616
-2.494428	bonds	-0.096369
-3.185639	book	-0.073616
-3.185639	both	-0.073616
-3.185639	bound	-0.073616
-3.185639	breathing	-0.073616
-3.185639	broken	-0.073616
-3.185639	buffer	-0.073616
-3.185639	buffering	-0.073616
-3.185639	building	-0.073616
-3.185639	but	-0.073616
-2.207180	by	-0.088922
-3.185639	byproduct	-0.073616
-3.040134	c	-0.204222
-2.769141	called	-0.073616
-2.657162	can	-0.107102
-3.185639	capturing	-0.073616
-3.040134	carbohydrate	-0.073616
-3.040134	carbohydrates	-0.073616
-2.920419	carbon	-0.073616
-3.040134	carboxyl	-0.073616
-3.185639	carried	-0.073616
-3.185639	carries	-0.073616
-3.185639	catalyzes	-0.073616
-3.040134	cation	-0.073616
-3.185639	cause	-0.073616
-3.185639	causes	-0.073616
-2.769141	cell	-0.102772
-2.920419	cells	-0.174770
-3.185639	cellulose	-0.073616
-2.769141	ch	-0.174770
-3.040134	chain	-0.204222
-3.185639	chains	-0.073616
-2.283570	change	-0.191376
-3.185639	channel	-0.073616
-2.920419	chapter	-0.156189
-3.185639	characteristic	-0.073616
-3.185639	charge	-0.073616
-2.920419	charged	-0.145797
-3.185639	charges	-0.073616
-2.431375	chemical	-0.073616
-3.040134	chemistry	-0.073616
-3.185639	cl	-0.073616
-3.185639	class	-0.073616
-3.185639	classes	-0.073616
-3.185639	cleavage	-0.073616
-3.185639	cleaved	-0.073616
-3.185639	cluster	-0.073616
-3.040134	co	-0.073616
-3.185639	coat	-0.073616
-3.040134	collection	-0.204222
-2.920419	commonly	-0.156189
-3.185639	compared	-0.073616
-3.185639	complementary	-0.073616
-3.040134	complex	-0.073616
-3.040134	components	-0.073616
-3.040134	composed	-0.204222
-3.040134	compound	-0.073616
-2.769141	compounds	-0.204222
-3.185639	concentrated	-0.073616
-2.327476	concentration	-0.096369
-3.185639	concentrations	-0.073616
-3.040134	concepts	-0.073616
-3.040134	condensation	-0.073616
-3.185639	condition	-0.073616
-3.185639	confer	-0.073616
-3.040134	conformation	-0.073616
-3.040134	conjugate	-0.204222
-3.185639	connected	-0.073616
-2.657162	consisting	-0.394643
-2.920419	constant	-0.121254
-3.185639	constants	-0.073616
-3.040134	constituent	-0.073616
-3.040134	contain	-0.073616
-3.185639	contained	-0.073616
-2.657162	containing	-0.073616
-3.185639	continually	-0.073616
-3.185639	coo	-0.073616
-3.185639	cooh	-0.073616
-3.185639	copied	-0.073616
-3.185639	coupled	-0.073616
-3.040134	coupling	-0.073616
-2.568217	covalent	-0.264275
-3.185639	covalently	-0.073616
-3.185639	covering	-0.073616
-3.185639	critical	-0.073616
-3.040134	cross	-0.204222
-3.040134	cystic	-0.204222
-3.185639	cytoplasm	-0.073616
-2.920419	cytosine	-0.073616
-3.040134	d	-0.073616
-3.185639	decomposition	-0.073616
-3.185639	decrease	-0.073616
-3.185639	deep	-0.073616
-3.040134	defect	-0.073616
-3.185639	defined	-0.073616
-3.185639	definitions	-0.073616
-3.185639	degree	-0.073616
-3.185639	delivery	-0.073616
-3.185639	depending	-0.073616
-3.185639	der	-0.073616
-3.040134	derivative	-0.204222
-3.185639	describe	-0.073616
-3.185639	deserted	-0.073616
-3.185639	detect	-0.073616
-3.185639	diabetes	-0.073616
-2.920419	difference	-0.145797
-3.040134	different	-0.073616
-2.920419	diffusion	-0.073616
-3.185639	dimensional	-0.073616
-3.185639	dioxide	-0.073616
-3.185639	dipoles	-0.073616
-3.040134	direction	-0.073616
-3.040134	disaccharide	-0.073616
-2.920419	disease	-0.073616
-3.040134	disorder	-0.073616
-3.040134	dissociation	-0.156189
-3.185639	dissolve	-0.073616
-3.185639	dissolved	-0.073616
-3.185639	distinctive	-0.073616
-3.185639	distribution	-0.073616
-3.185639	distributions	-0.073616
-3.185639	disturb	-0.073616
-2.376326	dna	-0.125788
-2.657162	do	-0.174770
-2.769141	does	-0.073616
-3.185639	donate	-0.073616
-3.185639	double	-0.073616
-3.185639	doublestranded	-0.073616
-3.040134	down	-0.073616
-3.185639	drink	-0.073616
-3.185639	dry	-0.073616
-3.040134	due	-0.204222
-2.920419	during	-0.073616
-3.185639	e	-0.073616
-3.040134	each	-0.073616
-3.185639	easily	-0.073616
-3.185639	effect	-0.073616
-2.920419	electric	-0.156189
-3.185639	electrochemical	-0.073616
-3.040134	electron	-0.073616
-3.040134	electronegative	-0.204222
-3.040134	electrons	-0.073616
-3.185639	endothermic	-0.073616
-3.185639	energetically	-0.073616
-3.185639	energies	-0.073616
-2.431375	energy	-0.116701
-3.185639	engineering	-0.073616
-3.040134	enough	-0.204222
-2.920419	enthalpy	-0.073616
-2.769141	entropy	-0.073616
-2.769141	environment	-0.121254
-3.185639	enzyme	-0.073616
-3.185639	enzymes	-0.073616
-3.185639	equal	-0.073616
-3.185639	equals	-0.073616
-2.769141	equilibrium	-0.134028
-3.040134	equivalent	-0.204222
-3.185639	especially	-0.073616
-3.185639	examples	-0.073616
-3.185639	excess	-0.073616
-3.185639	exothermic	-0.073616
-3.040134	explain	-0.073616
-3.040134	external	-0.073616
-3.185639	extracellular	-0.073616
-3.185639	eyes	-0.073616
-3.040134	facilitated	-0.204222
-3.185639	fat	-0.073616
-2.920419	fatty	-0.172795
-3.185639	feedback	-0.073616
-3.185639	fewer	-0.073616
-3.185639	fibrosis	-0.073616
-3.040134	find	-0.073616
-3.185639	five	-0.073616
-3.185639	flow	-0.073616
-3.185639	fluid	-0.073616
-3.185639	fluids	-0.073616
-3.185639	flux	-0.073616
-3.185639	folding	-0.073616
-3.185639	foods	-0.073616
-2.376326	for	-0.126885
-3.185639	force	-0.073616
-3.185639	foreign	-0.073616
-2.494428	form	-0.131991
-3.185639	formation	-0.073616
-2.920419	formed	-0.172795
-3.185639	forms	-0.073616
-3.185639	formula	-0.073616
-3.185639	forward	-0.073616
-2.769141	found	-0.297733
-3.185639	four	-0.073616
-2.657162	free	-0.394643
-2.243698	from	-0.116646
-3.185639	frontiers	-0.073616
-3.040134	fructose	-0.073616
-3.185639	fruits	-0.073616
-3.040134	function	-0.204222
-2.920419	functional	-0.156189
-3.185639	fused	-0.073616
-2.769141	g	-0.073616
-3.185639	gained	-0.073616
-3.040134	galactose	-0.073616
-3.040134	gene	-0.073616
-3.185639	generally	-0.073616
-3.185639	generate	-0.073616
-2.769141	genetic	-0.145797
-3.185639	gibbs	-0.073616
-3.185639	give	-0.073616
-3.185639	given	-0.073616
-3.040134	gives	-0.073616
-2.920419	glucose	-0.073616
-3.185639	glycerol	-0.073616
-3.185639	glycocalyx	-0.073616
-3.185639	glycolipid	-0.073616
-3.185639	glycolipids	-0.073616
-3.185639	glycoprotein	-0.073616
-3.040134	gradient	-0.073616
-2.769141	greater	-0.134028
-2.657162	group	-0.121254
-2.769141	groups	-0.112943
-2.920419	guanine	-0.073616
-2.431375	h	-0.094624
-3.185639	ha	-0.073616
-2.769141	has	-0.073616
-3.185639	hating	-0.073616
-3.185639	have	-0.073616
-3.185639	having	-0.073616
-3.185639	hco	-0.073616
-3.185639	head	-0.073616
-2.920419	heat	-0.156189
-3.185639	held	-0.073616
-3.185639	help	-0.073616
-3.185639	helpful	-0.073616
-3.185639	hereditary	-0.073616
-3.040134	heterocyclic	-0.073616
-3.185639	hexose	-0.073616
-2.769141	high	-0.134028
-3.185639	higher	-0.073616
-3.185639	highly	-0.073616
-3.185639	hold	-0.073616
-3.185639	holds	-0.073616
-3.040134	homeostasis	-0.073616
-3.185639	honey	-0.073616
-2.920419	how	-0.156189
-3.185639	hybridization	-0.073616
-3.185639	hybridize	-0.073616
-3.040134	hybridizes	-0.156189
-3.185639	hydrocarbon	-0.073616
-2.431375	hydrogen	-0.205119
-2.769141	hydrolysis	-0.134028
-2.920419	hydrophilic	-0.073616
-2.920419	hydrophobic	-0.073616
-3.185639	hydrostatic	-0.073616
-3.040134	hypertonic	-0.073616
-3.185639	hyperventilation	-0.073616
-3.040134	hypotonic	-0.073616
-3.185639	identical	-0.073616
-3.040134	if	-0.073616
-3.185639	images	-0.073616
-2.657162	important	-0.130369
-1.634079	in	-0.215419
-3.185639	include	-0.073616
-3.040134	including	-0.073616
-3.185639	increase	-0.073616
-3.185639	indicates	-0.073616
-2.920419	information	-0.073616
-3.185639	input	-0.073616
-3.185639	insoluble	-0.073616
-3.040134	interaction	-0.073616
-2.920419	interactions	-0.073616
-3.185639	interior	-0.073616
-3.185639	internal	-0.073616
-3.185639	internet	-0.073616
-3.185639	intimate	-0.073616
-2.494428	into	-0.107102
-3.185639	intravenous	-0.073616
-3.185639	involve	-0.073616
-2.769141	ion	-0.073616
-2.920419	ionic	-0.073616
-3.185639	ions	-0.073616
-2.012798	is	-0.121324
-3.185639	island	-0.073616
-3.185639	isolated	-0.073616
-3.040134	isotonic	-0.073616
-2.568217	it	-0.073616
-2.657162	its	-0.073616
-3.185639	joined	-0.073616
-2.920419	k	-0.130369
-3.185639	kcal	-0.073616
-3.185639	key	-0.073616
-3.185639	kidney	-0.073616
-3.185639	lacks	-0.073616
-3.040134	lactose	-0.073616
-2.920419	large	-0.073616
-3.040134	lesser	-0.073616
-3.185639	library	-0.073616
-3.185639	linear	-0.073616
-2.494428	linked	-0.231359
-3.185639	lipid	-0.073616
-3.185639	lipids	-0.073616
-3.185639	liposome	-0.073616
-3.185639	liter	-0.073616
-3.040134	literally	-0.204222
-3.185639	little	-0.073616
-3.185639	living	-0.073616
-3.185639	log	-0.073616
-3.185639	logarithm	-0.073616
-3.185639	look	-0.073616
-3.185639	loss	-0.073616
-3.185639	lost	-0.073616
-3.185639	loving	-0.073616
-3.040134	low	-0.073616
-3.185639	lubrication	-0.073616
-3.040134	macromolecule	-0.073616
-3.185639	macromolecules	-0.073616
-3.185639	made	-0.073616
-3.185639	magnitude	-0.073616
-3.185639	maintain	-0.073616
-3.185639	maintains	-0.073616
-3.185639	make	-0.073616
-3.185639	making	-0.073616
-3.185639	manifest	-0.073616
-3.040134	many	-0.073616
-3.185639	mark	-0.073616
-3.185639	mass	-0.073616
-3.185639	match	-0.073616
-3.185639	material	-0.073616
-3.040134	may	-0.073616
-3.185639	measure	-0.073616
-3.185639	mechanisms	-0.073616
-3.185639	mediate	-0.073616
-2.494428	membrane	-0.093045
-3.185639	membranes	-0.073616
-3.185639	messenger	-0.073616
-3.185639	might	-0.073616
-3.185639	milk	-0.073616
-3.185639	mirror	-0.073616
-3.185639	moiety	-0.073616
-3.185639	mol	-0.073616
-3.185639	mole	-0.073616
-3.185639	molecular	-0.073616
-2.431375	molecule	-0.099434
-2.012798	molecules	-0.161955
-3.185639	moles	-0.073616
-3.185639	monomer	-0.073616
-3.185639	monomeric	-0.073616
-2.920419	monomers	-0.156189
-3.040134	monosaccharide	-0.073616
-3.040134	monosaccharides	-0.073616
-2.920419	more	-0.073616
-3.040134	most	-0.073616
-3.185639	move	-0.073616
-2.920419	movement	-0.172795
-3.040134	mrna	-0.073616
-2.920419	much	-0.073616
-2.920419	multiple	-0.073616
-2.920419	must	-0.156189
-3.040134	n	-0.073616
-3.185639	na	-0.073616
-3.185639	nacl	-0.073616
-3.185639	nature	-0.073616
-3.185639	near	-0.073616
-3.185639	necessary	-0.073616
-2.568217	negative	-0.073616
-3.040134	negatively	-0.073616
-3.185639	neither	-0.073616
-2.568217	net	-0.164412
-3.040134	neutral	-0.073616
-3.185639	neutrality	-0.073616
-3.185639	newly	-0.073616
-2.920419	nitrogen	-0.073616
-3.040134	nitrogenous	-0.073616
-3.185639	no	-0.073616
-3.185639	non	-0.073616
-2.769141	noncovalent	-0.134028
-2.657162	nonpolar	-0.130369
-3.185639	nor	-0.073616
-3.185639	normal	-0.073616
-2.920419	not	-0.073616
-2.431375	nucleic	-0.389214
-3.185639	nucleoside	-0.073616
-2.769141	nucleotide	-0.073616
-2.769141	nucleotides	-0.073616
-3.185639	number	-0.073616
-2.920419	o	-0.073616
-3.185639	obtained	-0.073616
-3.040134	occur	-0.073616
-3.185639	occurs	-0.073616
-1.389972	of	-0.213256
-3.185639	off	-0.073616
-3.185639	often	-0.073616
-3.185639	oh	-0.073616
-3.185639	oligosaccharides	-0.073616
-2.920419	on	-0.073616
-2.376326	one	-0.116646
-3.185639	opposite	-0.073616
-1.817725	or	-0.080955
-3.185639	order	-0.073616
-2.920419	organic	-0.073616
-3.185639	original	-0.073616
-2.920419	osmosis	-0.073616
-2.920419	osmotic	-0.172795
-2.769141	other	-0.073616
-3.185639	others	-0.073616
-3.040134	out	-0.204222
-3.185639	over	-0.073616
-2.920419	oxygen	-0.073616
-2.920419	pairs	-0.073616
-3.185639	particle	-0.073616
-3.185639	particles	-0.073616
-3.185639	particularly	-0.073616
-3.185639	pass	-0.073616
-2.769141	passive	-0.134028
-3.185639	patients	-0.073616
-3.185639	pentose	-0.073616
-3.040134	peptide	-0.073616
-3.185639	per	-0.073616
-3.185639	permeability	-0.073616
-3.185639	permeable	-0.073616
-2.568217	ph	-0.073616
-2.920419	phosphate	-0.156189
-3.185639	phosphoanhydride	-0.073616
-2.920419	phospholipid	-0.156189
-3.040134	phospholipids	-0.073616
-3.185639	phosphorous	-0.073616
-3.185639	physiological	-0.073616
-3.185639	place	-0.073616
-3.185639	plasma	-0.073616
-2.657162	polar	-0.121254
-2.769141	polymer	-0.073616
-3.040134	polymerization	-0.073616
-3.185639	polymers	-0.073616
-2.920419	polypeptide	-0.073616
-3.185639	polypeptides	-0.073616
-3.185639	polysaccharide	-0.073616
-3.185639	polysaccharides	-0.073616
-3.040134	positive	-0.073616
-2.920419	positively	-0.172795
-3.040134	potential	-0.073616
-3.185639	present	-0.073616
-3.040134	pressure	-0.073616
-3.185639	primary	-0.073616
-3.185639	principal	-0.073616
-2.920419	process	-0.156189
-3.040134	product	-0.073616
-3.040134	products	-0.073616
-3.185639	professor	-0.073616
-2.920419	properties	-0.156189
-3.185639	property	-0.073616
-2.568217	protein	-0.073616
-2.769141	proteins	-0.156189
-3.040134	proton	-0.073616
-3.040134	purine	-0.073616
-3.040134	purines	-0.073616
-2.920419	pyrimidine	-0.073616
-3.185639	pyrimidines	-0.073616
-3.185639	quantities	-0.073616
-3.185639	questions	-0.073616
-3.185639	randomness	-0.073616
-3.185639	rapid	-0.073616
-3.185639	rapidly	-0.073616
-2.920419	rate	-0.073616
-3.185639	rather	-0.073616
-3.040134	ratio	-0.073616
-3.040134	reactants	-0.073616
-2.494428	reaction	-0.151408
-3.185639	reactions	-0.073616
-3.185639	reciprocal	-0.073616
-3.185639	reduce	-0.073616
-2.494428	referring	-0.540771
-3.040134	regions	-0.204222
-3.185639	regulates	-0.073616
-3.185639	relatively	-0.073616
-3.185639	release	-0.073616
-3.185639	releases	-0.073616
-3.185639	reliable	-0.073616
-3.185639	repeated	-0.073616
-3.185639	replaces	-0.073616
-3.185639	represented	-0.073616
-3.185639	repulsive	-0.073616
-3.185639	requiring	-0.073616
-3.185639	research	-0.073616
-3.185639	residues	-0.073616
-3.185639	respectively	-0.073616
-3.040134	result	-0.073616
-3.185639	reverse	-0.073616
-3.185639	reviewed	-0.073616
-3.185639	ribosome	-0.073616
-3.185639	ring	-0.073616
-3.185639	rings	-0.073616
-3.185639	rise	-0.073616
-2.657162	rna	-0.073616
-3.040134	s	-0.073616
-3.185639	saline	-0.073616
-3.185639	saltzman	-0.073616
-3.185639	same	-0.073616
-3.185639	seawater	-0.073616
-3.185639	selective	-0.073616
-3.185639	self	-0.073616
-3.185639	semipermeable	-0.073616
-3.185639	separating	-0.073616
-2.769141	sequence	-0.121254
-3.185639	shape	-0.073616
-3.040134	sharing	-0.204222
-3.185639	shield	-0.073616
-3.185639	side	-0.073616
-3.185639	similar	-0.073616
-2.920419	simple	-0.156189
-3.185639	single	-0.073616
-2.494428	small	-0.073616
-3.040134	smaller	-0.073616
-3.185639	soluble	-0.073616
-2.657162	solute	-0.121254
-2.568217	solution	-0.096782
-3.185639	solutions	-0.073616
-3.185639	solvent	-0.073616
-3.185639	solvents	-0.073616
-3.040134	some	-0.073616
-3.040134	source	-0.073616
-3.185639	sources	-0.073616
-2.920419	species	-0.156189
-2.920419	specific	-0.073616
-3.185639	spherical	-0.073616
-3.185639	stabilize	-0.073616
-3.185639	stabilizing	-0.073616
-3.040134	stable	-0.073616
-3.185639	starch	-0.073616
-3.185639	state	-0.073616
-3.185639	steady	-0.073616
-3.185639	steroids	-0.073616
-3.185639	stop	-0.073616
-3.185639	storage	-0.073616
-3.185639	stranded	-0.073616
-3.040134	strands	-0.204222
-3.185639	stream	-0.073616
-3.040134	strength	-0.073616
-2.920419	strong	-0.073616
-2.920419	structure	-0.134028
-3.185639	subatomic	-0.073616
-3.185639	substance	-0.073616
-2.769141	subunits	-0.145797
-2.494428	such	-0.231359
-3.185639	sucrose	-0.073616
-2.657162	sugar	-0.113383
-3.040134	sugars	-0.073616
-3.185639	summary	-0.073616
-3.040134	surface	-0.204222
-3.185639	surrounding	-0.073616
-3.185639	symptoms	-0.073616
-3.185639	synthesis	-0.073616
-3.185639	synthesized	-0.073616
-3.040134	system	-0.073616
-3.040134	systems	-0.073616
-3.185639	take	-0.073616
-3.185639	temperature	-0.073616
-3.185639	template	-0.073616
-3.040134	tendency	-0.073616
-3.185639	terms	-0.073616
-2.657162	than	-0.073616
-1.776851	that	-0.174194
-1.471937	the	-0.129150
-2.769141	their	-0.073616
-3.185639	themselves	-0.073616
-3.185639	therefore	-0.073616
-3.185639	think	-0.073616
-2.769141	this	-0.073616
-3.185639	those	-0.073616
-3.040134	three	-0.073616
-2.657162	through	-0.121254
-2.769141	thymine	-0.073616
-3.185639	tighter	-0.073616
-3.185639	time	-0.073616
-3.185639	tissues	-0.073616
-1.739496	to	-0.212659
-2.568217	together	-0.120380
-3.185639	total	-0.073616
-3.185639	transcribed	-0.073616
-3.185639	transcription	-0.073616
-3.185639	transfer	-0.073616
-3.185639	transferred	-0.073616
-3.185639	transferring	-0.073616
-3.185639	transient	-0.073616
-3.185639	translation	-0.073616
-2.769141	transport	-0.113383
-3.185639	transported	-0.073616
-3.185639	triglycerides	-0.073616
-3.185639	triphosphate	-0.073616
-3.185639	triplets	-0.073616
-2.494428	two	-0.073616
-3.040134	type	-0.073616
-3.185639	uncharged	-0.073616
-3.185639	undergoes	-0.073616
-3.185639	understanding	-0.073616
-3.185639	unfavorable	-0.073616
-2.920419	units	-0.073616
-3.040134	up	-0.073616
-3.040134	uracil	-0.073616
-3.040134	used	-0.073616
-3.185639	useful	-0.073616
-3.040134	using	-0.073616
-3.185639	usuall	-0.073616
-2.657162	usually	-0.121254
-2.920419	value	-0.156189
-3.185639	values	-0.073616
-3.040134	van	-0.204222
-3.185639	variable	-0.073616
-3.185639	varies	-0.073616
-3.185639	various	-0.073616
-3.185639	versa	-0.073616
-3.185639	very	-0.073616
-3.185639	via	-0.073616
-3.185639	vice	-0.073616
-3.185639	vitro	-0.073616
-3.185639	waals	-0.073616
-2.243698	water	-0.086333
-2.769141	weak	-0.073616
-3.040134	weaker	-0.073616
-3.040134	well	-0.073616
-3.185639	what	-0.073616
-3.185639	when	-0.073616
-3.185639	where	-0.073616
-3.185639	whereby	-0.073616
-2.657162	which	-0.134028
-3.040134	whose	-0.073616
-2.568217	why	-0.112943
-3.185639	will	-0.073616
-2.243698	with	-0.107102
-3.185639	without	-0.073616
-2.920419	you	-0.073616
-3.185639	your	-0.073616

\2-grams:
-1.414614	<s> </s>
-2.373049	<s> acid	-0.048240
-2.707516	<s> acidosis	-0.048240
-2.164920	<s> active	-0.129434
-2.658205	<s> adenine	-0.048240
-2.521076	<s> amino	-0.048240
-2.707516	<s> amphiphilic	-0.048240
-2.707516	<s> anion	-0.048240
-2.757078	<s> aquaporin	-0.048240
-2.584251	<s> atoms	-0.048240
-2.658205	<s> atp	-0.048240
-2.333128	<s> base	-0.048240
-2.757078	<s> beng	-0.048240
-2.707516	<s> biomolecules	-0.048240
-2.194290	<s> buffer	-0.048240
-2.707516	<s> c	-0.048240
-2.707516	<s> carbohydrate	-0.048240
-2.707516	<s> carbohydrates	-0.048240
-2.707516	<s> cation	-0.048240
-2.584251	<s> cell	-0.048240
-2.658205	<s> chapter	-0.048240
-2.658205	<s> charged	-0.048240
-2.757078	<s> complementary	-0.048240
-2.296571	<s> concentration	-0.048240
-2.707516	<s> condensation	-0.048240
-2.180155	<s> conjugate	-0.048240
-2.465936	<s> covalent	-0.048240
-2.658205	<s> cytosine	-0.048240
-2.757078	<s> describe	-0.048240
-2.061873	<s> diffusion	-0.048240
-2.707516	<s> dissociation	-0.048240
-2.521076	<s> do	-0.048240
-2.584251	<s> does	-0.048240
-2.757078	<s> electrochemical	-0.048240
-2.757078	<s> endothermic	-0.048240
-2.658205	<s> enthalpy	-0.048240
-2.584251	<s> entropy	-0.048240
-2.757078	<s> enzyme	-0.048240
-2.584251	<s> equilibrium	-0.048240
-2.757078	<s> exothermic	-0.048240
-2.707516	<s> explain	-0.048240
-2.707516	<s> facilitated	-0.048240
-2.757078	<s> flux	-0.048240
-2.521076	<s> free	-0.048240
-2.707516	<s> fructose	-0.048240
-2.658205	<s> functional	-0.048240
-2.707516	<s> galactose	-0.048240
-2.707516	<s> gene	-0.048240
-2.584251	<s> genetic	-0.048240
-2.757078	<s> gibbs	-0.048240
-2.658205	<s> glucose	-0.048240
-2.757078	<s> glycocalyx	-0.048240
-2.757078	<s> glycolipid	-0.048240
-2.757078	<s> glycoprotein	-0.048240
-2.658205	<s> guanine	-0.048240
-2.707516	<s> homeostasis	-0.048240
-2.658205	<s> how	-0.048240
-2.757078	<s> hybridization	-0.048240
-1.970159	<s> hydrogen	-0.048240
-2.584251	<s> hydrolysis	-0.048240
-2.658205	<s> hydrophilic	-0.048240
-2.164920	<s> hydrophobic	-0.048240
-2.707516	<s> hypertonic	-0.048240
-2.707516	<s> hypotonic	-0.048240
-2.180155	<s> if	-0.048240
-2.584251	<s> ion	-0.048240
-2.658205	<s> ionic	-0.048240
-2.707516	<s> isotonic	-0.048240
-2.757078	<s> key	-0.048240
-2.707516	<s> lactose	-0.048240
-2.757078	<s> lipids	-0.048240
-2.757078	<s> liposome	-0.048240
-2.707516	<s> macromolecule	-0.048240
-2.757078	<s> messenger	-0.048240
-2.757078	<s> molecular	-0.048240
-2.039536	<s> molecules	-0.048240
-2.757078	<s> monomer	-0.048240
-2.707516	<s> monosaccharide	-0.048240
-2.707516	<s> most	-0.048240
-2.707516	<s> neutral	-0.048240
-2.707516	<s> nitrogenous	-0.048240
-2.584251	<s> noncovalent	-0.048240
-2.521076	<s> nonpolar	-0.048240
-2.757078	<s> normal	-0.048240
-2.373049	<s> nucleic	-0.048240
-2.584251	<s> nucleotide	-0.048240
-2.658205	<s> osmosis	-0.048240
-2.658205	<s> osmotic	-0.048240
-2.584251	<s> passive	-0.048240
-2.757078	<s> pentose	-0.048240
-2.707516	<s> peptide	-0.048240
-2.465936	<s> ph	-0.048240
-2.658205	<s> phospholipid	-0.048240
-2.521076	<s> polar	-0.048240
-2.584251	<s> polymer	-0.048240
-2.707516	<s> polymerization	-0.048240
-2.658205	<s> polypeptide	-0.048240
-2.757078	<s> polysaccharide	-0.048240
-2.465936	<s> protein	-0.048240
-2.707516	<s> proton	-0.048240
-2.707516	<s> purine	-0.048240
-2.658205	<s> pyrimidine	-0.048240
-2.757078	<s> questions	-0.048240
-2.521076	<s> solute	-0.048240
-2.465936	<s> solution	-0.048240
-2.757078	<s> steady	-0.048240
-2.757078	<s> sucrose	-0.048240
-2.757078	<s> summary	-0.048240
-1.453694	<s> the	-0.048240
-2.584251	<s> this	-0.048240
-2.584251	<s> thymine	-0.048240
-2.757078	<s> transcription	-0.048240
-2.757078	<s> translation	-0.048240
-2.757078	<s> triglycerides	-0.048240
-2.707516	<s> uracil	-0.048240
-2.707516	<s> van	-0.048240
-2.465936	<s> why	-0.048240
-1.562476	a a	-0.048240
-1.758488	a and	-0.129434
-2.708324	a b	-0.048240
-2.367108	a base	-0.048240
-2.708324	a binding	-0.048240
-2.445657	a bond	-0.048240
-2.751254	a byproduct	-0.048240
-2.708324	a carbohydrate	-0.048240
-2.664987	a carbon	-0.048240
-2.708324	a carboxyl	-0.048240
-2.598938	a cell	-0.048240
-2.708324	a chain	-0.048240
-2.300613	a change	-0.048240
-1.962410	a chemical	-0.318140
-2.708324	a chemistry	-0.048240
-2.058578	a class	-0.100649
-2.751254	a classes	-0.048240
-2.708324	a collection	-0.048240
-2.708324	a complex	-0.048240
-1.761307	a compound	-0.083771
-2.708324	a condensation	-0.048240
-1.589574	a constituent	-0.180681
-2.490994	a covalent	-0.048240
-2.751254	a deserted	-0.048240
-2.664987	a difference	-0.048240
-2.157882	a disaccharide	-0.129434
-2.751254	a distinctive	-0.048240
-2.751254	a five	-0.048240
-2.066587	a form	-0.129434
-2.708324	a function	-0.048240
-2.598938	a genetic	-0.048240
-2.751254	a given	-0.048240
-2.751254	a glycerol	-0.048240
-2.169546	a hexose	-0.129434
-1.962410	a hydrogen	-0.096292
-2.598938	a hydrolysis	-0.048240
-2.086077	a is	-0.048240
-1.756188	a large	-0.048240
-2.751254	a linear	-0.048240
-2.751254	a lipid	-0.048240
-2.058578	a measure	-0.096292
-2.445657	a membrane	-0.048240
-2.048964	a molecule	-0.100649
-2.490994	a negative	-0.048240
-2.490994	a net	-0.048240
-2.598938	a noncovalent	-0.129434
-2.751254	a nucleoside	-0.048240
-2.598938	a nucleotide	-0.048240
-2.490994	a ph	-0.048240
-2.541621	a polar	-0.129434
-2.023050	a polymer	-0.048240
-2.708324	a polymerization	-0.048240
-2.664987	a polypeptide	-0.048240
-2.157882	a positive	-0.048240
-2.664987	a positively	-0.048240
-2.084955	a protein	-0.048240
-2.049516	a proton	-0.221230
-2.708324	a purine	-0.048240
-2.664987	a pyrimidine	-0.048240
-2.664987	a rate	-0.048240
-1.722340	a reaction	-0.071602
-2.708324	a result	-0.048240
-2.751254	a selective	-0.048240
-2.169546	a semipermeable	-0.096292
-2.124199	a sequence	-0.048240
-2.664987	a simple	-0.048240
-2.445657	a small	-0.048240
-2.541621	a solute	-0.048240
-1.568631	a solution	-0.078921
-2.664987	a specific	-0.048240
-2.157882	a stable	-0.048240
-2.751254	a storage	-0.048240
-2.751254	a stream	-0.048240
-2.664987	a strong	-0.048240
-2.541621	a sugar	-0.048240
-2.157882	a system	-0.048240
-2.751254	a template	-0.048240
-1.597667	a the	-0.048240
-2.270831	a water	-0.048240
-2.598938	a weak	-0.048240
-0.800792	ab it	-0.048240
-0.766251	ability to	-0.048240
-0.790478	above are	-0.048240
-0.804286	absorbs heat	-0.048240
-0.728326	accept a	-0.048240
-0.792749	accompanied by	-0.048240
-1.035312	acid a	-0.048240
-1.842622	acid ch	-0.048240
-1.869026	acid ha	-0.048240
-1.498298	acid in	-0.048240
-1.869026	acid monomeric	-0.048240
-1.338253	acid of	-0.048240
-1.597221	acid or	-0.048240
-1.869026	acid residues	-0.048240
-1.855015	acid species	-0.048240
-1.842622	acid subunits	-0.048240
-1.576875	acid that	-0.129434
-1.235379	acidic and	-0.048240
-1.400670	acidic basic	-0.048240
-1.393446	acidic groups	-0.048240
-1.403070	acidic nor	-0.048240
-0.772725	acidity or	-0.048240
-1.105075	acidosis excess	-0.048240
-1.041903	acidosis or	-0.048240
-0.987804	acids </s>
-0.971714	acids and	-0.086942
-1.833620	acids connected	-0.048240
-1.821484	acids during	-0.048240
-1.498126	acids in	-0.048240
-1.833620	acids joined	-0.048240
-1.810707	acids nucleotides	-0.048240
-1.833620	acids present	-0.048240
-0.213420	across a	-0.098465
-0.766251	act to	-0.048240
-0.482281	active transport	-0.048240
-0.805570	ad living	-0.048240
-0.711009	added </s>
-0.397285	addition of	-0.048240
-1.110178	adenine </s>
-1.154973	adenine a	-0.048240
-1.235379	adenine and	-0.048240
-1.232236	adenine in	-0.048240
-0.805570	adenosine triphosphate	-0.048240
-0.804962	adjacent regions	-0.048240
-0.772725	administration or	-0.048240
-0.804286	affects how	-0.048240
-0.797327	affinity for	-0.048240
-0.803118	against their	-0.048240
-0.772725	aggregate or	-0.048240
-0.803118	aided transport	-0.048240
-0.711009	alkaline </s>
-0.720544	alkalinity of	-0.048240
-0.711009	alkalosis </s>
-1.064718	allows molecules	-0.048240
-1.082098	allows water	-0.048240
-0.793889	along with	-0.048240
-0.894199	amino acid	-0.048240
-0.781748	amino acids	-0.048240
-1.560752	amino group	-0.048240
-0.962700	amphiphilic a	-0.048240
-1.064718	amphiphilic molecules	-0.048240
-2.036365	an ability	-0.048240
-1.931884	an acid	-0.048240
-2.036365	an affinity	-0.048240
-1.980166	an amino	-0.048240
-1.372323	an aqueous	-0.100649
-2.036365	an area	-0.048240
-2.026432	an assembly	-0.048240
-1.997531	an atom	-0.048240
-2.026432	an electron	-0.048240
-2.026432	an electronegative	-0.048240
-2.036365	an energetically	-0.048240
-2.026432	an external	-0.129434
-1.931884	an h	-0.048240
-1.980166	an important	-0.048240
-2.036365	an intimate	-0.048240
-2.036365	an oh	-0.048240
-2.015619	an organic	-0.048240
-1.357584	and a	-0.048240
-2.459695	and act	-0.048240
-2.407360	and active	-0.048240
-2.434161	and b	-0.048240
-2.197559	and base	-0.048240
-2.364583	and bases	-0.048240
-2.325645	and can	-0.048240
-2.407360	and carbon	-0.048240
-2.459695	and cellulose	-0.048240
-2.459695	and definitions	-0.048240
-2.407360	and electric	-0.048240
-2.364583	and entropy	-0.048240
-2.459695	and formation	-0.048240
-2.459695	and fruits	-0.048240
-2.434161	and galactose	-0.048240
-2.459695	and glycolipids	-0.048240
-2.407360	and guanine	-0.048240
-2.407360	and how	-0.048240
-1.714028	and hybridizes	-0.100649
-2.407360	and hydrophilic	-0.048240
-2.434161	and many	-0.048240
-2.434161	and may	-0.048240
-2.459695	and mediate	-0.048240
-1.966501	and molecules	-0.048240
-2.434161	and monosaccharides	-0.048240
-2.289912	and negative	-0.129434
-2.434161	and negatively	-0.048240
-2.325645	and nonpolar	-0.048240
-1.326644	and of	-0.048240
-2.197559	and one	-0.048240
-2.407360	and oxygen	-0.048240
-2.407360	and pairs	-0.048240
-2.407360	and phosphate	-0.048240
-2.364583	and proteins	-0.048240
-2.459695	and repulsive	-0.048240
-2.459695	and reverse	-0.048240
-2.325645	and rna	-0.100649
-2.256897	and small	-0.048240
-2.459695	and steroids	-0.048240
-1.382327	and the	-0.048240
-2.364583	and their	-0.048240
-2.459695	and therefore	-0.048240
-2.459695	and those	-0.048240
-2.364583	and thymine	-0.048240
-2.459695	and transferring	-0.048240
-2.434161	and van	-0.048240
-2.459695	and variable	-0.048240
-2.459695	and vice	-0.048240
-0.933404	anion </s>
-1.103864	anion negatively	-0.048240
-0.549712	another </s>
-1.278937	another electronegative	-0.048240
-0.755670	answer in	-0.048240
-1.492176	any large	-0.048240
-1.475409	any net	-0.048240
-1.498471	any relatively	-0.048240
-1.492176	any simple	-0.048240
-1.469960	any small	-0.048240
-0.766251	applied to	-0.048240
-0.665229	aq </s>
-0.713004	aq is	-0.048240
-0.728326	aquaporin a	-0.048240
-1.272383	aqueous environment	-0.048240
-1.279646	aqueous interior	-0.048240
-1.220629	aqueous molecules	-0.048240
-1.999324	are acidic	-0.048240
-2.037115	are added	-0.048240
-2.037115	are alkaline	-0.048240
-2.027458	are amphiphilic	-0.048240
-1.999324	are found	-0.129434
-2.037115	are held	-0.048240
-1.982397	are important	-0.048240
-2.037115	are insoluble	-0.048240
-2.016938	are much	-0.048240
-2.016938	are on	-0.048240
-1.982397	are polar	-0.048240
-1.374670	are polymers	-0.129434
-1.164224	are the	-0.129434
-2.027458	are used	-0.048240
-1.982397	are usually	-0.048240
-1.999324	are weak	-0.048240
-0.720544	area of	-0.048240
-0.803118	around atoms	-0.048240
-1.016425	as a	-0.048240
-1.759752	as dna	-0.048240
-1.769414	as hydrogen	-0.048240
-1.495865	as in	-0.048240
-1.827649	as may	-0.048240
-1.769414	as nucleic	-0.048240
-1.821237	as oxygen	-0.048240
-1.026903	as the	-0.048240
-1.827649	as well	-0.048240
-0.799634	assembling into	-0.048240
-1.079887	assembly by	-0.048240
-0.949435	assembly of	-0.048240
-0.804286	association constant	-0.048240
-0.801954	assumes its	-0.048240
-1.105075	asymmetric distribution	-0.129434
-1.103864	asymmetric electron	-0.048240
-0.962700	at a	-0.048240
-1.091056	at chemical	-0.048240
-1.382435	atom and	-0.048240
-1.641596	atom bound	-0.048240
-1.632868	atom commonly	-0.048240
-1.641596	atom covalently	-0.048240
-1.454483	atom or	-0.048240
-1.641596	atom particularly	-0.048240
-1.641596	atom without	-0.048240
-1.388930	atoms can	-0.048240
-1.403070	atoms dipoles	-0.048240
-1.232236	atoms in	-0.048240
-1.274988	atoms that	-0.048240
-1.110178	atp </s>
-1.403070	atp adenosine	-0.048240
-1.326284	atp is	-0.048240
-1.285481	atp or	-0.048240
-0.804962	attraction due	-0.048240
-0.756717	attractive and	-0.048240
-0.755670	available in	-0.048240
-1.279646	b ab	-0.048240
-1.277838	b d	-0.048240
-1.094490	b the	-0.048240
-0.792749	balanced by	-0.048240
-0.987937	base a	-0.048240
-1.676886	base are	-0.048240
-1.772653	base ch	-0.048240
-1.782505	base nitrogen	-0.048240
-0.975329	base of	-0.048240
-1.782505	base pairs	-0.048240
-1.782505	base species	-0.048240
-1.549194	base that	-0.048240
-1.393446	bases called	-0.048240
-1.384460	bases it	-0.048240
-1.403070	bases match	-0.048240
-1.134492	bases of	-0.048240
-1.105075	basic affects	-0.048240
-1.095605	basic ph	-0.048240
-1.698094	be applied	-0.048240
-1.698094	be broken	-0.048240
-1.679310	be found	-0.048240
-1.698094	be helpful	-0.048240
-1.653773	be linked	-0.048240
-1.688167	be much	-0.048240
-1.698094	be permeable	-0.048240
-1.698094	be transported	-0.048240
-0.720544	because of	-0.048240
-0.755670	behaves in	-0.048240
-0.766251	belongs to	-0.129434
-0.803118	below this	-0.048240
-0.805570	beng frontiers	-0.048240
-0.919345	between a	-0.100649
-1.699785	between adjacent	-0.048240
-1.620021	between an	-0.048240
-0.885619	between molecules	-0.100649
-1.683548	between passive	-0.048240
-0.769476	beyond that	-0.048240
-0.805570	bicarbonate buffering	-0.048240
-1.110178	bilayer </s>
-1.403070	bilayer along	-0.048240
-1.380036	bilayer membrane	-0.048240
-1.398009	bilayer structure	-0.048240
-1.093324	binding between	-0.129434
-1.093324	binding reaction	-0.048240
-0.804962	biochemical concepts	-0.048240
-0.725511	biological macromolecule	-0.129434
-0.713004	biological molecules	-0.048240
-0.805570	biomedical engineering	-0.048240
-1.103864	biomolecules contain	-0.048240
-1.095605	biomolecules together	-0.048240
-0.720544	block of	-0.048240
-0.805570	blood help	-0.048240
-1.279646	body fluids	-0.048240
-1.279646	body maintains	-0.048240
-1.279646	body take	-0.048240
-0.948519	bond a	-0.129434
-1.719517	bond any	-0.048240
-1.701759	bond between	-0.048240
-1.748531	bond energies	-0.048240
-1.728676	bond has	-0.048240
-1.601244	bond is	-0.048240
-1.743535	bond stable	-0.048240
-1.513993	bond that	-0.048240
-1.029945	bonded to	-0.048240
-1.095605	bonded together	-0.048240
-0.784852	bonding is	-0.048240
-0.925529	bonds </s>
-1.505929	bonds and	-0.048240
-1.726625	bonds are	-0.048240
-1.808020	bonds between	-0.048240
-1.786197	bonds dna	-0.048240
-1.500383	bonds in	-0.048240
-1.869163	bonds often	-0.048240
-1.808020	bonds such	-0.048240
-1.819357	bonds why	-0.048240
-1.755390	bonds with	-0.048240
-0.766251	book to	-0.048240
-0.804286	both hydrophobic	-0.048240
-0.766251	bound to	-0.048240
-0.805570	breathing disturb	-0.048240
-0.804962	broken down	-0.048240
-0.962700	buffer a	-0.048240
-1.103864	buffer systems	-0.048240
-0.804962	buffering system	-0.048240
-0.805570	building block	-0.048240
-0.804286	but not	-0.048240
-1.394377	by a	-0.048240
-1.834578	by change	-0.048240
-1.953211	by coupling	-0.048240
-1.899739	by covalent	-0.048240
-1.961538	by mass	-0.048240
-1.944112	by multiple	-0.048240
-1.872490	by nucleic	-0.048240
-1.928812	by passive	-0.048240
-1.953211	by peptide	-0.048240
-1.961538	by phosphorous	-0.048240
-1.961538	by requiring	-0.048240
-1.953211	by sharing	-0.048240
-1.110656	by the	-0.048240
-1.914032	by which	-0.048240
-0.801954	byproduct usually	-0.048240
-0.423128	c h	-0.129434
-1.398009	called monomers	-0.048240
-1.398009	called osmosis	-0.048240
-1.400670	called purines	-0.048240
-1.398009	called pyrimidine	-0.048240
-1.642374	can accept	-0.048240
-0.962949	can be	-0.048240
-1.638525	can cross	-0.048240
-1.642374	can donate	-0.048240
-1.605948	can form	-0.048240
-1.642374	can generate	-0.048240
-0.756717	capturing and	-0.048240
-0.962700	carbohydrate a	-0.048240
-1.105075	carbohydrate coat	-0.048240
-0.933404	carbohydrates </s>
-1.091056	carbohydrates nucleic	-0.048240
-1.272383	carbon atom	-0.048240
-1.279646	carbon dioxide	-0.048240
-1.268961	carbon sugar	-0.048240
-1.012605	carboxyl and	-0.048240
-1.097897	carboxyl group	-0.048240
-0.792749	carried by	-0.048240
-0.728326	carries a	-0.048240
-0.728326	catalyzes a	-0.048240
-1.012605	cation and	-0.048240
-1.102519	cation positively	-0.048240
-0.793889	cause water	-0.129434
-0.805570	causes no	-0.048240
-1.254958	cell </s>
-1.426847	cell and	-0.048240
-1.566175	cell is	-0.048240
-1.016307	cell membrane	-0.048240
-1.698869	cell membranes	-0.048240
-1.694444	cell surface	-0.048240
-1.485666	cell that	-0.048240
-0.743165	cells </s>
-0.821978	cells due	-0.129434
-1.490506	cells hydrolysis	-0.048240
-0.756717	cellulose and	-0.048240
-0.822478	ch coo	-0.129434
-0.822478	ch cooh	-0.129434
-1.495026	ch o	-0.048240
-0.393908	chain </s>
-1.093324	chains linked	-0.048240
-1.097897	chains usually	-0.048240
-1.360345	change </s>
-1.540622	change and	-0.048240
-1.816171	change g	-0.048240
-1.780988	change h	-0.048240
-0.543196	change in	-0.078921
-1.835819	change over	-0.048240
-1.830876	change s	-0.048240
-0.800792	channel protein	-0.048240
-0.549712	chapter </s>
-1.280435	chapter reviewed	-0.048240
-0.804286	characteristic properties	-0.048240
-1.091056	charge as	-0.048240
-1.041903	charge or	-0.129434
-0.606589	charged ion	-0.086942
-1.403997	charged subatomic	-0.048240
-1.097897	charges nonpolar	-0.048240
-1.097897	charges polar	-0.048240
-1.653773	chemical bond	-0.048240
-1.629654	chemical concentration	-0.048240
-1.679310	chemical equilibrium	-0.048240
-1.698094	chemical force	-0.048240
-1.679310	chemical groups	-0.048240
-1.688167	chemical process	-0.048240
-1.653773	chemical reaction	-0.078921
-1.698094	chemical reactions	-0.048240
-1.091056	chemistry as	-0.048240
-1.105075	chemistry book	-0.048240
-0.711009	cl </s>
-1.100202	class called	-0.048240
-0.949435	class of	-0.129434
-0.720544	classes of	-0.048240
-0.756717	cleavage and	-0.048240
-0.793889	cleaved with	-0.048240
-0.800792	cluster together	-0.048240
-1.100202	co equilibrium	-0.048240
-1.105075	co pass	-0.048240
-0.805570	coat covering	-0.048240
-0.397285	collection of	-0.048240
-0.593242	commonly are	-0.129434
-1.277273	commonly oxygen	-0.048240
-0.766251	compared to	-0.048240
-0.803118	complementary sequence	-0.048240
-1.100202	complex ion	-0.048240
-1.093324	complex two	-0.048240
-1.010720	components in	-0.048240
-0.949435	components of	-0.048240
-0.397285	composed of	-0.048240
-1.268961	compound its	-0.048240
-1.179909	compound that	-0.048240
-1.268961	compound usually	-0.048240
-0.723654	compounds containing	-0.048240
-0.703293	compounds that	-0.048240
-0.711009	concentrated </s>
-1.304208	concentration </s>
-1.505929	concentration and	-0.048240
-1.808020	concentration between	-0.048240
-1.862533	concentration disaccharide	-0.048240
-1.082003	concentration gradient	-0.048240
-1.500383	concentration in	-0.048240
-1.682550	concentration is	-0.048240
-1.340784	concentration of	-0.048240
-1.397790	concentration the	-0.048240
-1.559312	concentration to	-0.129434
-0.711009	concentrations </s>
-1.012605	concepts and	-0.048240
-1.035883	concepts that	-0.048240
-1.093324	condensation reaction	-0.048240
-0.972922	condensation the	-0.048240
-0.769476	condition that	-0.048240
-0.804962	confer different	-0.048240
-0.949435	conformation of	-0.048240
-0.972922	conformation the	-0.048240
-0.721503	conjugate acid	-0.048240
-0.720788	conjugate base	-0.048240
-0.792749	connected by	-0.048240
-0.212276	consisting of	-0.109247
-1.463899	constant for	-0.048240
-0.821117	constant k	-0.048240
-1.496571	constant ratio	-0.048240
-1.246420	constant the	-0.048240
-0.797327	constants for	-0.048240
-1.255538	constituent base	-0.048240
-1.272383	constituent bases	-0.048240
-1.063680	constituent of	-0.083771
-1.100202	contain proteins	-0.048240
-1.105075	contain various	-0.048240
-0.805570	contained represented	-0.048240
-1.680416	containing base	-0.048240
-1.698362	containing bonds	-0.048240
-1.742467	containing carbohydrates	-0.048240
-1.747758	containing fewer	-0.048240
-1.689296	containing hydrogen	-0.048240
-1.736644	containing nitrogen	-0.048240
-1.680416	containing one	-0.048240
-1.736644	containing phosphate	-0.048240
-1.698362	containing two	-0.048240
-0.805570	continually balanced	-0.048240
-0.804962	coo aq	-0.048240
-0.804962	cooh aq	-0.048240
-0.799634	copied into	-0.048240
-0.766251	coupled to	-0.048240
-0.949435	coupling of	-0.048240
-1.095605	coupling together	-0.048240
-0.896908	covalent bond	-0.048240
-0.478161	covalent bonds	-0.048240
-0.804962	covalently bonded	-0.048240
-0.734255	covering the	-0.048240
-0.766251	critical to	-0.048240
-0.402057	cross the	-0.048240
-0.425327	cystic fibrosis	-0.048240
-0.720544	cytoplasm of	-0.048240
-1.081017	cytosine a	-0.048240
-1.147808	cytosine and	-0.048240
-1.145237	cytosine in	-0.048240
-0.933404	d </s>
-0.972922	d the	-0.048240
-0.720544	decomposition of	-0.048240
-0.804286	decrease during	-0.048240
-0.805570	deep breathing	-0.048240
-1.010720	defect in	-0.048240
-1.105075	defect manifest	-0.048240
-0.798479	defined as	-0.048240
-0.711009	definitions </s>
-0.720544	degree of	-0.048240
-0.734255	delivery the	-0.048240
-0.804286	depending on	-0.048240
-0.805570	der waals	-0.048240
-0.409665	derivative and	-0.048240
-0.734255	describe the	-0.048240
-0.805570	deserted island	-0.048240
-0.728326	detect a	-0.048240
-0.711009	diabetes </s>
-1.384371	difference between	-0.048240
-0.580390	difference in	-0.048240
-1.105075	different concentrations	-0.048240
-1.102519	different properties	-0.048240
-1.215474	diffusion </s>
-1.641596	diffusion depending	-0.048240
-1.516129	diffusion is	-0.048240
-1.609853	diffusion net	-0.048240
-1.246704	diffusion of	-0.048240
-1.609853	diffusion protein	-0.048240
-1.294580	diffusion the	-0.048240
-0.804286	dimensional structure	-0.048240
-0.804962	dioxide co	-0.048240
-0.711009	dipoles </s>
-1.097897	direction across	-0.048240
-1.064718	direction is	-0.048240
-0.962700	disaccharide a	-0.048240
-1.105075	disaccharide made	-0.048240
-1.042939	disease </s>
-1.188319	disease or	-0.048240
-1.279646	disease what	-0.048240
-0.933404	disorder </s>
-1.041903	disorder or	-0.048240
-0.600436	dissociation constant	-0.048240
-1.094705	dissociation of	-0.048240
-1.105075	dissolve easily	-0.048240
-1.010720	dissolve in	-0.048240
-0.766251	dissolved to	-0.048240
-0.805570	distinctive side	-0.048240
-0.720544	distribution of	-0.129434
-0.805570	distributions around	-0.048240
-0.734255	disturb the	-0.048240
-0.961493	dna </s>
-0.937475	dna and	-0.096292
-1.736028	dna as	-0.048240
-1.793712	dna assembling	-0.048240
-1.481812	dna in	-0.048240
-1.744980	dna into	-0.048240
-1.772997	dna nucleotides	-0.048240
-0.821420	do not	-0.100649
-1.497662	do some	-0.048240
-0.821420	do you	-0.129434
-1.486514	does entropy	-0.048240
-1.498471	does hyperventilation	-0.048240
-1.475409	does it	-0.048240
-1.492176	does not	-0.048240
-1.343959	does that	-0.048240
-0.728326	donate a	-0.048240
-0.805570	double stranded	-0.096292
-0.797327	doublestranded dna	-0.048240
-1.097897	down its	-0.048240
-1.029945	down to	-0.048240
-0.734255	drink the	-0.048240
-0.805570	dry eyes	-0.048240
-0.412816	due to	-0.100649
-1.081017	during a	-0.048240
-1.265566	during protein	-0.048240
-1.094490	during the	-0.048240
-0.803118	e g	-0.048240
-0.949435	each of	-0.048240
-1.100202	each other	-0.048240
-0.755670	easily in	-0.048240
-0.734255	effect the	-0.048240
-0.601100	electric charge	-0.100649
-1.278937	electric potential	-0.048240
-0.804962	electrochemical gradient	-0.048240
-1.105075	electron distributions	-0.048240
-1.091056	electron h	-0.048240
-0.424569	electronegative atom	-0.048240
-1.275832	electrons multiple	-0.048240
-1.279646	electrons respectively	-0.048240
-1.262197	electrons such	-0.048240
-0.799634	endothermic referring	-0.048240
-0.805570	energetically unfavorable	-0.048240
-0.711009	energies </s>
-0.986426	energy </s>
-1.799760	energy across	-0.048240
-1.741050	energy change	-0.129434
-1.810366	energy g	-0.048240
-1.495865	energy in	-0.048240
-1.833482	energy input	-0.048240
-1.002836	energy of	-0.048240
-1.833482	energy phosphoanhydride	-0.048240
-1.827649	energy source	-0.048240
-0.805570	engineering professor	-0.048240
-0.412816	enough to	-0.129434
-1.110178	enthalpy </s>
-1.362777	enthalpy change	-0.048240
-1.375657	enthalpy h	-0.048240
-1.134492	enthalpy of	-0.048240
-1.362777	entropy change	-0.048240
-1.403070	entropy increase	-0.048240
-1.400670	entropy s	-0.048240
-1.170994	entropy the	-0.048240
-0.733626	environment </s>
-1.445171	environment by	-0.048240
-1.473575	environment into	-0.048240
-1.246420	environment the	-0.048240
-0.728326	enzyme a	-0.048240
-0.711009	enzymes </s>
-0.766251	equal to	-0.048240
-0.734255	equals the	-0.048240
-0.724791	equilibrium constant	-0.048240
-1.395455	equilibrium does	-0.048240
-1.195479	equilibrium the	-0.048240
-0.412816	equivalent to	-0.129434
-0.803118	especially found	-0.048240
-0.805570	examples include	-0.048240
-0.720544	excess of	-0.048240
-0.799634	exothermic referring	-0.048240
-0.972922	explain the	-0.048240
-1.105075	explain your	-0.048240
-1.100202	external environment	-0.048240
-1.095605	external solution	-0.129434
-0.803118	extracellular environment	-0.048240
-0.801954	eyes do	-0.048240
-0.424930	facilitated diffusion	-0.048240
-0.801954	fat consisting	-0.048240
-0.482281	fatty acids	-0.048240
-0.805570	feedback mechanisms	-0.048240
-0.801954	fewer than	-0.048240
-1.064718	fibrosis is	-0.048240
-1.105075	fibrosis patients	-0.048240
-1.102519	find information	-0.048240
-1.082098	find water	-0.048240
-0.804286	five carbon	-0.048240
-0.720544	flow of	-0.048240
-0.805570	fluid particles	-0.048240
-1.091056	fluids as	-0.048240
-1.095605	fluids why	-0.048240
-0.734255	flux the	-0.048240
-0.804286	folding process	-0.048240
-0.805570	foods ad	-0.048240
-0.955479	for a	-0.048240
-1.749305	for capturing	-0.048240
-1.749305	for intravenous	-0.048240
-1.749305	for lubrication	-0.048240
-1.744605	for some	-0.048240
-0.964358	for the	-0.048240
-1.665860	for water	-0.048240
-0.769476	force that	-0.048240
-0.797327	foreign dna	-0.048240
-1.352294	form a	-0.048240
-1.065002	form hydrogen	-0.129434
-1.739674	form ionic	-0.048240
-1.697727	form nucleic	-0.048240
-0.855484	form of	-0.048240
-1.689803	form one	-0.048240
-0.720544	formation of	-0.048240
-0.478309	formed by	-0.083771
-0.755670	forms in	-0.048240
-1.103864	formula c	-0.048240
-1.100202	formula ch	-0.048240
-0.756717	forward and	-0.048240
-0.294230	found in	-0.078921
-0.804962	four constituent	-0.048240
-0.222976	free energy	-0.078921
-0.958027	from a	-0.048240
-1.751106	from an	-0.048240
-1.863589	from aqueous	-0.048240
-1.844844	from high	-0.048240
-1.833372	from its	-0.048240
-1.863589	from phospholipids	-0.048240
-1.833372	from rna	-0.048240
-1.411378	from the	-0.048240
-1.174663	from water	-0.129434
-0.720544	frontiers of	-0.048240
-0.962700	fructose a	-0.048240
-1.091056	fructose molecule	-0.048240
-0.711009	fruits </s>
-0.397285	function of	-0.048240
-0.599832	functional groups	-0.048240
-1.280435	functional shape	-0.048240
-0.804962	fused heterocyclic	-0.048240
-1.244162	g a	-0.048240
-1.576148	g cl	-0.048240
-1.576148	g indicates	-0.048240
-1.576148	g na	-0.048240
-1.219143	g of	-0.048240
-1.263919	g the	-0.048240
-0.797327	gained one	-0.048240
-0.962700	galactose a	-0.048240
-1.102519	galactose units	-0.048240
-0.933404	gene </s>
-1.105075	gene delivery	-0.048240
-0.790478	generally are	-0.048240
-0.804286	generate osmotic	-0.048240
-1.399698	genetic disease	-0.048240
-0.607217	genetic information	-0.048240
-0.801954	gibbs free	-0.048240
-0.792749	give an	-0.048240
-0.804962	given surface	-0.048240
-1.105075	gives off	-0.048240
-1.105075	gives rise	-0.048240
-1.081017	glucose a	-0.048240
-1.147808	glucose and	-0.048240
-1.258855	glucose molecule	-0.048240
-0.798479	glycerol molecule	-0.048240
-0.728326	glycocalyx a	-0.048240
-0.728326	glycolipid a	-0.048240
-0.711009	glycolipids </s>
-0.728326	glycoprotein a	-0.048240
-1.154973	gradient a	-0.048240
-1.400670	gradient at	-0.048240
-1.354398	gradient by	-0.048240
-1.398009	gradient difference	-0.048240
-1.391504	greater solute	-0.048240
-0.723100	greater than	-0.048240
-1.195479	greater the	-0.048240
-1.229361	group a	-0.048240
-1.445171	group an	-0.048240
-1.483471	group containing	-0.048240
-0.742622	group of	-0.048240
-1.501094	groups are	-0.048240
-1.357618	groups in	-0.048240
-1.545824	groups linked	-0.048240
-1.570045	groups specific	-0.048240
-0.860317	groups that	-0.048240
-1.042939	guanine </s>
-1.081017	guanine a	-0.048240
-1.275832	guanine commonly	-0.048240
-0.978818	h </s>
-1.488806	h and	-0.048240
-1.826589	h co	-0.048240
-1.726697	h from	-0.048240
-1.819862	h heat	-0.048240
-1.832713	h neutrality	-0.048240
-1.819862	h o	-0.129434
-1.328467	h of	-0.048240
-1.384010	h the	-0.048240
-1.540218	h to	-0.048240
-0.756717	ha and	-0.048240
-1.154973	has a	-0.048240
-1.403070	has both	-0.048240
-1.400670	has strength	-0.048240
-1.170994	has the	-0.048240
-0.803118	hating compounds	-0.048240
-0.792749	have an	-0.048240
-0.805570	having lost	-0.048240
-0.798479	hco h	-0.048240
-0.801954	head group	-0.129434
-1.166336	heat in	-0.048240
-0.598025	heat such	-0.129434
-0.800792	held together	-0.048240
-0.766251	help to	-0.048240
-0.766251	helpful to	-0.048240
-0.804286	hereditary information	-0.048240
-1.105075	heterocyclic ring	-0.048240
-1.105075	heterocyclic rings	-0.048240
-0.801954	hexose sugar	-0.048240
-0.718901	high concentration	-0.129434
-1.379864	high energy	-0.048240
-1.401763	high enough	-0.048240
-0.734255	higher the	-0.100649
-0.804286	highly specific	-0.048240
-0.804962	hold biomolecules	-0.048240
-0.734255	holds the	-0.048240
-0.972922	homeostasis the	-0.048240
-1.097897	homeostasis through	-0.048240
-0.756717	honey and	-0.048240
-0.599832	how does	-0.048240
-1.268739	how it	-0.048240
-0.734255	hybridization the	-0.048240
-0.805570	hybridize mirror	-0.048240
-1.274410	hybridizes thymine	-0.048240
-0.595029	hybridizes with	-0.100649
-0.805570	hydrocarbon chains	-0.048240
-1.526353	hydrogen and	-0.048240
-1.778508	hydrogen atom	-0.048240
-1.754752	hydrogen bond	-0.048240
-1.795918	hydrogen bonding	-0.048240
-0.522194	hydrogen bonds	-0.129434
-1.778508	hydrogen ion	-0.048240
-0.662548	hydrolysis of	-0.048240
-1.383710	hydrolysis reaction	-0.048240
-1.195479	hydrolysis the	-0.048240
-1.147808	hydrophilic and	-0.048240
-1.277838	hydrophilic literally	-0.048240
-1.277838	hydrophilic regions	-0.048240
-1.110178	hydrophobic </s>
-1.235379	hydrophobic and	-0.048240
-1.403070	hydrophobic effect	-0.048240
-1.400670	hydrophobic literally	-0.048240
-0.804962	hydrostatic pressure	-0.048240
-1.041903	hypertonic or	-0.048240
-1.093324	hypertonic referring	-0.048240
-0.769476	hyperventilation that	-0.048240
-1.105075	hypotonic compared	-0.048240
-1.093324	hypotonic referring	-0.048240
-0.772725	identical or	-0.048240
-1.275832	if formed	-0.048240
-1.258855	if hydrogen	-0.048240
-1.275832	if you	-0.048240
-0.793889	images with	-0.048240
-1.469454	important energy	-0.048240
-0.669276	important in	-0.048240
-1.469454	important molecule	-0.048240
-1.141964	in a	-0.078921
-2.501159	in acidosis	-0.048240
-1.433462	in an	-0.086942
-2.477547	in another	-0.048240
-2.477547	in atp	-0.048240
-2.439514	in biological	-0.048240
-1.878233	in cells	-0.048240
-2.313904	in chemical	-0.048240
-2.262527	in concentration	-0.048240
-2.501159	in cystic	-0.048240
-2.287456	in dna	-0.048240
-1.774437	in double	-0.096292
-2.477547	in enthalpy	-0.129434
-2.523488	in foods	-0.048240
-2.523488	in honey	-0.048240
-2.523488	in kidney	-0.048240
-2.523488	in milk	-0.048240
-2.070003	in molecules	-0.048240
-2.523488	in moles	-0.048240
-2.501159	in mrna	-0.048240
-2.313904	in nucleic	-0.048240
-2.287456	in one	-0.048240
-1.925773	in or	-0.048240
-2.523488	in order	-0.048240
-2.372183	in ph	-0.048240
-2.404545	in rna	-0.048240
-1.849224	in solution	-0.048240
-2.523488	in stabilizing	-0.048240
-2.523488	in terms	-0.048240
-0.813548	in the	-0.063310
-2.523488	in understanding	-0.048240
-2.523488	in vitro	-0.048240
-1.273922	in water	-0.076429
-1.750712	in which	-0.048240
-0.801954	include amino	-0.048240
-1.102519	including fatty	-0.048240
-1.103864	including sugars	-0.048240
-0.772725	increase or	-0.048240
-0.769476	indicates that	-0.048240
-1.498471	information beyond	-0.048240
-1.498471	information contained	-0.048240
-1.343959	information that	-0.048240
-1.498471	information transcribed	-0.048240
-1.498471	information useful	-0.048240
-0.755670	input in	-0.048240
-0.755670	insoluble in	-0.048240
-0.962700	interaction a	-0.048240
-1.093324	interaction between	-0.048240
-1.236150	interactions are	-0.048240
-1.262197	interactions between	-0.048240
-1.063680	interactions of	-0.048240
-0.769476	interior that	-0.048240
-0.803118	internal environment	-0.048240
-0.804962	internet using	-0.048240
-0.804962	intimate sharing	-0.048240
-1.292585	into a	-0.048240
-1.634273	into cells	-0.048240
-1.642374	into doublestranded	-0.048240
-1.619879	into its	-0.048240
-1.642374	into newly	-0.048240
-0.874370	into the	-0.048240
-0.805570	intravenous administration	-0.048240
-0.792749	involve an	-0.048240
-1.505498	ion an	-0.048240
-1.572577	ion anion	-0.048240
-1.572577	ion cation	-0.048240
-1.523493	ion concentration	-0.048240
-1.576148	ion e	-0.129434
-1.542266	ion into	-0.048240
-1.262197	ionic bond	-0.048240
-1.188319	ionic or	-0.048240
-1.277838	ionic strength	-0.048240
-0.711009	ions </s>
-1.402023	is </s>
-1.225124	is a	-0.048240
-2.257835	is accompanied	-0.048240
-2.226359	is active	-0.048240
-2.012193	is an	-0.048240
-2.242667	is at	-0.048240
-2.199522	is called	-0.048240
-2.257835	is carried	-0.048240
-2.257835	is cleaved	-0.048240
-2.257835	is continually	-0.048240
-2.257835	is copied	-0.048240
-2.257835	is critical	-0.048240
-2.257835	is dissolved	-0.048240
-2.257835	is equal	-0.048240
-2.242667	is equivalent	-0.048240
-2.199522	is high	-0.048240
-2.174247	is important	-0.048240
-2.257835	is isolated	-0.048240
-2.242667	is low	-0.048240
-2.085705	is one	-0.048240
-2.127724	is such	-0.048240
-0.914373	is the	-0.048240
-2.257835	is transferred	-0.048240
-2.242667	is used	-0.048240
-2.257835	is very	-0.048240
-0.800792	island why	-0.048240
-0.793889	isolated from	-0.048240
-1.103864	isotonic hypertonic	-0.048240
-1.093324	isotonic referring	-0.048240
-1.576148	it behaves	-0.048240
-1.576148	it causes	-0.048240
-1.576148	it equals	-0.048240
-1.561888	it has	-0.048240
-1.576148	it might	-0.048240
-1.572577	it result	-0.048240
-1.498471	its characteristic	-0.048240
-1.495483	its components	-0.048240
-1.454014	its concentration	-0.048240
-1.498471	its extracellular	-0.048240
-1.492176	its functional	-0.048240
-0.766251	joined to	-0.048240
-1.233632	k a	-0.048240
-1.496766	k d	-0.048240
-0.653768	k the	-0.048240
-1.105075	kcal mol	-0.048240
-1.105075	kcal mole	-0.048240
-0.804962	key concepts	-0.048240
-0.804286	kidney disease	-0.048240
-0.801954	lacks any	-0.048240
-0.962700	lactose a	-0.048240
-1.012605	lactose and	-0.048240
-1.555248	large free	-0.048240
-1.555248	large group	-0.048240
-1.535918	large molecule	-0.048240
-1.466200	large molecules	-0.048240
-1.548709	large negative	-0.048240
-1.576148	large number	-0.048240
-0.972922	lesser the	-0.048240
-1.029945	lesser to	-0.048240
-0.772725	library or	-0.048240
-0.804286	linear organic	-0.048240
-0.955351	linked by	-0.048240
-0.531311	linked to	-0.048240
-1.591364	linked with	-0.048240
-0.801954	lipid consisting	-0.048240
-0.799634	lipids small	-0.048240
-0.805570	liposome spherical	-0.048240
-0.800792	liter ph	-0.048240
-0.421691	literally water	-0.048240
-0.795032	little change	-0.048240
-0.805570	living tissues	-0.048240
-0.798479	log h	-0.048240
-0.720544	logarithm of	-0.048240
-0.755670	look in	-0.048240
-0.720544	loss of	-0.048240
-0.772725	lost or	-0.048240
-0.803118	loving compounds	-0.048240
-1.086554	low concentration	-0.048240
-1.103864	low enough	-0.048240
-0.720544	lubrication of	-0.048240
-1.103864	macromolecule composed	-0.129434
-1.102519	macromolecule large	-0.048240
-1.012605	macromolecules and	-0.048240
-1.093324	macromolecules such	-0.048240
-0.949435	made of	-0.048240
-1.103864	made up	-0.048240
-0.720544	magnitude of	-0.048240
-0.962700	maintain a	-0.048240
-1.105075	maintain near	-0.048240
-0.804962	maintains homeostasis	-0.048240
-0.804962	make up	-0.129434
-0.728326	making a	-0.048240
-0.799634	manifest into	-0.048240
-1.105075	many enzymes	-0.048240
-1.100202	many other	-0.048240
-0.805570	mark saltzman	-0.048240
-0.784852	mass is	-0.048240
-0.772725	match or	-0.048240
-0.793889	material from	-0.048240
-1.103864	may contain	-0.048240
-1.103864	may occur	-0.048240
-0.720544	measure of	-0.096292
-0.799634	mechanisms such	-0.048240
-0.805570	mediate highly	-0.048240
-0.969547	membrane </s>
-1.389455	membrane a	-0.048240
-1.888922	membrane can	-0.048240
-1.933172	membrane coupled	-0.048240
-1.925440	membrane down	-0.048240
-1.802930	membrane from	-0.048240
-1.916979	membrane much	-0.048240
-1.916979	membrane must	-0.048240
-1.925440	membrane phospholipids	-0.048240
-1.933172	membrane separating	-0.048240
-1.933172	membrane surrounding	-0.048240
-1.933172	membrane via	-0.048240
-0.801954	membranes consisting	-0.048240
-0.801954	messenger rna	-0.048240
-0.801954	might be	-0.048240
-0.711009	milk </s>
-0.805570	mirror images	-0.048240
-0.797327	moiety dna	-0.048240
-0.711009	mol </s>
-0.711009	mole </s>
-0.804962	molecular complex	-0.048240
-1.269955	molecule </s>
-1.451032	molecule and	-0.048240
-1.743535	molecule composed	-0.048240
-1.684698	molecule for	-0.048240
-1.701759	molecule linked	-0.048240
-1.531270	molecule or	-0.129434
-1.719517	molecule polar	-0.048240
-1.014745	molecule that	-0.048240
-0.978745	molecules </s>
-2.137187	molecules across	-0.048240
-1.282977	molecules and	-0.048240
-1.969057	molecules are	-0.048240
-2.137187	molecules can	-0.048240
-2.180324	molecules formed	-0.048240
-2.013032	molecules from	-0.048240
-2.205934	molecules generally	-0.048240
-2.180324	molecules hydrophilic	-0.048240
-2.180324	molecules hydrophobic	-0.048240
-1.358694	molecules in	-0.048240
-2.097951	molecules such	-0.048240
-1.318888	molecules that	-0.048240
-1.065214	molecules to	-0.048240
-2.117126	molecules together	-0.048240
-2.013032	molecules with	-0.048240
-0.805570	moles per	-0.048240
-0.801954	monomer any	-0.048240
-0.805570	monomeric building	-0.048240
-0.549712	monomers </s>
-1.265932	monomers linked	-0.048240
-1.097897	monosaccharide any	-0.048240
-1.100202	monosaccharide subunits	-0.048240
-0.933404	monosaccharides </s>
-1.041903	monosaccharides or	-0.048240
-1.576148	more concentrated	-0.048240
-1.572577	more electrons	-0.048240
-1.466200	more molecules	-0.048240
-1.568631	more pairs	-0.048240
-1.568631	more phosphate	-0.048240
-1.576148	more rapidly	-0.048240
-1.091056	most chemical	-0.048240
-1.097897	most important	-0.048240
-1.093324	move into	-0.048240
-1.103864	move out	-0.048240
-0.449013	movement of	-0.076429
-0.962700	mrna a	-0.048240
-1.103864	mrna gives	-0.048240
-1.272383	much greater	-0.048240
-1.275832	much more	-0.048240
-1.277838	much weaker	-0.048240
-1.279646	multiple identical	-0.048240
-1.272383	multiple noncovalent	-0.048240
-1.272383	multiple weak	-0.048240
-0.599229	must be	-0.048240
-1.277273	must you	-0.048240
-1.029945	n to	-0.048240
-1.105075	n where	-0.048240
-0.711009	na </s>
-0.792749	nacl by	-0.048240
-0.720544	nature of	-0.048240
-0.804962	near neutral	-0.048240
-0.797327	necessary for	-0.048240
-1.517411	negative change	-0.048240
-1.576148	negative charges	-0.048240
-1.568631	negative electric	-0.048240
-1.576148	negative feedback	-0.048240
-1.576148	negative logarithm	-0.048240
-1.568631	negative value	-0.048240
-0.933404	negatively </s>
-1.102519	negatively charged	-0.048240
-0.803118	neither acidic	-0.048240
-0.900072	net electric	-0.129434
-1.577851	net flow	-0.048240
-0.782649	net movement	-0.096292
-1.105075	neutral neither	-0.048240
-1.095605	neutral ph	-0.048240
-0.784852	neutrality is	-0.048240
-0.805570	newly synthesized	-0.048240
-1.147808	nitrogen and	-0.048240
-1.268961	nitrogen containing	-0.048240
-1.179909	nitrogen that	-0.048240
-1.255538	nitrogenous base	-0.048240
-1.272383	nitrogenous bases	-0.048240
-1.272383	nitrogenous compounds	-0.129434
-0.800792	no net	-0.048240
-0.800792	non covalent	-0.048240
-1.403856	noncovalent attraction	-0.048240
-0.721415	noncovalent bond	-0.100649
-1.383710	noncovalent bonds	-0.048240
-1.488863	nonpolar acidic	-0.048240
-0.690064	nonpolar molecules	-0.048240
-1.474226	nonpolar referring	-0.048240
-0.804962	nor basic	-0.048240
-0.805570	normal saline	-0.048240
-1.448826	not change	-0.048240
-1.498471	not dissolve	-0.048240
-1.469960	not form	-0.048240
-1.498471	not involve	-0.048240
-1.331974	not to	-0.048240
-1.020915	nucleic acid	-0.180681
-0.302083	nucleic acids	-0.100649
-0.793889	nucleoside with	-0.048240
-1.154973	nucleotide a	-0.048240
-1.393446	nucleotide bases	-0.048240
-1.274988	nucleotide that	-0.048240
-1.403070	nucleotide triplets	-0.048240
-1.156164	nucleotides </s>
-1.297884	nucleotides and	-0.048240
-1.404729	nucleotides is	-0.048240
-1.469960	nucleotides linked	-0.048240
-1.343959	nucleotides that	-0.048240
-0.720544	number of	-0.048240
-1.042939	o </s>
-1.147808	o and	-0.048240
-1.277838	o n	-0.048240
-0.792749	obtained by	-0.048240
-1.010720	occur in	-0.048240
-1.035883	occur that	-0.048240
-0.801954	occurs through	-0.048240
-1.068500	of a	-0.060762
-2.435186	of acid	-0.048240
-2.611536	of acids	-0.048240
-1.990575	of amino	-0.100649
-1.663965	of an	-0.048240
-2.611536	of atoms	-0.048240
-2.125259	of atp	-0.048240
-2.400384	of base	-0.048240
-2.743812	of biomedical	-0.048240
-2.611536	of cell	-0.048240
-2.669639	of cells	-0.048240
-2.107862	of ch	-0.048240
-2.707158	of different	-0.048240
-2.707158	of disorder	-0.048240
-2.400384	of dna	-0.048240
-2.743812	of dry	-0.048240
-2.707158	of each	-0.048240
-2.135645	of electrons	-0.048240
-2.435186	of energy	-0.048240
-2.743812	of fat	-0.048240
-2.743812	of fluid	-0.048240
-2.743812	of foreign	-0.048240
-2.743812	of forward	-0.048240
-2.743812	of four	-0.048240
-2.611536	of g	-0.048240
-2.669639	of glucose	-0.048240
-2.611536	of greater	-0.048240
-2.743812	of having	-0.048240
-2.611536	of high	-0.048240
-2.669639	of k	-0.048240
-2.145176	of kcal	-0.048240
-2.707158	of lactose	-0.048240
-2.707158	of lesser	-0.048240
-2.145176	of macromolecules	-0.048240
-2.743812	of making	-0.048240
-2.707158	of many	-0.048240
-2.743812	of material	-0.048240
-2.435186	of molecule	-0.048240
-1.896142	of molecules	-0.048240
-2.669639	of monomers	-0.048240
-2.707158	of monosaccharide	-0.048240
-2.669639	of multiple	-0.048240
-2.135645	of nitrogenous	-0.100649
-2.560297	of nonpolar	-0.048240
-2.044506	of nucleic	-0.221230
-2.611536	of nucleotide	-0.048240
-2.107862	of nucleotides	-0.048240
-2.030012	of one	-0.048240
-2.669639	of organic	-0.048240
-2.669639	of osmotic	-0.048240
-2.743812	of physiological	-0.048240
-2.743812	of polypeptides	-0.048240
-2.707158	of positive	-0.129434
-2.707158	of products	-0.048240
-2.107862	of proteins	-0.048240
-2.707158	of reactants	-0.048240
-1.990575	of rna	-0.048240
-2.473022	of small	-0.048240
-2.707158	of smaller	-0.048240
-2.669639	of strong	-0.048240
-0.833767	of the	-0.056548
-2.145176	of transfer	-0.129434
-1.965292	of two	-0.086942
-2.743812	of values	-0.048240
-1.907859	of water	-0.078921
-0.728326	off a	-0.048240
-0.805570	often stabilize	-0.048240
-0.793889	oh from	-0.048240
-0.711009	oligosaccharides </s>
-1.081017	on a	-0.048240
-1.094490	on the	-0.048240
-1.272383	on their	-0.048240
-1.319085	one </s>
-1.856627	one another	-0.048240
-1.863589	one direction	-0.048240
-1.863589	one fructose	-0.048240
-1.856627	one glucose	-0.048240
-1.863589	one heterocyclic	-0.048240
-1.028404	one of	-0.048240
-1.028285	one or	-0.096292
-1.863589	one product	-0.048240
-0.720544	opposite of	-0.129434
-2.254074	or alkalinity	-0.048240
-2.254074	or alkalosis	-0.048240
-2.237597	or asymmetric	-0.129434
-2.254074	or cluster	-0.048240
-2.237597	or collection	-0.048240
-2.237597	or conformation	-0.048240
-2.138308	or covalent	-0.048240
-2.254074	or decrease	-0.048240
-2.254074	or diabetes	-0.048240
-2.091332	or energy	-0.048240
-2.237597	or facilitated	-0.048240
-2.069622	or for	-0.048240
-2.254074	or gained	-0.048240
-2.163849	or group	-0.048240
-2.254074	or hybridize	-0.048240
-2.237597	or hypotonic	-0.048240
-1.614333	or in	-0.048240
-1.598602	or more	-0.048240
-2.138308	or negative	-0.048240
-2.219935	or nitrogen	-0.048240
-2.219935	or on	-0.048240
-2.190988	or other	-0.048240
-2.237597	or out	-0.048240
-2.237597	or products	-0.048240
-2.254074	or randomness	-0.048240
-2.254074	or similar	-0.048240
-2.219935	or simple	-0.048240
-2.219935	or strong	-0.048240
-2.219935	or structure	-0.048240
-2.237597	or well	-0.048240
-0.766251	order to	-0.048240
-1.277838	organic compound	-0.048240
-1.272383	organic compounds	-0.048240
-1.272383	organic polymer	-0.048240
-0.803118	original sequence	-0.048240
-1.042939	osmosis </s>
-1.275832	osmosis movement	-0.048240
-1.265566	osmosis net	-0.048240
-0.482981	osmotic pressure	-0.100649
-1.110178	other </s>
-1.326284	other molecules	-0.048240
-1.403070	other polysaccharides	-0.048240
-1.400670	other source	-0.048240
-0.720544	others of	-0.048240
-0.397285	out of	-0.129434
-0.805570	over time	-0.048240
-1.220629	oxygen molecules	-0.048240
-1.275832	oxygen o	-0.048240
-1.188319	oxygen or	-0.048240
-1.145237	pairs in	-0.048240
-1.063680	pairs of	-0.048240
-1.245735	pairs with	-0.048240
-0.804962	particle equivalent	-0.048240
-0.772725	particles or	-0.048240
-0.801954	particularly important	-0.048240
-0.801954	pass through	-0.048240
-1.254388	passive and	-0.048240
-0.724791	passive diffusion	-0.048240
-1.299688	passive or	-0.048240
-0.756717	patients and	-0.048240
-0.728326	pentose a	-0.048240
-0.962700	peptide a	-0.048240
-1.093324	peptide bonds	-0.048240
-0.805570	per liter	-0.048240
-0.711009	permeability </s>
-0.766251	permeable to	-0.048240
-1.189770	ph </s>
-1.244162	ph a	-0.048240
-1.576148	ph log	-0.048240
-1.219143	ph of	-0.048240
-1.576148	ph when	-0.048240
-1.555248	ph which	-0.048240
-1.076237	phosphate </s>
-0.599832	phosphate groups	-0.048240
-0.799634	phosphoanhydride bonds	-0.048240
-0.600786	phospholipid bilayer	-0.048240
-1.121957	phospholipid the	-0.048240
-1.012605	phospholipids and	-0.048240
-1.075499	phospholipids are	-0.048240
-0.801954	phosphorous containing	-0.048240
-0.804962	physiological systems	-0.048240
-0.755670	place in	-0.048240
-0.799634	plasma membrane	-0.048240
-1.499254	polar head	-0.129434
-0.802987	polar molecules	-0.048240
-1.483471	polar nonpolar	-0.048240
-1.473575	polar referring	-0.048240
-1.555248	polymer any	-0.048240
-1.555248	polymer consisting	-0.048240
-1.576148	polymer examples	-0.048240
-1.511414	polymer from	-0.048240
-1.219143	polymer of	-0.048240
-1.555248	polymer usually	-0.048240
-1.093324	polymerization reaction	-0.048240
-0.972922	polymerization the	-0.048240
-0.720544	polymers of	-0.048240
-1.081017	polypeptide a	-0.048240
-1.188319	polypeptide or	-0.048240
-1.272383	polypeptide subunits	-0.048240
-0.805570	polypeptides assumes	-0.048240
-0.803118	polysaccharide biological	-0.048240
-0.711009	polysaccharides </s>
-1.147808	positive and	-0.129434
-1.248978	positive change	-0.048240
-1.188319	positive or	-0.048240
-0.482724	positively charged	-0.100649
-1.097897	potential across	-0.048240
-1.091056	potential energy	-0.048240
-0.755670	present in	-0.048240
-1.042939	pressure </s>
-1.279646	pressure hydrostatic	-0.048240
-1.179909	pressure that	-0.048240
-1.100202	primary acidic	-0.048240
-1.091056	primary nucleic	-0.048240
-0.804962	principal components	-0.048240
-0.888131	process by	-0.129434
-1.577711	process occurs	-0.048240
-0.813939	process of	-0.048240
-1.577711	process whereby	-0.048240
-1.064718	product molecules	-0.048240
-0.949435	product of	-0.048240
-1.064718	products is	-0.048240
-1.105075	products will	-0.048240
-0.805570	professor mark	-0.048240
-0.549712	properties </s>
-1.094705	properties of	-0.048240
-0.720544	property of	-0.048240
-1.641596	protein aided	-0.048240
-1.625060	protein biological	-0.048240
-1.641596	protein folding	-0.048240
-1.602445	protein linked	-0.048240
-1.641596	protein synthesis	-0.048240
-1.439085	protein that	-0.048240
-1.617390	protein which	-0.048240
-0.804166	proteins </s>
-0.851065	proteins and	-0.048240
-1.508406	proteins are	-0.048240
-1.560297	proteins consisting	-0.048240
-1.091056	proton h	-0.048240
-1.102519	proton positively	-0.048240
-0.962700	purine a	-0.048240
-1.103864	purine derivative	-0.048240
-1.102519	purines adenine	-0.048240
-1.012605	purines and	-0.048240
-1.081017	pyrimidine a	-0.048240
-1.147808	pyrimidine and	-0.048240
-1.277838	pyrimidine derivative	-0.048240
-0.804286	pyrimidines cytosine	-0.048240
-0.720544	quantities of	-0.048240
-0.711009	questions </s>
-0.755670	randomness in	-0.048240
-0.805570	rapid deep	-0.048240
-0.801954	rapidly than	-0.048240
-1.279646	rate constants	-0.048240
-1.272383	rate greater	-0.048240
-1.063680	rate of	-0.048240
-0.801954	rather than	-0.048240
-0.949435	ratio of	-0.048240
-1.035883	ratio that	-0.048240
-1.042939	reactants </s>
-1.145237	reactants in	-0.048240
-1.188319	reactants or	-0.048240
-1.353847	reaction </s>
-0.748125	reaction a	-0.086942
-1.825056	reaction for	-0.048240
-1.879606	reaction has	-0.096292
-1.546968	reaction in	-0.048240
-1.389951	reaction of	-0.048240
-1.157946	reaction that	-0.048240
-1.446140	reaction the	-0.048240
-1.856957	reaction why	-0.048240
-0.755670	reactions in	-0.048240
-0.720544	reciprocal of	-0.048240
-0.734255	reduce the	-0.048240
-0.144267	referring to	-0.255375
-0.393908	regions </s>
-0.803118	regulates transport	-0.048240
-0.803118	relatively weak	-0.048240
-0.798479	release energy	-0.048240
-0.804286	releases heat	-0.048240
-0.805570	reliable sources	-0.048240
-0.804962	repeated coupling	-0.048240
-0.803118	replaces thymine	-0.048240
-0.798479	represented as	-0.048240
-0.804286	repulsive interactions	-0.048240
-0.798479	requiring energy	-0.048240
-0.755670	research in	-0.048240
-0.804962	residues bonded	-0.048240
-0.711009	respectively </s>
-1.010720	result in	-0.048240
-0.949435	result of	-0.048240
-0.804286	reverse rate	-0.048240
-0.805570	reviewed biochemical	-0.048240
-0.711009	ribosome </s>
-0.799634	ring two	-0.048240
-0.799634	rings two	-0.048240
-0.766251	rise to	-0.048240
-1.235802	rna </s>
-1.592214	rna are	-0.048240
-1.693372	rna hybridizes	-0.048240
-1.407911	rna in	-0.048240
-1.557746	rna is	-0.048240
-1.693372	rna mrna	-0.048240
-1.693372	rna uracil	-0.048240
-1.693372	rna using	-0.048240
-0.933404	s </s>
-0.962700	s a	-0.048240
-0.800792	saline solution	-0.048240
-0.711009	saltzman </s>
-0.804962	same type	-0.048240
-0.804962	seawater explain	-0.048240
-0.799634	selective membrane	-0.048240
-0.805570	self aggregate	-0.048240
-0.799634	semipermeable membrane	-0.048240
-0.805570	separating solutions	-0.048240
-1.181871	sequence </s>
-1.229361	sequence a	-0.048240
-0.742622	sequence of	-0.048240
-1.496571	sequence whose	-0.048240
-0.772725	shape or	-0.048240
-0.397285	sharing of	-0.048240
-0.805570	shield themselves	-0.048240
-0.804962	side chain	-0.048240
-0.804286	similar units	-0.048240
-0.599229	simple sugar	-0.048240
-1.278937	simple sugars	-0.048240
-0.804962	single strands	-0.048240
-1.625060	small biological	-0.048240
-1.595161	small molecule	-0.048240
-1.625060	small polymer	-0.048240
-1.641596	small quantities	-0.048240
-1.625060	small subunits	-0.048240
-1.641596	small transient	-0.048240
-1.641596	small uncharged	-0.048240
-0.972922	smaller the	-0.048240
-1.102519	smaller units	-0.048240
-0.755670	soluble in	-0.048240
-0.813560	solute concentration	-0.083771
-1.449778	solute from	-0.048240
-1.414223	solute molecules	-0.048240
-1.499254	solute substance	-0.048240
-1.282336	solution </s>
-1.792802	solution defined	-0.048240
-1.787240	solution isotonic	-0.048240
-1.792802	solution nacl	-0.048240
-1.317007	solution of	-0.048240
-1.370725	solution the	-0.048240
-1.770738	solution this	-0.048240
-1.520415	solution to	-0.048240
-1.120566	solution whose	-0.096292
-0.720544	solutions of	-0.048240
-0.711009	solvent </s>
-0.756717	solvents and	-0.048240
-1.105075	some ions	-0.048240
-1.105075	some research	-0.048240
-1.095605	source it	-0.048240
-0.949435	source of	-0.048240
-0.804962	sources cystic	-0.048240
-0.600436	species formed	-0.129434
-1.166336	species in	-0.048240
-1.147808	specific and	-0.048240
-1.275832	specific interactions	-0.048240
-1.272383	specific sequence	-0.048240
-0.804286	spherical phospholipid	-0.048240
-0.734255	stabilize the	-0.048240
-0.734255	stabilizing the	-0.048240
-1.258855	stable chemical	-0.048240
-1.279646	stable condition	-0.048240
-1.279646	stable internal	-0.048240
-0.756717	starch and	-0.048240
-0.728326	state a	-0.048240
-0.805570	steady state	-0.048240
-0.711009	steroids </s>
-0.734255	stop the	-0.048240
-0.799634	storage form	-0.048240
-0.797327	stranded dna	-0.096292
-0.397285	strands of	-0.048240
-0.772725	stream or	-0.048240
-1.012605	strength and	-0.048240
-0.949435	strength of	-0.048240
-1.258855	strong acid	-0.048240
-1.255538	strong base	-0.048240
-1.277838	strong tendency	-0.048240
-1.161765	structure of	-0.048240
-1.290242	structure that	-0.048240
-0.717233	structure with	-0.048240
-0.805570	subatomic particle	-0.048240
-0.769476	substance that	-0.048240
-0.554566	subunits </s>
-1.388153	subunits protein	-0.048240
-0.890255	such a	-0.100649
-0.544073	such as	-0.048240
-1.493672	such that	-0.048240
-0.728326	sucrose a	-0.048240
-1.240268	sugar </s>
-1.642513	sugar especially	-0.048240
-1.642513	sugar moiety	-0.048240
-0.813734	sugar that	-0.100649
-1.573997	sugar with	-0.048240
-0.933404	sugars </s>
-1.105075	sugars starch	-0.048240
-0.711009	summary </s>
-0.393908	surface </s>
-0.734255	surrounding the	-0.048240
-0.797327	symptoms for	-0.048240
-0.711009	synthesis </s>
-0.804962	synthesized strands	-0.048240
-1.179909	system that	-0.048240
-1.094490	system the	-0.048240
-1.268961	system which	-0.048240
-1.010720	systems in	-0.048240
-1.029945	systems to	-0.048240
-0.805570	take place	-0.048240
-0.804286	temperature ionic	-0.048240
-0.711009	template </s>
-0.949435	tendency of	-0.048240
-1.029945	tendency to	-0.048240
-0.720544	terms of	-0.048240
-1.555248	than amino	-0.048240
-1.548709	than covalent	-0.048240
-1.576148	than drink	-0.048240
-1.396891	than that	-0.048240
-1.263919	than the	-0.048240
-1.555248	than through	-0.048240
-1.551863	that a	-0.048240
-2.408762	that absorbs	-0.048240
-1.667582	that are	-0.048240
-2.408762	that available	-0.048240
-2.408762	that belongs	-0.129434
-1.341223	that can	-0.086942
-2.408762	that carries	-0.048240
-2.408762	that catalyzes	-0.048240
-2.408762	that confer	-0.048240
-2.389835	that defect	-0.048240
-2.408762	that detect	-0.048240
-1.741178	that do	-0.129434
-1.749273	that does	-0.129434
-2.251066	that form	-0.048240
-2.408762	that forms	-0.048240
-2.408762	that give	-0.048240
-2.389835	that gives	-0.048240
-2.336842	that has	-0.048240
-2.408762	that have	-0.048240
-2.408762	that holds	-0.048240
-2.389835	that if	-0.048240
-0.855438	that is	-0.062106
-2.277819	that it	-0.048240
-2.408762	that lacks	-0.048240
-1.766753	that make	-0.129434
-2.369662	that must	-0.048240
-2.408762	that obtained	-0.048240
-2.408762	that regulates	-0.048240
-2.408762	that releases	-0.048240
-2.336842	that this	-0.048240
-2.408762	that undergoes	-0.048240
-2.390165	the acid	-0.048240
-2.743341	the acidity	-0.048240
-2.699285	the addition	-0.048240
-2.699285	the assembly	-0.048240
-2.743341	the association	-0.048240
-2.587499	the atoms	-0.048240
-2.743341	the bicarbonate	-0.048240
-2.699285	the bilayer	-0.048240
-2.152697	the binding	-0.129434
-2.743341	the blood	-0.048240
-2.054047	the body	-0.086942
-2.699285	the carboxyl	-0.048240
-1.455522	the cell	-0.073655
-2.285041	the change	-0.048240
-2.654923	the chapter	-0.048240
-2.390165	the chemical	-0.048240
-2.743341	the cleavage	-0.048240
-2.006439	the concentration	-0.129434
-2.699285	the conformation	-0.048240
-2.152697	the conjugate	-0.048240
-2.743341	the cytoplasm	-0.048240
-2.743341	the decomposition	-0.048240
-2.699285	the defect	-0.048240
-2.743341	the degree	-0.048240
-2.139628	the difference	-0.048240
-2.654923	the disease	-0.048240
-2.699285	the disorder	-0.048240
-2.152697	the dissociation	-0.048240
-2.352225	the dna	-0.048240
-2.139628	the enthalpy	-0.048240
-2.587499	the entropy	-0.048240
-2.587499	the equilibrium	-0.048240
-2.699285	the external	-0.048240
-2.431740	the form	-0.048240
-2.164764	the formula	-0.048240
-2.529150	the free	-0.048240
-2.699285	the function	-0.048240
-2.699285	the gene	-0.048240
-2.587499	the greater	-0.048240
-2.743341	the hco	-0.048240
-2.054047	the higher	-0.096292
-2.390165	the hydrogen	-0.048240
-2.587499	the hydrolysis	-0.048240
-2.699285	the interaction	-0.048240
-2.743341	the internet	-0.048240
-2.139628	the k	-0.100649
-2.699285	the lesser	-0.048240
-2.743341	the library	-0.048240
-2.743341	the loss	-0.048240
-2.743341	the magnitude	-0.048240
-2.058609	the membrane	-0.048240
-2.654923	the more	-0.048240
-2.699285	the most	-0.048240
-2.654923	the movement	-0.048240
-2.743341	the nature	-0.048240
-2.477719	the negative	-0.048240
-2.477719	the net	-0.048240
-2.587499	the nucleotides	-0.048240
-2.164764	the opposite	-0.129434
-2.743341	the original	-0.048240
-2.587499	the other	-0.048240
-2.139628	the phospholipid	-0.129434
-2.743341	the plasma	-0.048240
-2.654923	the polypeptide	-0.048240
-2.699285	the potential	-0.048240
-2.743341	the primary	-0.048240
-2.743341	the principal	-0.048240
-1.460155	the process	-0.100649
-2.699285	the product	-0.048240
-2.654923	the properties	-0.048240
-2.743341	the property	-0.048240
-2.654923	the rate	-0.048240
-2.699285	the ratio	-0.048240
-2.699285	the reactants	-0.048240
-2.431740	the reaction	-0.048240
-2.743341	the reciprocal	-0.048240
-2.743341	the repeated	-0.048240
-2.743341	the ribosome	-0.048240
-2.743341	the same	-0.048240
-2.743341	the seawater	-0.048240
-2.699285	the smaller	-0.048240
-2.743341	the solvent	-0.048240
-2.654923	the species	-0.048240
-2.529150	the sugar	-0.048240
-2.743341	the symptoms	-0.048240
-2.699285	the tendency	-0.048240
-2.699285	the three	-0.048240
-2.743341	the tighter	-0.048240
-2.587499	the transport	-0.048240
-2.431740	the two	-0.048240
-2.699285	the type	-0.048240
-2.654923	the value	-0.048240
-2.699285	the weaker	-0.048240
-1.367028	their concentration	-0.048240
-1.403070	their permeability	-0.048240
-1.403070	their solvents	-0.048240
-1.403070	their total	-0.048240
-0.793889	themselves from	-0.048240
-0.801954	therefore do	-0.048240
-1.091056	think hydrogen	-0.048240
-1.035883	think that	-0.048240
-1.346178	this are	-0.048240
-1.398009	this chapter	-0.048240
-1.384460	this solution	-0.048240
-1.398009	this value	-0.048240
-0.805570	those above	-0.048240
-1.105075	three dimensional	-0.048240
-1.102519	three fatty	-0.048240
-1.229361	through a	-0.048240
-1.499254	through attractive	-0.048240
-1.478495	through negative	-0.048240
-0.755538	through the	-0.048240
-1.110178	thymine </s>
-1.154973	thymine a	-0.048240
-1.398009	thymine commonly	-0.048240
-1.232236	thymine in	-0.048240
-0.734255	tighter the	-0.048240
-0.772725	time or	-0.048240
-0.804962	tissues including	-0.048240
-1.503738	to </s>
-0.824347	to a	-0.081198
-2.147476	to an	-0.129434
-2.392169	to another	-0.048240
-2.330967	to be	-0.048240
-2.429796	to cause	-0.129434
-2.411598	to cross	-0.048240
-2.411598	to find	-0.048240
-1.354657	to form	-0.086942
-2.429796	to hold	-0.048240
-2.429796	to look	-0.048240
-2.411598	to low	-0.129434
-1.786127	to maintain	-0.048240
-2.429796	to move	-0.048240
-2.411598	to occur	-0.048240
-2.429796	to oligosaccharides	-0.048240
-1.731888	to one	-0.048240
-2.392169	to osmosis	-0.129434
-2.429796	to reduce	-0.048240
-2.429796	to release	-0.048240
-2.429796	to self	-0.048240
-2.429796	to shield	-0.048240
-2.277334	to small	-0.048240
-2.330967	to solute	-0.048240
-2.429796	to stop	-0.048240
-0.897114	to the	-0.048240
-2.360491	to their	-0.048240
-2.411598	to three	-0.048240
-2.166598	to water	-0.048240
-1.217114	together </s>
-1.513000	together by	-0.048240
-0.740578	together in	-0.048240
-1.546464	together two	-0.048240
-0.799634	total bond	-0.048240
-0.793889	transcribed from	-0.048240
-0.734255	transcription the	-0.048240
-0.720544	transfer of	-0.048240
-0.766251	transferred to	-0.048240
-0.801954	transferring free	-0.048240
-0.804962	transient asymmetric	-0.048240
-0.734255	translation the	-0.048240
-1.638718	transport allows	-0.048240
-1.642513	transport necessary	-0.048240
-0.764321	transport of	-0.100649
-1.316443	transport the	-0.048240
-1.613398	transport why	-0.048240
-0.805570	transported against	-0.048240
-0.728326	triglycerides a	-0.048240
-0.728326	triphosphate a	-0.048240
-0.755670	triplets in	-0.048240
-1.747758	two fused	-0.048240
-1.726752	two high	-0.048240
-1.747758	two hydrocarbon	-0.129434
-1.593118	two molecules	-0.048240
-1.742467	two monosaccharides	-0.048240
-1.520466	two or	-0.048240
-1.742467	two purines	-0.048240
-1.747758	two pyrimidines	-0.048240
-1.747758	two single	-0.048240
-0.949435	type of	-0.048240
-1.029945	type to	-0.048240
-0.784852	uncharged molecules	-0.048240
-0.805570	undergoes little	-0.048240
-0.734255	understanding the	-0.048240
-0.804962	unfavorable direction	-0.048240
-1.272383	units called	-0.048240
-1.275832	units monomers	-0.048240
-1.279646	units usuall	-0.048240
-0.949435	up of	-0.048240
-0.972922	up the	-0.048240
-0.962700	uracil a	-0.048240
-1.105075	uracil replaces	-0.048240
-1.088799	used for	-0.048240
-1.029945	used to	-0.048240
-0.805570	useful hereditary	-0.048240
-1.105075	using reliable	-0.048240
-0.972922	using the	-0.048240
-0.803118	usuall found	-0.048240
-0.818944	usually containing	-0.048240
-1.493599	usually fatty	-0.048240
-1.499254	usually soluble	-0.048240
-1.449778	usually water	-0.048240
-0.555125	value of	-0.048240
-1.280435	value varies	-0.048240
-0.805570	values below	-0.048240
-0.425327	van der	-0.129434
-0.798479	variable chemical	-0.048240
-0.793889	varies with	-0.048240
-0.804286	various functional	-0.048240
-0.711009	versa </s>
-0.805570	very rapid	-0.048240
-0.803118	via passive	-0.048240
-0.805570	vice versa	-0.048240
-0.793889	vitro from	-0.048240
-1.103864	waals interaction	-0.048240
-1.102519	waals interactions	-0.048240
-1.335726	water </s>
-1.980166	water across	-0.129434
-1.564022	water and	-0.048240
-2.036365	water because	-0.048240
-2.036365	water but	-0.048240
-2.036365	water channel	-0.048240
-2.026432	water chemistry	-0.048240
-2.015619	water during	-0.048240
-1.874871	water from	-0.048240
-2.036365	water hating	-0.048240
-1.557541	water in	-0.048240
-2.026432	water including	-0.048240
-1.779333	water is	-0.048240
-2.036365	water loving	-0.048240
-1.779333	water molecules	-0.048240
-1.980166	water through	-0.048240
-1.247055	water to	-0.086942
-1.380036	weak bonds	-0.048240
-1.375657	weak chemical	-0.048240
-1.403070	weak non	-0.048240
-1.393446	weak noncovalent	-0.048240
-1.097897	weaker than	-0.048240
-0.972922	weaker the	-0.048240
-1.091056	well as	-0.048240
-1.105075	well rather	-0.048240
-0.784852	what is	-0.048240
-0.799634	when small	-0.048240
-0.804962	where n	-0.048240
-0.962700	whereby a	-0.048240
-1.100202	whereby genetic	-0.048240
-0.918046	which a	-0.048240
-1.695520	which allows	-0.048240
-1.632404	which change	-0.048240
-1.683198	which genetic	-0.048240
-0.996031	which is	-0.048240
-1.625610	which water	-0.048240
-1.100202	whose nucleotide	-0.048240
-1.097897	whose solute	-0.096292
-0.795015	why </s>
-1.501094	why are	-0.048240
-1.557765	why do	-0.048240
-1.475309	why is	-0.048240
-1.570045	why must	-0.048240
-0.801954	will be	-0.048240
-1.399629	with a	-0.048240
-1.926298	with addition	-0.048240
-1.918088	with adenine	-0.048240
-1.796238	with an	-0.048240
-1.918088	with cytosine	-0.048240
-1.926298	with each	-0.048240
-1.918088	with guanine	-0.048240
-1.245058	with one	-0.048240
-1.933796	with others	-0.048240
-1.904245	with proteins	-0.048240
-1.933796	with temperature	-0.048240
-1.097163	with the	-0.048240
-0.792749	without an	-0.048240
-1.236150	you are	-0.048240
-1.277838	you find	-0.048240
-1.279646	you think	-0.048240
-0.805570	your answer	-0.048240

\3-grams:
-0.726700	<s> acid a
-0.756004	<s> acidosis excess
-0.299101	<s> active transport
-0.775309	<s> adenine a
-0.658956	<s> amino acid
-0.693269	<s> amphiphilic a
-0.755518	<s> anion negatively
-0.564783	<s> aquaporin a
-0.848705	<s> atoms can
-0.852309	<s> atp adenosine
-0.705230	<s> base a
-0.610568	<s> beng frontiers
-0.755518	<s> biomolecules contain
-0.823684	<s> buffer a
-0.910033	<s> buffer systems
-0.353686	<s> c h
-0.693269	<s> carbohydrate a
-0.750333	<s> carbohydrates nucleic
-0.754978	<s> cation positively
-0.718240	<s> cell membrane
-0.446716	<s> chapter </s>
-0.486081	<s> charged ion
-0.609166	<s> complementary sequence
-0.746614	<s> concentration gradient
-0.698158	<s> condensation the
-0.652690	<s> conjugate acid
-0.652144	<s> conjugate base
-0.660364	<s> covalent bond
-0.746206	<s> cytosine a
-0.568414	<s> describe the
-1.205442	<s> diffusion is
-1.243993	<s> diffusion net
-1.066771	<s> diffusion of
-0.481900	<s> dissociation constant
-0.874254	<s> do some
-0.871856	<s> does entropy
-0.610220	<s> electrochemical gradient
-0.607167	<s> endothermic referring
-0.841807	<s> enthalpy change
-0.841807	<s> entropy change
-0.564783	<s> enzyme a
-0.562608	<s> equilibrium constant
-0.607167	<s> exothermic referring
-0.698158	<s> explain the
-0.355060	<s> facilitated diffusion
-0.568414	<s> flux the
-0.193372	<s> free energy
-0.693269	<s> fructose a
-0.481488	<s> functional groups
-0.693269	<s> galactose a
-0.756004	<s> gene delivery
-0.486507	<s> genetic information
-0.608499	<s> gibbs free
-0.746206	<s> glucose a
-0.564783	<s> glycocalyx a
-0.564783	<s> glycolipid a
-0.564783	<s> glycoprotein a
-0.746206	<s> guanine a
-0.698158	<s> homeostasis the
-0.481488	<s> how does
-0.568414	<s> hybridization the
-1.294277	<s> hydrogen bond
-1.306624	<s> hydrogen bonding
-0.517229	<s> hydrogen bonds
-0.789993	<s> hydrolysis the
-0.817220	<s> hydrophilic literally
-1.055815	<s> hydrophobic effect
-1.054848	<s> hydrophobic literally
-0.751258	<s> hypertonic referring
-0.751258	<s> hypotonic referring
-0.991946	<s> if hydrogen
-1.000080	<s> if you
-0.875911	<s> ion an
-0.812313	<s> ionic bond
-0.751258	<s> isotonic referring
-0.610220	<s> key concepts
-0.693269	<s> lactose a
-0.607167	<s> lipids small
-0.610568	<s> liposome spherical
-0.754978	<s> macromolecule large
-0.608499	<s> messenger rna
-0.610220	<s> molecular complex
-0.952121	<s> molecules can
-0.608499	<s> monomer any
-0.753114	<s> monosaccharide any
-0.750333	<s> most chemical
-0.756004	<s> neutral neither
-0.810187	<s> nitrogenous base
-0.560526	<s> noncovalent bond
-0.869155	<s> nonpolar referring
-0.610568	<s> normal saline
-0.720310	<s> nucleic acid
-0.775309	<s> nucleotide a
-0.813380	<s> osmosis net
-0.398567	<s> osmotic pressure
-0.562608	<s> passive diffusion
-0.564783	<s> pentose a
-0.693269	<s> peptide a
-0.806503	<s> ph a
-0.762688	<s> phospholipid the
-0.869011	<s> polar referring
-0.885895	<s> polymer any
-0.698158	<s> polymerization the
-0.746206	<s> polypeptide a
-0.609166	<s> polysaccharide biological
-0.901164	<s> protein folding
-0.754978	<s> proton positively
-0.693269	<s> purine a
-0.746206	<s> pyrimidine a
-0.554067	<s> questions </s>
-0.874593	<s> solute substance
-0.879001	<s> solution to
-0.610568	<s> steady state
-0.564783	<s> sucrose a
-0.554067	<s> summary </s>
-1.367087	<s> the body
-1.177875	<s> the cell
-1.383636	<s> the conjugate
-0.851029	<s> this chapter
-0.775309	<s> thymine a
-0.568414	<s> transcription the
-0.568414	<s> translation the
-0.564783	<s> triglycerides a
-0.693269	<s> uracil a
-0.355362	<s> van der
-0.874983	<s> why are
-0.893709	a a the
-0.584269	a and b
-0.817779	a b ab
-0.919970	a base ch
-0.751258	a binding reaction
-0.914194	a bond has
-0.608499	a byproduct usually
-0.756004	a carbohydrate coat
-0.815522	a carbon atom
-0.753114	a carboxyl group
-0.810001	a cell </s>
-0.331225	a chain </s>
-0.883055	a change and
-0.275737	a chemical reaction
-0.756004	a chemistry book
-1.008705	a class called
-0.583488	a class of
-0.559987	a classes of
-0.333839	a collection of
-0.754045	a complex ion
-0.691147	a compound that
-1.150760	a compound usually
-0.751258	a condensation reaction
-1.239190	a constituent base
-0.424483	a constituent of
-0.660364	a covalent bond
-0.610568	a deserted island
-0.468146	a difference in
-0.500315	a disaccharide made
-0.610568	a distinctive side
-0.609834	a five carbon
-0.442185	a form of
-0.333839	a function of
-0.851457	a genetic disease
-0.610220	a given surface
-0.606503	a glycerol molecule
-0.426157	a hexose sugar
-0.673252	a hydrogen atom
-0.847353	a hydrolysis reaction
-0.669342	a is the
-1.290726	a large free
-1.290726	a large group
-1.287531	a large negative
-1.300772	a large number
-0.609834	a linear organic
-0.608499	a lipid consisting
-0.454294	a measure of
-0.882627	a membrane </s>
-1.342172	a membrane coupled
-1.340386	a membrane down
-0.709623	a molecule or
-0.951908	a molecule that
-0.878386	a negative change
-0.662004	a net electric
-0.399353	a noncovalent bond
-0.603858	a nucleoside with
-0.816335	a nucleotide that
-0.798171	a ph of
-0.550930	a polar head
-1.230692	a polymer examples
-1.203372	a polymer from
-1.050263	a polymer of
-0.751258	a polymerization reaction
-0.787461	a polypeptide or
-0.987138	a positive change
-0.956375	a positive or
-0.398378	a positively charged
-1.125419	a protein linked
-1.069946	a protein that
-0.348852	a proton h
-0.755518	a purine derivative
-0.817220	a pyrimidine derivative
-0.815522	a rate greater
-1.519875	a reaction for
-0.956170	a reaction has
-1.381019	a reaction in
-1.116523	a reaction that
-0.686835	a result of
-0.607167	a selective membrane
-0.486864	a semipermeable membrane
-0.668726	a sequence of
-1.091045	a sequence whose
-0.481077	a simple sugar
-0.898431	a small polymer
-0.863604	a solute from
-1.190094	a solution </s>
-1.462656	a solution defined
-0.843830	a solution of
-1.074706	a solution whose
-0.815522	a specific sequence
-1.001885	a stable condition
-1.001885	a stable internal
-0.607167	a storage form
-0.591505	a stream or
-0.817220	a strong tendency
-0.615212	a sugar that
-0.904640	a system the
-0.996808	a system which
-0.554067	a template </s>
-0.971647	a the tighter
-0.945539	a water channel
-0.849866	a weak noncovalent
-0.889823	ab it equals
-0.839602	ability to form
-0.945594	above are alkaline
-0.480256	absorbs heat such
-0.946481	accept a proton
-0.850104	accompanied by a
-1.167047	acid a compound
-1.214305	acid a polymer
-0.620144	acid ch coo
-0.581995	acid ha and
-0.615107	acid in the
-0.610568	acid monomeric building
-0.950352	acid of ch
-0.956546	acid or strong
-0.610220	acid residues bonded
-0.481900	acid species formed
-0.450137	acid subunits </s>
-0.880225	acid that belongs
-0.633753	acid that is
-0.965631	acidic and those
-0.756004	acidic basic affects
-0.840410	acidic groups in
-0.610220	acidic nor basic
-0.958151	acidity or alkalinity
-0.559987	acidosis excess of
-0.958151	acidosis or alkalosis
-1.525517	acids and bases
-0.878122	acids and proteins
-1.535766	acids and steroids
-0.603199	acids connected by
-0.813380	acids during protein
-0.931906	acids in cells
-0.587676	acids joined to
-0.823332	acids nucleotides and
-0.581369	acids present in
-1.722731	across a given
-0.990181	across a membrane
-1.039518	across a semipermeable
-0.964744	act to reduce
-1.329351	active transport allows
-1.331013	active transport necessary
-1.158228	active transport the
-1.318055	active transport why
-0.610568	ad living tissues
-0.889429	addition of a
-1.142879	addition of an
-0.918528	adenine a compound
-0.964038	adenine and guanine
-0.920193	adenine in double
-0.564783	adenosine triphosphate a
-0.331225	adjacent regions </s>
-0.947870	administration or for
-0.814380	affects how it
-0.905020	affinity for water
-0.842949	against their concentration
-0.958151	aggregate or cluster
-0.586531	aided transport of
-0.740981	alkalinity of a
-0.739594	allows molecules to
-0.920803	allows water molecules
-0.934471	along with proteins
-1.326592	amino acid monomeric
-1.326592	amino acid residues
-1.319661	amino acid subunits
-1.317226	amino acids connected
-1.313886	amino acids during
-1.310862	amino acids nucleotides
-0.801613	amino group a
-0.946442	amphiphilic a molecule
-0.829529	amphiphilic molecules that
-0.587676	an ability to
-0.928165	an acid ch
-0.605840	an affinity for
-0.886945	an amino group
-0.669229	an aqueous environment
-1.115193	an aqueous interior
-0.559987	an area of
-0.745738	an assembly by
-0.864691	an atom or
-0.750333	an electron h
-0.354785	an electronegative atom
-0.610568	an energetically unfavorable
-0.498553	an external solution
-0.913922	an h from
-0.868091	an important energy
-0.610220	an intimate sharing
-0.603858	an oh from
-0.817220	an organic compound
-1.266386	and a distinctive
-1.205352	and a hydrogen
-0.587676	and act to
-0.398051	and active transport
-1.001031	and b d
-0.904640	and b the
-0.705230	and base a
-0.847548	and bases it
-0.693389	and can be
-0.817779	and carbon dioxide
-0.581995	and cellulose and
-0.554067	and definitions </s>
-0.817560	and electric potential
-0.851703	and entropy s
-0.559987	and formation of
-0.554067	and fruits </s>
-0.754978	and galactose units
-0.554067	and glycolipids </s>
-0.816597	and guanine commonly
-0.481488	and how does
-1.112341	and hybridizes thymine
-0.427900	and hybridizes with
-0.817220	and hydrophilic regions
-0.754045	and many other
-0.755518	and may contain
-0.610568	and mediate highly
-0.818806	and molecules and
-0.678925	and monosaccharides </s>
-0.556862	and negative charges
-0.678925	and negatively </s>
-0.540890	and nonpolar molecules
-1.142879	and of an
-0.735695	and of the
-0.930401	and one fructose
-0.798675	and oxygen molecules
-0.807017	and pairs with
-0.481488	and phosphate groups
-0.714356	and proteins </s>
-1.095171	and proteins are
-0.609834	and repulsive interactions
-0.609834	and reverse rate
-1.090833	and rna </s>
-0.716477	and rna are
-0.901164	and small uncharged
-0.554067	and steroids </s>
-1.076159	and the cell
-1.266152	and the nature
-0.852309	and their solvents
-0.608499	and therefore do
-0.610568	and those above
-0.851029	and thymine commonly
-0.608499	and transferring free
-0.355362	and van der
-0.606503	and variable chemical
-0.610568	and vice versa
-0.754978	anion negatively charged
-0.354785	another electronegative atom
-0.967336	answer in terms
-0.882124	any large molecule
-0.662004	any net electric
-0.609166	any relatively weak
-0.481077	any simple sugar
-0.893264	any small molecule
-0.660471	applied to the
-1.055394	aq is </s>
-0.791679	aq is the
-0.958896	aquaporin a water
-0.661918	aqueous environment </s>
-0.985883	aqueous environment the
-0.589586	aqueous interior that
-0.700916	aqueous molecules </s>
-0.803615	are acidic and
-0.554067	are added </s>
-0.554067	are alkaline </s>
-0.739385	are amphiphilic molecules
-0.197419	are found in
-0.607832	are held together
-0.527581	are important in
-0.581369	are insoluble in
-0.817220	are much weaker
-0.746206	are on a
-0.609090	are polar molecules
-0.399045	are polymers of
-0.586595	are the primary
-0.724332	are used to
-0.874593	are usually soluble
-0.846394	are weak bonds
-0.969322	area of high
-0.852309	around atoms dipoles
-1.265066	as a result
-1.266386	as a template
-0.920013	as dna nucleotides
-0.427111	as hydrogen bonds
-0.615107	as in the
-0.755518	as may occur
-0.258469	as nucleic acids
-0.816597	as oxygen o
-1.266152	as the bicarbonate
-1.255363	as the negative
-0.750333	as well as
-0.901291	assembling into doublestranded
-0.938141	assembly by multiple
-0.952584	assembly of macromolecules
-0.619379	association constant k
-0.873080	assumes its functional
-0.399045	asymmetric distribution of
-0.756004	asymmetric electron distributions
-0.970349	at a rate
-0.907081	at chemical equilibrium
-0.840400	atom and a
-0.587676	atom bound to
-0.817045	atom commonly oxygen
-0.610220	atom covalently bonded
-0.953635	atom or group
-0.608499	atom particularly important
-0.603199	atom without an
-0.895162	atoms can form
-0.554067	atoms dipoles </s>
-0.947895	atoms in molecules
-0.964083	atoms that carries
-0.610568	atp adenosine triphosphate
-0.958321	atp is accompanied
-0.955088	atp or other
-0.345799	attraction due to
-0.965631	attractive and repulsive
-0.615107	available in the
-0.607832	b ab it
-0.678925	b d </s>
-0.971647	b the reciprocal
-0.927281	balanced by change
-1.167047	base a compound
-1.220102	base a form
-0.945594	base are added
-0.620144	base ch cooh
-0.814450	base nitrogen containing
-1.225148	base of ch
-1.209643	base of rna
-0.771649	base pairs in
-0.481900	base species formed
-0.919224	base that make
-0.851029	bases called pyrimidine
-0.889823	bases it might
-0.591505	bases match or
-0.946125	bases of nucleic
-0.609834	basic affects how
-0.787976	basic ph </s>
-0.587676	be applied to
-0.610220	be broken down
-0.252102	be found in
-0.587676	be helpful to
-0.892587	be linked with
-0.815522	be much greater
-0.587676	be permeable to
-0.610568	be transported against
-0.904726	because of an
-0.859762	behaves in an
-0.433030	belongs to a
-0.837268	below this are
-0.559987	beng frontiers of
-0.731314	between a and
-1.434638	between a positively
-0.610220	between adjacent regions
-0.944810	between an electronegative
-0.593277	between molecules </s>
-1.369161	between molecules with
-0.809818	between passive and
-0.964083	beyond that available
-0.610220	bicarbonate buffering system
-0.603858	bilayer along with
-0.936460	bilayer membrane phospholipids
-0.557937	bilayer structure with
-0.459547	binding between a
-0.576833	binding reaction a
-0.726951	biochemical concepts that
-0.500091	biological macromolecule composed
-0.834042	biological molecules </s>
-1.019968	biological molecules that
-0.610568	biomedical engineering professor
-0.756004	biomolecules contain various
-0.797481	biomolecules together </s>
-0.950352	block of proteins
-0.587676	blood help to
-0.902651	body fluids as
-0.905284	body fluids why
-0.610220	body maintains homeostasis
-0.610568	body take place
-0.585709	bond a noncovalent
-0.874426	bond any relatively
-0.795027	bond between a
-1.130589	bond between an
-0.554067	bond energies </s>
-0.851703	bond has strength
-0.958321	bond is cleaved
-0.811249	bond stable chemical
-0.916962	bond that does
-0.963540	bonded to another
-0.572265	bonded together in
-0.954202	bonding is important
-1.254377	bonds and therefore
-1.252913	bonds and van
-1.213450	bonds are much
-1.214915	bonds are used
-0.654468	bonds between molecules
-0.680948	bonds dna and
-0.966133	bonds in atp
-0.610568	bonds often stabilize
-0.442728	bonds such as
-0.886377	bonds why do
-0.806796	bonds with one
-0.964174	book to find
-0.803615	both hydrophobic and
-0.621193	bound to a
-0.568414	breathing disturb the
-0.724332	broken down to
-0.888428	buffer a solution
-0.715715	buffer systems in
-0.784452	buffering system that
-0.559987	building block of
-0.833284	but not to
-0.917867	by a large
-0.442106	by change in
-0.752185	by coupling together
-0.395011	by covalent bonds
-0.598614	by mass is
-0.815522	by multiple weak
-0.258469	by nucleic acids
-0.562608	by passive diffusion
-0.751258	by peptide bonds
-0.608499	by phosphorous containing
-0.606503	by requiring energy
-0.333839	by sharing of
-1.551742	by the addition
-1.554419	by the loss
-1.484512	by the phospholipid
-1.554419	by the repeated
-0.794153	by which a
-1.132202	by which water
