
\data\
ngram 1=976
ngram 2=2814
ngram 3=3340

\1-grams:
-1.375159	</s>
-99	<s>	-0.113362
-1.455351	a	-0.179808
-3.345145	ab	-0.080608
-3.345145	ability	-0.080608
-3.345145	about	-0.080608
-3.345145	above	-0.080608
-3.345145	absorbs	-0.080608
-3.345145	accept	-0.080608
-3.345145	accompanied	-0.080608
-3.252031	acetyl	-0.080608
-3.345145	acetylation	-0.080608
-3.345145	achieved	-0.080608
-2.466065	acid	-0.094205
-2.890392	acidic	-0.122816
-3.345145	acidity	-0.080608
-3.252031	acidosis	-0.080608
-2.890392	acids	-0.106742
-2.784507	across	-0.391267
-3.252031	act	-0.080608
-3.345145	actions	-0.080608
-3.252031	activation	-0.194984
-3.030715	active	-0.145456
-3.345145	acts	-0.080608
-3.345145	acyl	-0.080608
-3.345145	acylation	-0.080608
-3.345145	ad	-0.080608
-3.345145	added	-0.080608
-3.252031	addition	-0.194984
-3.030715	adenine	-0.080608
-3.345145	adenosine	-0.080608
-3.252031	adjacent	-0.080608
-3.345145	administration	-0.080608
-3.345145	affects	-0.080608
-3.252031	affinity	-0.080608
-3.252031	after	-0.080608
-3.252031	against	-0.080608
-3.345145	aggregate	-0.080608
-3.345145	aided	-0.080608
-3.345145	aligned	-0.080608
-3.345145	alignment	-0.080608
-3.345145	alkaline	-0.080608
-3.345145	alkalinity	-0.080608
-3.345145	alkalosis	-0.080608
-3.345145	all	-0.080608
-3.252031	allows	-0.080608
-3.345145	along	-0.080608
-3.345145	alpha	-0.080608
-3.345145	also	-0.080608
-3.345145	amide	-0.080608
-2.315088	amino	-0.503029
-3.252031	amphiphilic	-0.080608
-2.203272	an	-0.127934
-3.345145	analysis	-0.080608
-3.345145	analyzing	-0.080608
-1.666695	and	-0.108629
-3.252031	anion	-0.080608
-2.890392	another	-0.122747
-3.345145	answer	-0.080608
-3.345145	antibody	-0.080608
-2.567263	any	-0.080608
-3.345145	applied	-0.080608
-3.345145	appropriate	-0.080608
-3.252031	aq	-0.194984
-3.345145	aquaporin	-0.080608
-3.252031	aqueous	-0.080608
-2.179301	are	-0.099429
-3.345145	area	-0.080608
-3.345145	around	-0.080608
-3.345145	arrangement	-0.080608
-2.466065	as	-0.108286
-3.345145	assembling	-0.080608
-3.252031	assembly	-0.080608
-3.345145	association	-0.080608
-3.345145	assumes	-0.080608
-3.252031	asymmetric	-0.080608
-2.784507	at	-0.080608
-2.890392	atom	-0.080608
-2.699444	atoms	-0.115490
-3.030715	atp	-0.080608
-3.345145	attempt	-0.080608
-3.345145	attraction	-0.080608
-3.345145	attractive	-0.080608
-3.345145	available	-0.080608
-3.252031	b	-0.080608
-3.345145	backbone	-0.080608
-3.345145	balanced	-0.080608
-3.345145	barrier	-0.080608
-2.513723	base	-0.122816
-2.890392	bases	-0.080608
-3.030715	basic	-0.080608
-2.628344	be	-0.080608
-3.345145	because	-0.080608
-3.345145	becomes	-0.080608
-3.345145	behaves	-0.080608
-3.345145	belongs	-0.080608
-3.345145	below	-0.080608
-3.345145	beng	-0.080608
-3.345145	beta	-0.080608
-2.466065	between	-0.132360
-3.345145	beyond	-0.080608
-3.345145	bicarbonate	-0.080608
-3.252031	bilayer	-0.080608
-3.345145	bind	-0.080608
-3.252031	binding	-0.080608
-3.345145	binds	-0.080608
-3.252031	biochemical	-0.080608
-3.345145	biochemistry	-0.080608
-2.784507	biological	-0.169572
-3.345145	biology	-0.080608
-3.345145	biomedical	-0.080608
-3.252031	biomolecules	-0.080608
-3.345145	block	-0.080608
-3.345145	blood	-0.080608
-3.345145	body	-0.080608
-2.513723	bond	-0.115490
-3.252031	bonded	-0.080608
-3.252031	bonding	-0.134041
-2.567263	bonds	-0.113391
-3.345145	book	-0.080608
-3.252031	both	-0.080608
-3.345145	bound	-0.080608
-3.345145	branch	-0.080608
-3.345145	breathing	-0.080608
-3.345145	broad	-0.080608
-3.345145	broken	-0.080608
-3.345145	buffer	-0.080608
-3.345145	buffering	-0.080608
-3.345145	building	-0.080608
-3.345145	burke	-0.080608
-3.345145	but	-0.080608
-2.058003	by	-0.118234
-3.345145	byproduct	-0.080608
-3.252031	c	-0.194984
-2.784507	called	-0.080608
-2.466065	can	-0.233180
-3.345145	capabilities	-0.080608
-3.345145	capturing	-0.080608
-3.252031	carbohydrate	-0.080608
-3.252031	carbohydrates	-0.080608
-3.030715	carbon	-0.080608
-3.030715	carboxyl	-0.194984
-3.345145	carried	-0.080608
-3.345145	carries	-0.080608
-3.345145	cat	-0.080608
-3.345145	catalyst	-0.080608
-3.345145	catalyze	-0.080608
-3.345145	catalyzed	-0.080608
-3.252031	catalyzes	-0.080608
-3.345145	catalyzing	-0.080608
-3.345145	categories	-0.080608
-3.252031	cation	-0.080608
-3.345145	cause	-0.080608
-3.345145	causes	-0.080608
-2.699444	cell	-0.118805
-2.784507	cells	-0.228293
-3.345145	cellulose	-0.080608
-3.345145	certain	-0.080608
-2.890392	ch	-0.169572
-2.890392	chain	-0.116471
-3.252031	chains	-0.080608
-2.348201	change	-0.195329
-3.252031	channel	-0.080608
-3.030715	chapter	-0.153421
-3.345145	characteristic	-0.080608
-3.345145	charge	-0.080608
-3.030715	charged	-0.145456
-3.345145	charges	-0.080608
-2.315088	chemical	-0.113391
-3.252031	chemistry	-0.080608
-3.345145	chymotrypsin	-0.080608
-3.345145	cl	-0.080608
-3.345145	class	-0.080608
-3.345145	classes	-0.080608
-3.252031	cleavage	-0.080608
-3.345145	cleaved	-0.080608
-3.252031	cluster	-0.080608
-3.252031	co	-0.080608
-3.345145	coat	-0.080608
-3.345145	coiled	-0.080608
-3.252031	collection	-0.194984
-3.345145	common	-0.080608
-3.030715	commonly	-0.153421
-3.345145	communication	-0.080608
-3.345145	compared	-0.080608
-3.345145	comparison	-0.080608
-3.345145	complementary	-0.080608
-3.345145	complete	-0.080608
-3.030715	complex	-0.080608
-3.252031	components	-0.080608
-3.030715	composed	-0.169419
-3.030715	compound	-0.080608
-2.784507	compounds	-0.169572
-3.345145	concentrated	-0.080608
-2.423124	concentration	-0.099550
-3.345145	concentrations	-0.080608
-3.252031	concepts	-0.080608
-3.345145	concerned	-0.080608
-3.345145	concerning	-0.080608
-3.252031	condensation	-0.080608
-3.345145	condition	-0.080608
-3.345145	confer	-0.080608
-3.345145	conferred	-0.080608
-3.252031	conformation	-0.080608
-3.252031	conjugate	-0.194984
-3.345145	connected	-0.080608
-2.784507	consisting	-0.391267
-2.784507	constant	-0.111823
-3.345145	constants	-0.080608
-3.252031	constituent	-0.080608
-3.345145	contact	-0.080608
-3.252031	contain	-0.080608
-3.252031	contained	-0.080608
-2.784507	containing	-0.080608
-3.345145	continually	-0.080608
-3.345145	contributes	-0.080608
-3.345145	coo	-0.080608
-3.345145	cooh	-0.080608
-3.345145	copied	-0.080608
-3.252031	coupled	-0.194984
-3.252031	coupling	-0.080608
-3.345145	course	-0.080608
-2.513723	covalent	-0.183511
-3.252031	covalently	-0.080608
-3.345145	covering	-0.080608
-3.345145	created	-0.080608
-3.345145	critical	-0.080608
-3.252031	cross	-0.194984
-3.345145	crystal	-0.080608
-3.345145	crystallography	-0.080608
-3.345145	cysteine	-0.080608
-3.345145	cysteines	-0.080608
-3.252031	cystic	-0.194984
-3.345145	cytoplasm	-0.080608
-3.030715	cytosine	-0.080608
-3.252031	d	-0.080608
-3.345145	database	-0.080608
-3.345145	decomposition	-0.080608
-3.345145	decrease	-0.080608
-3.345145	deep	-0.080608
-3.252031	defect	-0.080608
-3.345145	defined	-0.080608
-3.345145	definitions	-0.080608
-3.345145	degradation	-0.080608
-3.345145	degrades	-0.080608
-3.345145	degree	-0.080608
-3.345145	delivery	-0.080608
-3.345145	depending	-0.080608
-3.345145	der	-0.080608
-3.030715	derivative	-0.153421
-3.345145	describe	-0.080608
-3.345145	describes	-0.080608
-3.345145	describing	-0.080608
-3.345145	deserted	-0.080608
-3.345145	destruction	-0.080608
-3.345145	detect	-0.080608
-3.252031	determine	-0.194984
-3.252031	determined	-0.080608
-3.252031	determining	-0.194984
-3.345145	developed	-0.080608
-3.345145	diabetes	-0.080608
-3.030715	difference	-0.145456
-2.628344	different	-0.110332
-3.345145	diffraction	-0.080608
-3.030715	diffusion	-0.080608
-3.345145	dimensional	-0.080608
-3.345145	dimer	-0.080608
-3.345145	dioxide	-0.080608
-3.345145	dipoles	-0.080608
-3.252031	direction	-0.080608
-3.252031	disaccharide	-0.080608
-3.345145	discrete	-0.080608
-3.030715	disease	-0.080608
-3.252031	disorder	-0.080608
-3.252031	dissociation	-0.153421
-3.345145	dissolve	-0.080608
-3.345145	dissolved	-0.080608
-3.345145	distinctive	-0.080608
-3.345145	distribution	-0.080608
-3.345145	distributions	-0.080608
-3.345145	disturb	-0.080608
-3.345145	disturbance	-0.080608
-3.345145	disturbing	-0.080608
-3.030715	disulfide	-0.080608
-3.345145	diverse	-0.080608
-2.513723	dna	-0.127229
-2.699444	do	-0.153421
-2.890392	does	-0.080608
-3.345145	domain	-0.080608
-3.345145	domains	-0.080608
-3.345145	donate	-0.080608
-3.345145	double	-0.080608
-3.345145	doublestranded	-0.080608
-3.252031	down	-0.080608
-3.345145	drink	-0.080608
-3.345145	drugs	-0.080608
-3.345145	dry	-0.080608
-3.252031	due	-0.194984
-3.030715	during	-0.080608
-3.345145	e	-0.080608
-2.890392	each	-0.080608
-3.345145	easily	-0.080608
-3.345145	effect	-0.080608
-3.030715	electric	-0.153421
-3.345145	electrochemical	-0.080608
-3.345145	electromagnetic	-0.080608
-3.252031	electron	-0.080608
-3.252031	electronegative	-0.194984
-3.345145	electronic	-0.080608
-3.252031	electrons	-0.080608
-3.345145	endoplasmic	-0.080608
-3.345145	endothermic	-0.080608
-3.345145	energetically	-0.080608
-3.345145	energies	-0.080608
-2.513723	energy	-0.111126
-3.345145	engineering	-0.080608
-3.252031	enough	-0.194984
-3.030715	enthalpy	-0.080608
-2.890392	entropy	-0.080608
-2.890392	environment	-0.122816
-3.345145	enzymatic	-0.080608
-2.567263	enzyme	-0.097699
-3.252031	enzymes	-0.080608
-3.252031	equal	-0.194984
-3.345145	equals	-0.080608
-3.252031	equation	-0.080608
-2.890392	equilibrium	-0.134041
-3.252031	equivalent	-0.194984
-3.345145	especially	-0.080608
-3.345145	eukaryotic	-0.080608
-3.345145	examples	-0.080608
-3.345145	excess	-0.080608
-3.345145	exothermic	-0.080608
-3.252031	experimentally	-0.080608
-3.252031	explain	-0.080608
-3.252031	external	-0.080608
-3.030715	extracellular	-0.080608
-3.345145	eyes	-0.080608
-3.252031	facilitated	-0.194984
-3.345145	facilitating	-0.080608
-3.345145	fat	-0.080608
-2.890392	fatty	-0.145456
-3.345145	favorable	-0.080608
-3.345145	feedback	-0.080608
-3.345145	fewer	-0.080608
-3.345145	fibrosis	-0.080608
-3.252031	field	-0.080608
-3.345145	fight	-0.080608
-3.345145	final	-0.080608
-3.252031	find	-0.080608
-3.345145	fit	-0.080608
-3.345145	five	-0.080608
-3.345145	flow	-0.080608
-3.345145	fluid	-0.080608
-3.345145	fluids	-0.080608
-3.345145	flux	-0.080608
-3.345145	fold	-0.080608
-3.252031	folded	-0.080608
-3.252031	folding	-0.080608
-3.345145	following	-0.080608
-3.345145	foods	-0.080608
-2.348201	for	-0.113391
-3.345145	force	-0.080608
-3.345145	forces	-0.080608
-3.252031	foreign	-0.080608
-2.567263	form	-0.127229
-3.030715	formation	-0.153421
-2.466065	formed	-0.303754
-3.345145	forming	-0.080608
-3.345145	forms	-0.080608
-3.345145	formula	-0.080608
-3.345145	forward	-0.080608
-2.890392	found	-0.294357
-3.030715	four	-0.080608
-2.699444	free	-0.470449
-2.284321	from	-0.143354
-3.345145	frontiers	-0.080608
-3.252031	fructose	-0.080608
-3.345145	fruits	-0.080608
-3.252031	function	-0.194984
-2.890392	functional	-0.122816
-3.252031	functions	-0.080608
-3.345145	fused	-0.080608
-2.890392	g	-0.080608
-3.345145	gained	-0.080608
-3.252031	galactose	-0.080608
-3.252031	gene	-0.080608
-3.345145	generally	-0.080608
-3.345145	generate	-0.080608
-2.890392	genetic	-0.145456
-3.345145	gibbs	-0.080608
-3.252031	give	-0.080608
-3.345145	given	-0.080608
-3.030715	gives	-0.080608
-3.030715	glucose	-0.080608
-3.345145	glycerol	-0.080608
-3.345145	glycine	-0.080608
-3.345145	glycocalyx	-0.080608
-3.345145	glycolipid	-0.080608
-3.345145	glycolipids	-0.080608
-3.345145	glycoprotein	-0.080608
-3.345145	glycosylation	-0.080608
-3.252031	gradient	-0.080608
-3.345145	graph	-0.080608
-3.345145	graphical	-0.080608
-2.890392	greater	-0.134041
-2.699444	group	-0.174463
-2.513723	groups	-0.181196
-3.030715	guanine	-0.080608
-2.567263	h	-0.099286
-3.345145	ha	-0.080608
-3.345145	half	-0.080608
-3.345145	handed	-0.080608
-2.699444	has	-0.106503
-3.345145	hating	-0.080608
-3.252031	have	-0.080608
-3.345145	having	-0.080608
-3.345145	hco	-0.080608
-3.345145	head	-0.080608
-3.030715	heat	-0.153421
-3.345145	held	-0.080608
-3.345145	helix	-0.080608
-3.345145	help	-0.080608
-3.345145	helpful	-0.080608
-3.345145	helps	-0.080608
-3.345145	hemoglobin	-0.080608
-3.345145	hereditary	-0.080608
-3.252031	heterocyclic	-0.080608
-3.345145	hexose	-0.080608
-2.890392	high	-0.134041
-3.345145	higher	-0.080608
-3.345145	highest	-0.080608
-3.345145	highly	-0.080608
-3.252031	hold	-0.080608
-3.345145	holds	-0.080608
-3.252031	homeostasis	-0.080608
-3.345145	homology	-0.080608
-3.345145	honey	-0.080608
-2.890392	how	-0.169572
-3.345145	hybridization	-0.080608
-3.345145	hybridize	-0.080608
-3.252031	hybridizes	-0.153421
-3.345145	hydrocarbon	-0.080608
-2.513723	hydrogen	-0.245632
-2.890392	hydrolysis	-0.134041
-3.345145	hydrolyzing	-0.080608
-2.890392	hydrophilic	-0.080608
-2.890392	hydrophobic	-0.115490
-3.345145	hydrostatic	-0.080608
-3.252031	hypertonic	-0.080608
-3.345145	hyperventilation	-0.080608
-3.252031	hypotonic	-0.080608
-3.345145	identical	-0.080608
-3.345145	identify	-0.080608
-3.252031	if	-0.080608
-3.345145	images	-0.080608
-3.345145	immune	-0.080608
-3.345145	impermeable	-0.080608
-2.784507	important	-0.131689
-1.681265	in	-0.261910
-3.345145	include	-0.080608
-3.252031	including	-0.080608
-3.252031	increase	-0.080608
-3.252031	increases	-0.194984
-3.345145	indicates	-0.080608
-3.345145	individual	-0.080608
-3.345145	induced	-0.080608
-3.345145	infection	-0.080608
-2.699444	information	-0.080608
-3.345145	inhibiting	-0.080608
-3.345145	inhibitor	-0.080608
-3.345145	inhibitors	-0.080608
-3.345145	initiate	-0.080608
-3.252031	input	-0.080608
-3.345145	insoluble	-0.080608
-3.345145	insulin	-0.080608
-3.252031	interaction	-0.080608
-2.890392	interactions	-0.080608
-3.345145	interior	-0.080608
-3.345145	intermediate	-0.080608
-3.345145	internal	-0.080608
-3.345145	internet	-0.080608
-3.345145	interpreted	-0.080608
-3.345145	intimate	-0.080608
-2.423124	into	-0.139242
-3.345145	intravenous	-0.080608
-3.345145	invaders	-0.080608
-3.345145	involve	-0.080608
-2.890392	ion	-0.080608
-3.030715	ionic	-0.080608
-3.252031	ions	-0.080608
-1.949337	is	-0.178661
-3.345145	island	-0.080608
-3.345145	isolated	-0.080608
-3.252031	isotonic	-0.080608
-2.628344	it	-0.080608
-2.513723	its	-0.101199
-3.345145	itself	-0.080608
-3.345145	joined	-0.080608
-3.345145	joining	-0.080608
-2.890392	k	-0.116471
-3.345145	kcal	-0.080608
-3.252031	key	-0.080608
-3.345145	kidney	-0.080608
-3.345145	kinetics	-0.080608
-3.345145	km	-0.080608
-3.345145	known	-0.080608
-3.345145	lacks	-0.080608
-3.252031	lactose	-0.080608
-3.030715	large	-0.080608
-3.252031	lesser	-0.080608
-3.252031	levels	-0.194984
-3.345145	library	-0.080608
-3.252031	ligand	-0.080608
-3.345145	ligands	-0.080608
-3.345145	like	-0.080608
-3.345145	limiting	-0.080608
-3.345145	line	-0.080608
-3.030715	linear	-0.080608
-3.345145	lineweaver	-0.080608
-3.345145	linkage	-0.080608
-2.628344	linked	-0.228293
-3.345145	linking	-0.080608
-3.345145	links	-0.080608
-3.252031	lipid	-0.080608
-3.345145	lipids	-0.080608
-3.345145	liposome	-0.080608
-3.345145	liter	-0.080608
-3.252031	literally	-0.194984
-3.345145	little	-0.080608
-3.252031	living	-0.080608
-3.345145	local	-0.080608
-3.345145	located	-0.080608
-3.345145	lock	-0.080608
-3.345145	log	-0.080608
-3.345145	logarithm	-0.080608
-3.345145	look	-0.080608
-3.345145	loss	-0.080608
-3.345145	lost	-0.080608
-3.345145	loving	-0.080608
-3.252031	low	-0.080608
-3.345145	lowering	-0.080608
-3.345145	lubrication	-0.080608
-3.345145	m	-0.080608
-3.030715	macromolecule	-0.080608
-3.345145	macromolecules	-0.080608
-3.252031	made	-0.080608
-3.030715	magnetic	-0.080608
-3.345145	magnitude	-0.080608
-3.345145	maintain	-0.080608
-3.345145	maintaining	-0.080608
-3.345145	maintains	-0.080608
-3.345145	make	-0.080608
-3.345145	making	-0.080608
-3.345145	manifest	-0.080608
-3.252031	many	-0.080608
-3.345145	mark	-0.080608
-3.345145	mass	-0.080608
-3.345145	match	-0.080608
-3.345145	material	-0.080608
-3.345145	maximum	-0.080608
-3.030715	may	-0.080608
-3.345145	measure	-0.080608
-3.345145	mechanism	-0.080608
-3.345145	mechanisms	-0.080608
-3.345145	mediate	-0.080608
-2.628344	membrane	-0.098169
-3.345145	membranes	-0.080608
-3.345145	menten	-0.080608
-3.345145	messenger	-0.080608
-3.345145	method	-0.080608
-3.030715	michaelis	-0.194984
-3.252031	might	-0.080608
-3.345145	milk	-0.080608
-3.345145	mirror	-0.080608
-2.890392	model	-0.080608
-3.345145	modification	-0.080608
-3.345145	modified	-0.080608
-3.345145	moiety	-0.080608
-3.345145	mol	-0.080608
-3.345145	mole	-0.080608
-3.252031	molecular	-0.080608
-2.315088	molecule	-0.171382
-2.076010	molecules	-0.165511
-3.345145	moles	-0.080608
-3.252031	monomer	-0.080608
-3.345145	monomeric	-0.080608
-3.030715	monomers	-0.153421
-3.252031	monosaccharide	-0.080608
-3.252031	monosaccharides	-0.080608
-2.890392	more	-0.080608
-3.252031	most	-0.080608
-3.345145	move	-0.080608
-3.030715	movement	-0.169419
-3.252031	mrna	-0.080608
-3.030715	much	-0.080608
-3.030715	multiple	-0.080608
-3.030715	must	-0.153421
-3.345145	myoglobin	-0.080608
-3.345145	myristic	-0.080608
-3.345145	myristoylation	-0.080608
-2.890392	n	-0.080608
-3.345145	na	-0.080608
-3.345145	nacl	-0.080608
-3.345145	nascent	-0.080608
-3.345145	native	-0.080608
-3.345145	nature	-0.080608
-3.345145	near	-0.080608
-3.252031	necessary	-0.194984
-2.699444	negative	-0.080608
-3.252031	negatively	-0.080608
-3.345145	neither	-0.080608
-2.699444	net	-0.161346
-3.252031	neutral	-0.080608
-3.345145	neutrality	-0.080608
-3.345145	neutralizing	-0.080608
-3.345145	newly	-0.080608
-3.030715	nitrogen	-0.080608
-3.252031	nitrogenous	-0.080608
-3.252031	nmr	-0.194984
-3.345145	no	-0.080608
-3.252031	non	-0.194984
-2.890392	noncovalent	-0.134041
-2.784507	nonpolar	-0.122747
-3.345145	nor	-0.080608
-3.345145	normal	-0.080608
-2.890392	not	-0.080608
-3.345145	nuclear	-0.080608
-2.513723	nucleic	-0.434738
-3.345145	nucleoside	-0.080608
-2.890392	nucleotide	-0.080608
-2.890392	nucleotides	-0.080608
-3.345145	nucleus	-0.080608
-3.030715	number	-0.153421
-3.030715	o	-0.080608
-3.252031	obtained	-0.194984
-3.252031	occur	-0.080608
-3.345145	occurs	-0.080608
-1.386284	of	-0.271597
-3.345145	off	-0.080608
-3.252031	often	-0.080608
-3.345145	oh	-0.080608
-3.345145	oligosaccharides	-0.080608
-2.784507	on	-0.080608
-2.513723	one	-0.116018
-3.345145	opposite	-0.080608
-1.885584	or	-0.091617
-3.345145	order	-0.080608
-3.030715	organic	-0.080608
-3.345145	organisms	-0.080608
-3.345145	original	-0.080608
-3.030715	osmosis	-0.080608
-3.030715	osmotic	-0.169419
-2.699444	other	-0.080608
-3.345145	others	-0.080608
-3.345145	otherwise	-0.080608
-3.252031	out	-0.194984
-3.345145	over	-0.080608
-3.345145	overall	-0.080608
-3.345145	overcome	-0.080608
-3.030715	oxygen	-0.080608
-3.030715	pairs	-0.080608
-3.345145	particle	-0.080608
-3.345145	particles	-0.080608
-3.252031	particularly	-0.080608
-3.345145	parts	-0.080608
-3.345145	pass	-0.080608
-3.345145	passing	-0.080608
-2.890392	passive	-0.134041
-3.345145	pathogens	-0.080608
-3.345145	patients	-0.080608
-3.252031	pattern	-0.080608
-3.345145	pentose	-0.080608
-3.030715	peptide	-0.134041
-3.252031	per	-0.080608
-3.345145	permeability	-0.080608
-3.345145	permeable	-0.080608
-2.699444	ph	-0.080608
-2.890392	phosphate	-0.134041
-3.345145	phosphoanhydride	-0.080608
-3.030715	phospholipid	-0.153421
-3.252031	phospholipids	-0.080608
-3.345145	phosphorous	-0.080608
-3.345145	phosphorylation	-0.080608
-3.345145	physical	-0.080608
-3.345145	physiological	-0.080608
-3.345145	place	-0.080608
-3.345145	placed	-0.080608
-3.345145	planar	-0.080608
-3.345145	plasma	-0.080608
-3.345145	plot	-0.080608
-2.699444	polar	-0.153421
-2.890392	polymer	-0.080608
-3.252031	polymerization	-0.080608
-3.252031	polymers	-0.194984
-2.567263	polypeptide	-0.219883
-3.345145	polypeptides	-0.080608
-3.345145	polysaccharide	-0.080608
-3.345145	polysaccharides	-0.080608
-3.252031	positive	-0.080608
-3.030715	positively	-0.169419
-3.252031	post	-0.194984
-3.252031	potential	-0.080608
-3.252031	present	-0.194984
-3.252031	pressure	-0.080608
-3.030715	primary	-0.122747
-3.345145	principal	-0.080608
-3.345145	proceeds	-0.080608
-3.030715	process	-0.153421
-3.252031	processed	-0.080608
-3.345145	produced	-0.080608
-3.252031	product	-0.080608
-3.252031	products	-0.080608
-3.345145	professor	-0.080608
-3.345145	properly	-0.080608
-2.890392	properties	-0.134041
-3.345145	property	-0.080608
-3.252031	protease	-0.080608
-3.345145	protecting	-0.080608
-2.384048	protein	-0.118805
-2.348201	proteins	-0.112820
-3.345145	proteolysis	-0.080608
-3.345145	proteolytic	-0.080608
-3.252031	proteome	-0.080608
-3.345145	proteomics	-0.080608
-3.252031	proton	-0.080608
-3.345145	purified	-0.080608
-3.252031	purine	-0.080608
-3.252031	purines	-0.080608
-3.030715	pyrimidine	-0.080608
-3.345145	pyrimidines	-0.080608
-3.345145	quantities	-0.080608
-3.345145	quartenary	-0.080608
-3.345145	quaternary	-0.080608
-3.345145	questions	-0.080608
-3.345145	randomness	-0.080608
-3.345145	rapid	-0.080608
-3.345145	rapidly	-0.080608
-2.890392	rate	-0.080608
-3.345145	rather	-0.080608
-3.252031	ratio	-0.080608
-3.345145	ray	-0.080608
-3.345145	rays	-0.080608
-3.252031	reactants	-0.080608
-2.284321	reaction	-0.190493
-3.345145	reactions	-0.080608
-3.345145	reason	-0.080608
-3.345145	receptor	-0.080608
-3.345145	reciprocal	-0.080608
-3.345145	reduce	-0.080608
-3.345145	reducing	-0.080608
-2.628344	referring	-0.537396
-3.345145	region	-0.080608
-3.030715	regions	-0.153421
-3.345145	regulates	-0.080608
-3.345145	relatively	-0.080608
-3.252031	release	-0.080608
-3.345145	releases	-0.080608
-3.345145	reliable	-0.080608
-3.345145	remarkable	-0.080608
-3.345145	repeated	-0.080608
-3.345145	replaces	-0.080608
-3.345145	represented	-0.080608
-3.345145	repulsive	-0.080608
-3.345145	required	-0.080608
-3.345145	requiring	-0.080608
-3.345145	research	-0.080608
-3.345145	residue	-0.080608
-3.252031	residues	-0.080608
-3.345145	resonance	-0.080608
-3.345145	resources	-0.080608
-3.345145	respectively	-0.080608
-3.345145	response	-0.080608
-3.252031	result	-0.080608
-3.345145	results	-0.080608
-3.345145	reticulum	-0.080608
-3.345145	reverse	-0.080608
-3.345145	reviewed	-0.080608
-3.345145	ribosome	-0.080608
-3.345145	right	-0.080608
-3.345145	ring	-0.080608
-3.345145	rings	-0.080608
-3.345145	rise	-0.080608
-2.784507	rna	-0.080608
-2.890392	s	-0.080608
-3.345145	saline	-0.080608
-3.345145	saltzman	-0.080608
-3.345145	same	-0.080608
-3.345145	scientists	-0.080608
-3.345145	seawater	-0.080608
-3.345145	second	-0.080608
-2.784507	secondary	-0.391267
-3.252031	segments	-0.080608
-3.345145	selective	-0.080608
-3.345145	self	-0.080608
-3.345145	semipermeable	-0.080608
-3.345145	separated	-0.080608
-3.345145	separating	-0.080608
-2.628344	sequence	-0.127229
-3.345145	sequences	-0.080608
-3.345145	set	-0.080608
-3.252031	shape	-0.080608
-3.252031	sharing	-0.194984
-3.252031	sheet	-0.080608
-3.345145	shield	-0.080608
-3.252031	side	-0.194984
-3.345145	sides	-0.080608
-3.345145	similar	-0.080608
-3.030715	simple	-0.134041
-3.345145	simpler	-0.080608
-3.252031	single	-0.080608
-3.345145	site	-0.080608
-2.567263	small	-0.080608
-3.030715	smaller	-0.080608
-3.345145	so	-0.080608
-3.345145	soluble	-0.080608
-2.784507	solute	-0.122816
-2.699444	solution	-0.101199
-3.345145	solutions	-0.080608
-3.345145	solvent	-0.080608
-3.345145	solvents	-0.080608
-2.890392	some	-0.080608
-3.252031	source	-0.080608
-3.345145	sources	-0.080608
-3.345145	specialized	-0.080608
-3.030715	species	-0.153421
-3.030715	specific	-0.080608
-3.345145	specifically	-0.080608
-3.345145	spectroscopy	-0.080608
-3.345145	spherical	-0.080608
-3.345145	spiral	-0.080608
-3.345145	spots	-0.080608
-3.345145	stabilize	-0.080608
-3.345145	stabilized	-0.080608
-3.345145	stabilizing	-0.080608
-3.252031	stable	-0.080608
-3.345145	starch	-0.080608
-3.252031	state	-0.080608
-3.345145	steady	-0.080608
-3.345145	step	-0.080608
-3.345145	steroids	-0.080608
-3.345145	stop	-0.080608
-3.345145	storage	-0.080608
-3.345145	stranded	-0.080608
-3.252031	strands	-0.194984
-3.345145	stream	-0.080608
-3.252031	strength	-0.080608
-3.030715	strong	-0.080608
-3.345145	structural	-0.080608
-2.384048	structure	-0.148494
-3.345145	subatomic	-0.080608
-2.890392	substance	-0.134041
-2.890392	substrate	-0.080608
-3.345145	substrates	-0.080608
-2.890392	subunits	-0.145456
-2.466065	such	-0.383195
-3.345145	sucrose	-0.080608
-2.784507	sugar	-0.116471
-3.030715	sugars	-0.080608
-3.345145	sulfhydryl	-0.080608
-3.345145	summary	-0.080608
-3.252031	surface	-0.194984
-3.345145	surrounding	-0.080608
-3.345145	symptoms	-0.080608
-3.345145	synthesis	-0.080608
-3.252031	synthesized	-0.080608
-3.252031	system	-0.080608
-3.252031	systems	-0.080608
-3.345145	tagging	-0.080608
-3.345145	take	-0.080608
-3.345145	taking	-0.080608
-3.252031	technique	-0.080608
-3.345145	temperature	-0.080608
-3.345145	template	-0.080608
-3.030715	tendency	-0.153421
-3.345145	tends	-0.080608
-3.345145	terminal	-0.080608
-3.345145	terms	-0.080608
-3.252031	tertiary	-0.194984
-3.345145	textbook	-0.080608
-2.699444	than	-0.080608
-1.819692	that	-0.181543
-1.446632	the	-0.142753
-2.784507	their	-0.080608
-3.345145	them	-0.080608
-3.345145	themselves	-0.080608
-3.345145	then	-0.080608
-3.345145	there	-0.080608
-3.345145	therefore	-0.080608
-3.345145	think	-0.080608
-2.699444	this	-0.080608
-3.345145	those	-0.080608
-3.030715	three	-0.153421
-2.699444	through	-0.153421
-2.890392	thymine	-0.080608
-3.345145	tighter	-0.080608
-3.345145	tightly	-0.080608
-3.345145	time	-0.080608
-3.345145	tissues	-0.080608
-1.711958	to	-0.245113
-2.628344	together	-0.116471
-3.345145	total	-0.080608
-3.345145	transcribed	-0.080608
-3.345145	transcription	-0.080608
-3.345145	transfer	-0.080608
-3.345145	transferred	-0.080608
-3.345145	transferring	-0.080608
-3.345145	transient	-0.080608
-3.345145	transiently	-0.080608
-3.345145	transition	-0.080608
-3.252031	translation	-0.080608
-3.345145	translational	-0.080608
-3.252031	transmembrane	-0.194984
-2.890392	transport	-0.116471
-3.345145	transported	-0.080608
-3.345145	transporting	-0.080608
-3.345145	transports	-0.080608
-3.345145	triglycerides	-0.080608
-3.345145	triphosphate	-0.080608
-3.345145	triplets	-0.080608
-3.252031	trypsin	-0.080608
-3.345145	turnover	-0.080608
-2.384048	two	-0.096976
-3.252031	type	-0.080608
-3.345145	uncharged	-0.080608
-3.345145	undergoes	-0.080608
-3.345145	undergoing	-0.080608
-3.345145	understanding	-0.080608
-3.345145	unfavorable	-0.080608
-3.345145	unique	-0.080608
-3.030715	units	-0.080608
-3.252031	unknown	-0.080608
-3.252031	up	-0.080608
-3.252031	uracil	-0.080608
-3.345145	use	-0.080608
-3.030715	used	-0.145456
-3.345145	useful	-0.080608
-2.890392	using	-0.080608
-3.345145	usuall	-0.080608
-2.699444	usually	-0.115490
-3.030715	value	-0.134041
-3.345145	values	-0.080608
-3.252031	van	-0.194984
-3.345145	variable	-0.080608
-3.345145	varies	-0.080608
-3.345145	various	-0.080608
-3.345145	varying	-0.080608
-3.252031	velocity	-0.080608
-3.345145	versa	-0.080608
-3.345145	very	-0.080608
-3.030715	via	-0.080608
-3.345145	vice	-0.080608
-3.345145	vitro	-0.080608
-3.345145	vmax	-0.080608
-3.345145	waals	-0.080608
-2.384048	water	-0.091323
-3.345145	way	-0.080608
-3.345145	ways	-0.080608
-2.890392	weak	-0.080608
-3.252031	weaker	-0.080608
-3.252031	well	-0.080608
-3.252031	what	-0.194984
-3.345145	when	-0.080608
-3.345145	where	-0.080608
-3.345145	whereby	-0.080608
-2.466065	which	-0.137849
-3.252031	whose	-0.080608
-2.628344	why	-0.110332
-3.345145	will	-0.080608
-2.203272	with	-0.116176
-3.345145	within	-0.080608
-3.252031	without	-0.080608
-2.890392	x	-0.194984
-3.345145	yet	-0.080608
-3.030715	you	-0.080608
-3.345145	your	-0.080608

\2-grams:
-2.896683	<s> acetylation	-0.053678
-2.449235	<s> acid	-0.053678
-2.869096	<s> acidosis	-0.053678
-2.869096	<s> activation	-0.053678
-2.222997	<s> active	-0.092118
-2.896683	<s> acylation	-0.053678
-2.785603	<s> adenine	-0.053678
-2.869096	<s> affinity	-0.053678
-2.896683	<s> all	-0.053678
-2.896683	<s> alpha	-0.053678
-2.332614	<s> amino	-0.053678
-2.869096	<s> amphiphilic	-0.053678
-2.869096	<s> anion	-0.053678
-2.896683	<s> antibody	-0.053678
-2.896683	<s> aquaporin	-0.053678
-2.609155	<s> atoms	-0.053678
-2.785603	<s> atp	-0.053678
-2.484038	<s> base	-0.053678
-2.368597	<s> beng	-0.112693
-2.896683	<s> beta	-0.053678
-2.869096	<s> biomolecules	-0.053678
-2.368597	<s> buffer	-0.053678
-2.869096	<s> c	-0.053678
-2.869096	<s> carbohydrate	-0.053678
-2.869096	<s> carbohydrates	-0.053678
-2.896683	<s> catalyst	-0.053678
-2.869096	<s> cation	-0.053678
-2.609155	<s> cell	-0.053678
-2.332609	<s> chapter	-0.112693
-2.785603	<s> charged	-0.053678
-2.896683	<s> complementary	-0.053678
-2.417015	<s> concentration	-0.053678
-2.869096	<s> condensation	-0.053678
-2.360235	<s> conjugate	-0.053678
-2.484038	<s> covalent	-0.053678
-2.785603	<s> cytosine	-0.053678
-1.782938	<s> describe	-0.256059
-2.222997	<s> diffusion	-0.053678
-2.896683	<s> dimer	-0.053678
-2.869096	<s> dissociation	-0.053678
-2.785603	<s> disulfide	-0.053678
-2.609155	<s> do	-0.053678
-2.718503	<s> does	-0.053678
-2.896683	<s> electrochemical	-0.053678
-2.896683	<s> endothermic	-0.053678
-2.785603	<s> enthalpy	-0.053678
-2.718503	<s> entropy	-0.053678
-2.220551	<s> enzyme	-0.112693
-2.869096	<s> enzymes	-0.053678
-2.718503	<s> equilibrium	-0.053678
-2.896683	<s> exothermic	-0.053678
-2.869096	<s> explain	-0.053678
-2.869096	<s> facilitated	-0.053678
-2.896683	<s> flux	-0.053678
-2.609155	<s> free	-0.053678
-2.307769	<s> from	-0.053678
-2.869096	<s> fructose	-0.053678
-2.718503	<s> functional	-0.053678
-2.869096	<s> galactose	-0.053678
-2.869096	<s> gene	-0.053678
-2.718503	<s> genetic	-0.053678
-2.896683	<s> gibbs	-0.053678
-2.785603	<s> glucose	-0.053678
-2.896683	<s> glycocalyx	-0.053678
-2.896683	<s> glycolipid	-0.053678
-2.896683	<s> glycoprotein	-0.053678
-2.896683	<s> glycosylation	-0.053678
-2.785603	<s> guanine	-0.053678
-2.869096	<s> homeostasis	-0.053678
-2.718503	<s> how	-0.053678
-2.896683	<s> hybridization	-0.053678
-2.117674	<s> hydrogen	-0.053678
-2.718503	<s> hydrolysis	-0.053678
-2.718503	<s> hydrophilic	-0.053678
-2.203572	<s> hydrophobic	-0.092118
-2.869096	<s> hypertonic	-0.053678
-2.869096	<s> hypotonic	-0.053678
-2.360235	<s> if	-0.053678
-2.307765	<s> ion	-0.053678
-2.785603	<s> ionic	-0.053678
-2.869096	<s> isotonic	-0.053678
-2.360235	<s> key	-0.112693
-2.869096	<s> lactose	-0.053678
-2.869096	<s> ligand	-0.053678
-2.785603	<s> linear	-0.053678
-2.896683	<s> lineweaver	-0.053678
-2.896683	<s> lipids	-0.053678
-2.896683	<s> liposome	-0.053678
-2.785603	<s> macromolecule	-0.053678
-2.896683	<s> messenger	-0.053678
-2.332609	<s> michaelis	-0.053678
-2.869096	<s> molecular	-0.053678
-2.131559	<s> molecules	-0.053678
-2.869096	<s> monomer	-0.053678
-2.869096	<s> monosaccharide	-0.053678
-2.869096	<s> most	-0.053678
-2.718503	<s> n	-0.053678
-2.869096	<s> neutral	-0.053678
-2.869096	<s> nitrogenous	-0.053678
-2.869096	<s> non	-0.053678
-2.718503	<s> noncovalent	-0.053678
-2.660397	<s> nonpolar	-0.053678
-2.896683	<s> normal	-0.053678
-2.896683	<s> nuclear	-0.053678
-2.484038	<s> nucleic	-0.053678
-2.718503	<s> nucleotide	-0.053678
-2.785603	<s> osmosis	-0.053678
-2.785603	<s> osmotic	-0.053678
-2.718503	<s> passive	-0.053678
-2.896683	<s> pentose	-0.053678
-2.332609	<s> peptide	-0.053678
-2.609155	<s> ph	-0.053678
-2.785603	<s> phospholipid	-0.053678
-2.896683	<s> phosphorylation	-0.053678
-2.609155	<s> polar	-0.053678
-2.718503	<s> polymer	-0.053678
-2.869096	<s> polymerization	-0.053678
-2.521875	<s> polypeptide	-0.053678
-2.896683	<s> polysaccharide	-0.053678
-2.869096	<s> post	-0.053678
-2.360235	<s> protease	-0.053678
-2.387022	<s> protein	-0.053678
-2.059413	<s> proteins	-0.053678
-2.896683	<s> proteolysis	-0.053678
-2.869096	<s> proteome	-0.053678
-2.896683	<s> proteomics	-0.053678
-2.869096	<s> proton	-0.053678
-2.869096	<s> purine	-0.053678
-2.785603	<s> pyrimidine	-0.053678
-2.368597	<s> questions	-0.112693
-2.896683	<s> receptor	-0.053678
-2.563326	<s> sequence	-0.053678
-2.660397	<s> solute	-0.053678
-2.609155	<s> solution	-0.053678
-2.896683	<s> steady	-0.053678
-2.718503	<s> substrate	-0.053678
-2.896683	<s> sucrose	-0.053678
-2.368597	<s> summary	-0.112693
-1.417437	<s> the	-0.053678
-2.368597	<s> there	-0.112693
-2.609155	<s> this	-0.053678
-2.718503	<s> thymine	-0.053678
-2.896683	<s> transcription	-0.053678
-2.896683	<s> transition	-0.053678
-2.869096	<s> translation	-0.053678
-2.896683	<s> triglycerides	-0.053678
-2.896683	<s> turnover	-0.053678
-2.869096	<s> uracil	-0.053678
-2.718503	<s> using	-0.053678
-2.869096	<s> van	-0.053678
-2.869096	<s> what	-0.053678
-2.563326	<s> why	-0.053678
-2.718503	<s> x	-0.053678
-1.616547	a a	-0.053678
-1.816618	a and	-0.112693
-2.858760	a b	-0.053678
-2.517188	a base	-0.053678
-2.858760	a binding	-0.053678
-2.858760	a biochemical	-0.053678
-2.881757	a biochemistry	-0.053678
-2.677781	a biological	-0.053678
-2.517188	a bond	-0.053678
-2.881757	a branch	-0.053678
-2.881757	a byproduct	-0.053678
-2.858760	a carbohydrate	-0.053678
-2.305592	a carbon	-0.053678
-2.787754	a carboxyl	-0.053678
-2.631733	a cell	-0.053678
-2.729296	a chain	-0.053678
-2.400211	a change	-0.053678
-1.678229	a chemical	-0.568862
-2.858760	a chemistry	-0.053678
-2.881757	a chymotrypsin	-0.053678
-2.214587	a class	-0.092118
-2.881757	a classes	-0.053678
-2.881757	a coiled	-0.053678
-2.858760	a collection	-0.053678
-2.334375	a common	-0.053678
-2.787754	a complex	-0.053678
-1.735312	a compound	-0.135906
-2.327730	a condensation	-0.112693
-1.741157	a constituent	-0.256059
-2.517188	a covalent	-0.053678
-2.881757	a crystal	-0.053678
-2.881757	a database	-0.053678
-2.881757	a deserted	-0.053678
-2.787754	a difference	-0.053678
-2.327730	a disaccharide	-0.112693
-2.881757	a distinctive	-0.053678
-2.881757	a five	-0.053678
-2.213092	a form	-0.112693
-2.858760	a function	-0.053678
-2.729296	a genetic	-0.053678
-2.334375	a given	-0.053678
-2.881757	a glycerol	-0.053678
-2.334375	a hexose	-0.112693
-2.106360	a hydrogen	-0.200885
-2.729296	a hydrolysis	-0.053678
-2.073551	a is	-0.053678
-1.906351	a large	-0.053678
-2.787754	a linear	-0.053678
-2.858760	a lipid	-0.053678
-2.305592	a macromolecule	-0.053678
-1.917603	a measure	-0.325823
-2.590103	a membrane	-0.053678
-2.881757	a method	-0.053678
-2.045648	a molecule	-0.082184
-2.858760	a monomer	-0.053678
-2.631733	a negative	-0.053678
-2.631733	a net	-0.053678
-2.729296	a noncovalent	-0.112693
-2.881757	a nucleoside	-0.053678
-2.729296	a nucleotide	-0.053678
-2.631733	a ph	-0.053678
-2.729296	a phosphate	-0.053678
-2.881757	a planar	-0.053678
-2.631733	a polar	-0.112693
-1.898206	a polymer	-0.053678
-2.858760	a polymerization	-0.053678
-2.213092	a polypeptide	-0.159149
-2.327730	a positive	-0.053678
-2.787754	a positively	-0.053678
-2.858760	a protease	-0.053678
-1.414848	a protein	-0.063829
-2.209534	a proton	-0.325823
-2.858760	a purine	-0.053678
-2.787754	a pyrimidine	-0.053678
-2.176960	a rate	-0.053678
-1.673394	a reaction	-0.111206
-2.881757	a reason	-0.053678
-2.858760	a result	-0.053678
-2.881757	a right	-0.053678
-2.881757	a selective	-0.053678
-2.334375	a semipermeable	-0.200885
-2.230083	a sequence	-0.053678
-2.858760	a sheet	-0.053678
-2.305592	a simple	-0.053678
-2.881757	a simpler	-0.053678
-2.858760	a single	-0.053678
-2.552117	a small	-0.053678
-2.677781	a solute	-0.053678
-1.718985	a solution	-0.076331
-2.881757	a specialized	-0.053678
-2.787754	a specific	-0.053678
-2.327730	a stable	-0.053678
-2.881757	a storage	-0.053678
-2.881757	a stream	-0.053678
-2.787754	a strong	-0.053678
-2.285449	a substance	-0.112693
-2.677781	a sugar	-0.053678
-2.327730	a system	-0.053678
-2.881757	a template	-0.053678
-1.608190	a the	-0.053678
-2.327730	a transmembrane	-0.112693
-2.151086	a water	-0.053678
-2.729296	a weak	-0.053678
-0.766107	ab it	-0.053678
-0.731606	ability to	-0.053678
-0.769899	about post	-0.053678
-0.757221	above are	-0.053678
-0.769110	absorbs heat	-0.053678
-0.702220	accept a	-0.053678
-0.752846	accompanied by	-0.053678
-1.068169	acetyl derivative	-0.053678
-1.059263	acetyl groups	-0.053678
-0.700930	acetylation the	-0.053678
-0.764613	achieved its	-0.053678
-1.363060	acid </s>
-1.085932	acid a	-0.053678
-1.572626	acid and	-0.053678
-1.981002	acid ch	-0.053678
-2.009898	acid ha	-0.053678
-1.582014	acid in	-0.053678
-2.009898	acid monomeric	-0.053678
-1.371745	acid of	-0.053678
-1.701421	acid or	-0.053678
-2.006052	acid residues	-0.053678
-1.946716	acid sequence	-0.053678
-2.009898	acid sequences	-0.053678
-1.993060	acid species	-0.053678
-1.981002	acid subunits	-0.053678
-1.665469	acid that	-0.112693
-1.601423	acid to	-0.053678
-0.793385	acidic and	-0.053678
-1.461150	acidic basic	-0.053678
-1.441424	acidic groups	-0.053678
-1.465717	acidic nor	-0.053678
-0.744225	acidity or	-0.053678
-1.070200	acidosis excess	-0.053678
-1.019956	acidosis or	-0.053678
-1.075874	acids </s>
-1.168448	acids and	-0.082184
-1.851049	acids are	-0.053678
-1.802475	acids by	-0.053678
-1.935919	acids can	-0.053678
-2.032967	acids connected	-0.053678
-2.015724	acids during	-0.053678
-2.003385	acids each	-0.053678
-1.598454	acids in	-0.053678
-1.751920	acids is	-0.053678
-2.032967	acids joined	-0.053678
-2.032967	acids located	-0.053678
-2.003385	acids nucleotides	-0.053678
-2.029027	acids present	-0.053678
-2.032967	acids separated	-0.053678
-0.216066	across a	-0.143105
-1.057796	act as	-0.053678
-0.996444	act to	-0.053678
-0.691379	actions of	-0.053678
-0.439294	activation energy	-0.053678
-1.369848	active site	-0.053678
-0.614073	active transport	-0.053678
-0.689493	acts </s>
-0.764613	acyl groups	-0.053678
-0.700930	acylation the	-0.053678
-0.769899	ad living	-0.053678
-0.689493	added </s>
-0.411236	addition of	-0.110782
-1.111467	adenine </s>
-1.145939	adenine a	-0.053678
-1.220091	adenine and	-0.053678
-1.224368	adenine in	-0.053678
-0.770129	adenosine triphosphate	-0.053678
-1.051978	adjacent amino	-0.053678
-1.068169	adjacent regions	-0.053678
-0.744225	administration or	-0.053678
-0.768357	affects how	-0.053678
-0.943822	affinity a	-0.053678
-1.053425	affinity for	-0.053678
-1.062211	after it	-0.053678
-1.069742	after translation	-0.053678
-1.069742	against foreign	-0.053678
-1.065180	against their	-0.053678
-0.744225	aggregate or	-0.053678
-0.768357	aided transport	-0.053678
-0.757955	aligned with	-0.053678
-0.769110	alignment via	-0.053678
-0.689493	alkaline </s>
-0.691379	alkalinity of	-0.053678
-0.689493	alkalosis </s>
-0.700930	all the	-0.053678
-1.037764	allows molecules	-0.053678
-1.054877	allows water	-0.053678
-0.757955	along with	-0.053678
-0.770129	alpha helix	-0.053678
-0.766107	also be	-0.053678
-0.764613	amide groups	-0.053678
-0.532584	amino acid	-0.105098
-0.454045	amino acids	-0.063829
-1.364698	amino group	-0.053678
-0.943822	amphiphilic a	-0.053678
-1.037764	amphiphilic molecules	-0.053678
-2.262033	an ability	-0.053678
-2.255691	an acetyl	-0.053678
-2.114631	an acid	-0.053678
-2.255691	an affinity	-0.053678
-2.058543	an amino	-0.053678
-1.650938	an aqueous	-0.159149
-2.262033	an area	-0.053678
-2.255691	an assembly	-0.053678
-1.640531	an atom	-0.053678
-2.262033	an attempt	-0.053678
-2.262033	an electromagnetic	-0.053678
-2.255691	an electron	-0.053678
-2.255691	an electronegative	-0.053678
-1.652505	an energetically	-0.053678
-2.262033	an enzymatic	-0.053678
-1.209819	an enzyme	-0.053678
-2.255691	an equation	-0.053678
-1.650938	an external	-0.092118
-2.234534	an extracellular	-0.053678
-2.145648	an h	-0.053678
-2.196770	an important	-0.053678
-2.262033	an intimate	-0.053678
-2.262033	an oh	-0.053678
-2.234534	an organic	-0.053678
-2.215242	an substance	-0.053678
-2.255691	an unknown	-0.053678
-0.770129	analysis comparison	-0.053678
-0.700930	analyzing the	-0.053678
-1.427842	and a	-0.053678
-2.554611	and act	-0.053678
-2.511690	and active	-0.053678
-2.567912	and amide	-0.053678
-2.567912	and analyzing	-0.053678
-2.554611	and b	-0.053678
-2.324346	and base	-0.053678
-2.474305	and bases	-0.053678
-2.511690	and basic	-0.053678
-2.299698	and can	-0.053678
-2.511690	and carbon	-0.053678
-2.554611	and catalyzes	-0.053678
-2.567912	and catalyzing	-0.053678
-2.567912	and cellulose	-0.053678
-2.567912	and definitions	-0.112693
-2.567912	and disturbing	-0.053678
-2.511690	and electric	-0.053678
-2.474305	and entropy	-0.053678
-2.511690	and formation	-0.053678
-2.567912	and fruits	-0.053678
-2.554611	and galactose	-0.053678
-2.511690	and gives	-0.053678
-2.567912	and glycolipids	-0.053678
-2.511690	and guanine	-0.053678
-2.407994	and has	-0.053678
-1.956644	and how	-0.053678
-1.857152	and hybridizes	-0.092118
-2.474305	and hydrophilic	-0.053678
-2.554611	and key	-0.053678
-2.554611	and many	-0.053678
-2.511690	and may	-0.053678
-2.567912	and mediate	-0.053678
-2.511690	and michaelis	-0.053678
-2.051123	and molecules	-0.053678
-2.554611	and monosaccharides	-0.053678
-2.407994	and negative	-0.112693
-2.554611	and negatively	-0.053678
-2.439885	and nonpolar	-0.053678
-2.324346	and nucleic	-0.053678
-1.376307	and of	-0.053678
-2.324346	and one	-0.053678
-2.511690	and oxygen	-0.053678
-2.511690	and pairs	-0.053678
-2.474305	and phosphate	-0.053678
-2.233176	and proteins	-0.053678
-2.567912	and repulsive	-0.053678
-2.567912	and reverse	-0.053678
-2.439885	and rna	-0.092118
-2.350479	and small	-0.053678
-2.567912	and specifically	-0.053678
-2.567912	and steroids	-0.053678
-2.567912	and structural	-0.053678
-2.567912	and tagging	-0.053678
-1.160641	and the	-0.053678
-2.439885	and their	-0.053678
-2.567912	and therefore	-0.053678
-2.567912	and those	-0.053678
-2.474305	and thymine	-0.053678
-2.567912	and transferring	-0.053678
-2.554611	and trypsin	-0.053678
-2.554611	and van	-0.053678
-2.567912	and variable	-0.053678
-2.567912	and vice	-0.053678
-0.921860	anion </s>
-1.069742	anion negatively	-0.053678
-0.713810	another </s>
-1.542799	another electronegative	-0.053678
-1.496453	another molecule	-0.053678
-1.482097	another with	-0.053678
-0.728851	answer in	-0.053678
-0.702220	antibody a	-0.053678
-1.598675	any chemical	-0.053678
-1.658590	any large	-0.053678
-1.598675	any molecule	-0.053678
-1.641413	any net	-0.053678
-1.593617	any reaction	-0.053678
-1.666552	any relatively	-0.053678
-1.658590	any simple	-0.053678
-1.630328	any small	-0.053678
-0.731606	applied to	-0.053678
-0.728851	appropriate in	-0.053678
-0.682432	aq </s>
-0.725774	aq is	-0.053678
-0.702220	aquaporin a	-0.053678
-1.240065	aqueous environment	-0.092118
-1.245335	aqueous interior	-0.053678
-1.197646	aqueous molecules	-0.053678
-2.092481	are acidic	-0.053678
-2.129739	are added	-0.053678
-2.129739	are alkaline	-0.053678
-2.124738	are amphiphilic	-0.053678
-2.049151	are different	-0.053678
-2.092481	are found	-0.112693
-2.107941	are four	-0.053678
-2.129739	are held	-0.053678
-2.077552	are important	-0.053678
-2.129739	are insoluble	-0.053678
-2.107941	are much	-0.053678
-2.124738	are often	-0.053678
-2.077552	are on	-0.053678
-2.129739	are otherwise	-0.053678
-2.063120	are polar	-0.053678
-1.514449	are polymers	-0.112693
-2.035618	are polypeptide	-0.053678
-1.162304	are the	-0.092118
-2.107941	are used	-0.053678
-2.063120	are usually	-0.053678
-2.092481	are weak	-0.053678
-0.691379	area of	-0.053678
-0.766856	around atoms	-0.053678
-0.691379	arrangement of	-0.053678
-1.121817	as a	-0.053678
-1.863881	as dna	-0.053678
-1.872763	as enzyme	-0.053678
-1.863881	as hydrogen	-0.053678
-1.560223	as in	-0.053678
-1.933850	as maintaining	-0.053678
-1.920118	as may	-0.053678
-1.863881	as nucleic	-0.053678
-1.920118	as oxygen	-0.053678
-1.118644	as the	-0.053678
-1.578061	as to	-0.053678
-1.930722	as trypsin	-0.053678
-1.930722	as well	-0.053678
-0.763125	assembling into	-0.053678
-1.036368	assembly by	-0.053678
-0.925084	assembly of	-0.053678
-0.767606	association constant	-0.053678
-0.764613	assumes its	-0.053678
-1.070200	asymmetric distribution	-0.112693
-1.069742	asymmetric electron	-0.053678
-1.200730	at a	-0.053678
-1.421355	at chemical	-0.053678
-1.445701	at different	-0.053678
-1.465276	at half	-0.053678
-1.435099	at which	-0.053678
-1.408174	atom and	-0.053678
-1.666552	atom bound	-0.053678
-1.658590	atom commonly	-0.053678
-1.664747	atom covalently	-0.053678
-1.515578	atom is	-0.053678
-1.495061	atom or	-0.053678
-1.664747	atom particularly	-0.053678
-1.664747	atom without	-0.053678
-1.510688	atoms can	-0.053678
-1.543947	atoms dipoles	-0.053678
-0.864743	atoms in	-0.053678
-1.399650	atoms that	-0.053678
-1.543947	atoms within	-0.053678
-1.111467	atp </s>
-1.369319	atp adenosine	-0.053678
-1.286648	atp is	-0.053678
-1.274421	atp or	-0.053678
-0.731606	attempt to	-0.053678
-0.769899	attraction due	-0.053678
-0.727480	attractive and	-0.053678
-0.728851	available in	-0.053678
-1.245335	b ab	-0.053678
-1.244650	b d	-0.053678
-1.064661	b the	-0.053678
-0.943822	backbone a	-0.053678
-1.063693	backbone atoms	-0.053678
-0.752846	balanced by	-0.053678
-0.731606	barrier to	-0.053678
-1.005434	base a	-0.053678
-1.659013	base are	-0.053678
-1.746906	base ch	-0.053678
-1.753450	base nitrogen	-0.053678
-0.985859	base of	-0.053678
-1.753450	base pairs	-0.053678
-1.753450	base species	-0.053678
-1.547365	base that	-0.053678
-1.359380	bases called	-0.053678
-1.353554	bases it	-0.053678
-1.369319	bases match	-0.053678
-1.116466	bases of	-0.053678
-1.038676	basic </s>
-1.245335	basic affects	-0.053678
-1.235632	basic ph	-0.053678
-1.903956	be applied	-0.053678
-1.903956	be broken	-0.053678
-1.890293	be composed	-0.053678
-1.900844	be determined	-0.053678
-1.825650	be formed	-0.053678
-1.880448	be found	-0.053678
-1.903956	be helpful	-0.053678
-1.852185	be linked	-0.053678
-1.880448	be more	-0.053678
-1.890293	be much	-0.053678
-1.903956	be permeable	-0.053678
-1.903956	be placed	-0.053678
-1.900844	be processed	-0.053678
-1.903956	be transported	-0.053678
-0.691379	because of	-0.053678
-0.769899	becomes covalently	-0.053678
-0.728851	behaves in	-0.053678
-0.731606	belongs to	-0.112693
-0.766856	below this	-0.053678
-0.770129	beng frontiers	-0.112693
-0.769899	beta sheet	-0.053678
-1.110625	between a	-0.092118
-1.902653	between adjacent	-0.053678
-1.804959	between amino	-0.112693
-1.776841	between an	-0.053678
-1.893236	between carboxyl	-0.053678
-1.122595	between molecules	-0.092118
-1.884427	between passive	-0.053678
-1.019630	between the	-0.053678
-1.819732	between two	-0.053678
-0.739978	beyond that	-0.053678
-0.770129	bicarbonate buffering	-0.053678
-1.111467	bilayer </s>
-1.369319	bilayer along	-0.053678
-1.353554	bilayer membrane	-0.053678
-1.339323	bilayer structure	-0.053678
-0.731606	bind to	-0.053678
-1.057796	binding between	-0.112693
-1.050535	binding reaction	-0.053678
-1.245335	binds substrates	-0.053678
-1.245335	binds tightly	-0.053678
-1.139130	binds to	-0.053678
-1.069742	biochemical concepts	-0.053678
-1.050535	biochemical reaction	-0.053678
-0.770129	biochemistry textbook	-0.053678
-0.837687	biological macromolecule	-0.112693
-0.822850	biological molecules	-0.053678
-1.459035	biological substance	-0.053678
-0.770129	biology concerned	-0.053678
-0.770129	biomedical engineering	-0.112693
-1.069742	biomolecules contain	-0.053678
-1.062211	biomolecules together	-0.053678
-0.691379	block of	-0.053678
-0.770129	blood help	-0.053678
-1.245335	body fluids	-0.053678
-1.245335	body maintains	-0.053678
-1.245335	body take	-0.053678
-1.059738	bond a	-0.112693
-1.790682	bond any	-0.053678
-1.776311	bond between	-0.053678
-1.783437	bond covalent	-0.053678
-1.839747	bond energies	-0.053678
-1.805544	bond has	-0.053678
-1.643402	bond is	-0.053678
-1.820933	bond s	-0.053678
-1.837268	bond stable	-0.053678
-1.143300	bond that	-0.053678
-0.996444	bonded to	-0.053678
-1.062211	bonded together	-0.053678
-1.348131	bonding between	-0.092118
-0.723286	bonding is	-0.053678
-1.284767	bonding or	-0.053678
-0.992746	bonds </s>
-1.542231	bonds and	-0.053678
-1.764551	bonds are	-0.053678
-1.265145	bonds between	-0.053678
-1.831694	bonds can	-0.053678
-1.839838	bonds dna	-0.053678
-1.550597	bonds in	-0.053678
-1.902013	bonds often	-0.053678
-1.831694	bonds such	-0.053678
-1.856599	bonds why	-0.053678
-1.771519	bonds with	-0.053678
-0.731606	book to	-0.053678
-1.066672	both hydrophobic	-0.053678
-1.070200	both sides	-0.053678
-0.731606	bound to	-0.053678
-0.691379	branch of	-0.053678
-0.770129	breathing disturb	-0.053678
-0.770129	broad categories	-0.053678
-0.769899	broken down	-0.053678
-0.943822	buffer a	-0.053678
-1.069742	buffer systems	-0.053678
-0.769899	buffering system	-0.053678
-0.770129	building block	-0.053678
-0.770129	burke plot	-0.053678
-0.768357	but not	-0.053678
-1.300766	by a	-0.053678
-2.051545	by change	-0.053678
-2.229826	by coupling	-0.053678
-2.108007	by covalent	-0.053678
-2.209423	by four	-0.053678
-1.473753	by hydrogen	-0.159149
-2.235934	by hydrolyzing	-0.053678
-2.235934	by inhibiting	-0.053678
-2.229826	by living	-0.053678
-2.235934	by lowering	-0.053678
-2.235934	by mass	-0.053678
-2.209423	by multiple	-0.053678
-2.235934	by neutralizing	-0.053678
-2.108007	by nucleic	-0.053678
-2.235934	by passing	-0.053678
-2.190790	by passive	-0.053678
-2.209423	by peptide	-0.053678
-2.235934	by phosphorous	-0.053678
-2.235934	by reducing	-0.053678
-2.235934	by requiring	-0.053678
-2.229826	by sharing	-0.053678
-2.235934	by taking	-0.053678
-1.042141	by the	-0.072473
-2.064988	by two	-0.053678
-2.093189	by which	-0.053678
-0.766856	byproduct usually	-0.053678
-0.439565	c h	-0.112693
-1.465276	called ligands	-0.053678
-1.460251	called monomers	-0.053678
-1.460251	called osmosis	-0.053678
-1.464140	called purines	-0.053678
-1.460251	called pyrimidine	-0.053678
-1.842222	can accept	-0.053678
-1.842222	can also	-0.053678
-0.478694	can be	-0.053678
-1.840320	can cross	-0.053678
-1.842222	can donate	-0.053678
-1.804104	can form	-0.053678
-1.842222	can generate	-0.053678
-0.691379	capabilities of	-0.053678
-0.727480	capturing and	-0.053678
-0.943822	carbohydrate a	-0.053678
-1.070200	carbohydrate coat	-0.053678
-0.921860	carbohydrates </s>
-1.059263	carbohydrates nucleic	-0.053678
-1.362322	carbon atom	-0.053678
-1.369319	carbon dioxide	-0.053678
-1.362322	carbon fatty	-0.053678
-1.359380	carbon sugar	-0.053678
-0.710841	carboxyl and	-0.053678
-0.739614	carboxyl group	-0.053678
-0.752846	carried by	-0.053678
-0.702220	carries a	-0.053678
-0.702220	cat a	-0.053678
-0.702220	catalyst a	-0.053678
-0.760902	catalyze chemical	-0.053678
-0.761642	catalyzed change	-0.053678
-0.943822	catalyzes a	-0.053678
-1.046236	catalyzes an	-0.053678
-0.760902	catalyzing chemical	-0.053678
-0.766856	categories polar	-0.053678
-0.988882	cation and	-0.053678
-1.068169	cation positively	-0.053678
-0.762383	cause water	-0.112693
-0.770129	causes no	-0.053678
-1.009522	cell </s>
-1.497751	cell and	-0.053678
-1.802899	cell communication	-0.053678
-1.620735	cell is	-0.053678
-1.170336	cell membrane	-0.053678
-1.802899	cell membranes	-0.053678
-1.731856	cell structure	-0.053678
-1.800638	cell surface	-0.053678
-1.569905	cell that	-0.053678
-0.513980	cells </s>
-0.984315	cells due	-0.112693
-1.602743	cells hydrolysis	-0.053678
-0.727480	cellulose and	-0.053678
-0.760902	certain amino	-0.053678
-0.838659	ch coo	-0.112693
-0.838659	ch cooh	-0.112693
-1.462051	ch o	-0.053678
-0.767839	chain </s>
-1.292408	chain a	-0.053678
-1.571625	chain formed	-0.112693
-1.567246	chain into	-0.053678
-1.287804	chain the	-0.053678
-1.198964	chains </s>
-1.241519	chains a	-0.053678
-1.425195	chains is	-0.053678
-1.520170	chains linked	-0.053678
-1.408460	chains or	-0.053678
-1.524437	chains usually	-0.053678
-1.083371	change </s>
-1.572346	change and	-0.053678
-1.858501	change g	-0.053678
-1.830968	change h	-0.053678
-0.616771	change in	-0.076331
-1.875536	change over	-0.053678
-1.858501	change s	-0.053678
-1.594987	change to	-0.053678
-0.943822	channel a	-0.053678
-1.054877	channel protein	-0.053678
-0.567430	chapter </s>
-1.245777	chapter reviewed	-0.053678
-0.768357	characteristic properties	-0.053678
-1.057796	charge as	-0.053678
-1.019956	charge or	-0.112693
-0.614073	charged ion	-0.082184
-1.369848	charged subatomic	-0.053678
-1.065180	charges nonpolar	-0.053678
-1.063693	charges polar	-0.053678
-1.839838	chemical bond	-0.053678
-1.808141	chemical change	-0.053678
-1.823700	chemical concentration	-0.053678
-1.904906	chemical electronic	-0.053678
-1.883019	chemical equilibrium	-0.053678
-1.904906	chemical force	-0.053678
-1.267339	chemical groups	-0.053678
-1.892195	chemical process	-0.053678
-1.883019	chemical properties	-0.053678
-1.793120	chemical reaction	-0.069738
-1.157611	chemical reactions	-0.053678
-1.057796	chemistry as	-0.053678
-1.070200	chemistry book	-0.053678
-0.770129	chymotrypsin hemoglobin	-0.053678
-0.689493	cl </s>
-1.065180	class called	-0.053678
-0.925084	class of	-0.112693
-0.691379	classes of	-0.053678
-0.988882	cleavage and	-0.053678
-0.925084	cleavage of	-0.053678
-0.757955	cleaved with	-0.053678
-1.070200	cluster so	-0.053678
-1.062211	cluster together	-0.053678
-1.066672	co equilibrium	-0.053678
-1.070200	co pass	-0.053678
-0.770129	coat covering	-0.053678
-0.767606	coiled secondary	-0.053678
-0.411236	collection of	-0.053678
-1.065180	common secondary	-0.053678
-1.070200	common way	-0.053678
-0.609435	commonly are	-0.112693
-1.243206	commonly oxygen	-0.053678
-0.770129	communication protecting	-0.053678
-0.731606	compared to	-0.053678
-0.691379	comparison of	-0.053678
-0.766107	complementary sequence	-0.053678
-0.770129	complete set	-0.053678
-1.111467	complex </s>
-1.362322	complex ion	-0.053678
-1.339323	complex two	-0.053678
-1.322839	complex with	-0.053678
-0.991388	components in	-0.053678
-0.925084	components of	-0.053678
-0.454906	composed of	-0.053678
-1.200730	compound a	-0.053678
-1.435099	compound formed	-0.053678
-1.438604	compound its	-0.053678
-1.332917	compound that	-0.053678
-1.449293	compound usually	-0.053678
-1.204763	compounds </s>
-0.836252	compounds containing	-0.053678
-0.809849	compounds that	-0.053678
-0.689493	concentrated </s>
-1.332083	concentration </s>
-1.520560	concentration and	-0.053678
-1.843551	concentration at	-0.053678
-1.802732	concentration between	-0.053678
-1.870447	concentration disaccharide	-0.053678
-1.125019	concentration gradient	-0.053678
-1.528775	concentration in	-0.053678
-1.658248	concentration is	-0.053678
-1.340065	concentration of	-0.053678
-1.382335	concentration the	-0.053678
-1.545686	concentration to	-0.112693
-0.689493	concentrations </s>
-0.988882	concepts and	-0.112693
-1.011976	concepts that	-0.053678
-0.757955	concerned with	-0.053678
-0.770129	concerning physical	-0.053678
-1.050535	condensation reaction	-0.053678
-0.941575	condensation the	-0.053678
-0.739978	condition that	-0.053678
-0.766107	confer different	-0.053678
-0.752846	conferred by	-0.053678
-0.925084	conformation of	-0.053678
-0.941575	conformation the	-0.053678
-0.737456	conjugate acid	-0.053678
-0.737994	conjugate base	-0.053678
-0.752846	connected by	-0.053678
-0.214317	consisting of	-0.163433
-1.608323	constant for	-0.053678
-0.913198	constant k	-0.053678
-1.667076	constant km	-0.053678
-1.665395	constant ratio	-0.053678
-1.483029	constant that	-0.053678
-1.311444	constant the	-0.053678
-0.761642	constants for	-0.053678
-1.229066	constituent base	-0.053678
-1.240065	constituent bases	-0.053678
-1.042900	constituent of	-0.159149
-0.757955	contact with	-0.053678
-1.053425	contain proteins	-0.053678
-1.070200	contain various	-0.053678
-0.991388	contained in	-0.053678
-1.070200	contained represented	-0.053678
-1.670257	containing base	-0.053678
-1.676298	containing bonds	-0.053678
-1.714735	containing carbohydrates	-0.053678
-1.716760	containing fewer	-0.053678
-1.670257	containing hydrogen	-0.053678
-1.707833	containing nitrogen	-0.053678
-1.670257	containing one	-0.053678
-1.701340	containing phosphate	-0.053678
-1.652621	containing two	-0.053678
-0.770129	continually balanced	-0.053678
-0.731606	contributes to	-0.053678
-0.769899	coo aq	-0.053678
-0.769899	cooh aq	-0.053678
-0.763125	copied into	-0.053678
-0.427009	coupled to	-0.053678
-0.925084	coupling of	-0.053678
-1.062211	coupling together	-0.053678
-0.691379	course of	-0.053678
-1.004753	covalent bond	-0.053678
-0.701849	covalent bonds	-0.053678
-1.755710	covalent disulfide	-0.053678
-1.749985	covalent interactions	-0.053678
-1.763565	covalent linkage	-0.053678
-1.069742	covalently bonded	-0.053678
-1.069742	covalently coupled	-0.053678
-0.700930	covering the	-0.053678
-0.752846	created by	-0.053678
-0.731606	critical to	-0.053678
-0.415062	cross the	-0.053678
-0.691379	crystal of	-0.053678
-0.921860	crystallography </s>
-1.069742	crystallography technique	-0.053678
-0.760902	cysteine amino	-0.053678
-0.761642	cysteines for	-0.053678
-0.441289	cystic fibrosis	-0.053678
-0.691379	cytoplasm of	-0.053678
-1.067647	cytosine a	-0.053678
-1.128661	cytosine and	-0.053678
-1.132123	cytosine in	-0.053678
-0.921860	d </s>
-0.941575	d the	-0.053678
-0.691379	database of	-0.053678
-0.691379	decomposition of	-0.053678
-0.769110	decrease during	-0.053678
-0.770129	deep breathing	-0.053678
-0.991388	defect in	-0.053678
-1.070200	defect manifest	-0.053678
-0.763869	defined as	-0.053678
-0.689493	definitions </s>
-0.691379	degradation of	-0.053678
-0.761642	degrades proteins	-0.053678
-0.925084	degree of	-0.053678
-0.996444	degree to	-0.053678
-0.700930	delivery the	-0.053678
-0.767606	depending on	-0.053678
-0.770129	der waals	-0.053678
-1.065123	derivative </s>
-0.591296	derivative and	-0.053678
-1.066672	describe some	-0.053678
-0.941575	describe the	-0.053678
-0.700930	describes the	-0.053678
-0.765360	describing enzyme	-0.053678
-0.770129	deserted island	-0.053678
-0.689493	destruction </s>
-0.702220	detect a	-0.053678
-0.415062	determine the	-0.053678
-1.069742	determined experimentally	-0.053678
-1.057796	determined which	-0.053678
-0.415062	determining the	-0.053678
-0.760163	developed from	-0.053678
-0.689493	diabetes </s>
-1.348762	difference between	-0.053678
-0.589793	difference in	-0.053678
-1.553547	different amino	-0.053678
-1.609945	different concentrations	-0.053678
-1.609945	different parts	-0.053678
-1.580032	different polypeptide	-0.053678
-1.598631	different properties	-0.053678
-0.982677	different regions	-0.112693
-0.769899	diffraction pattern	-0.112693
-1.227582	diffusion </s>
-1.609506	diffusion depending	-0.053678
-1.474520	diffusion is	-0.053678
-1.587384	diffusion net	-0.053678
-1.234126	diffusion of	-0.053678
-1.558615	diffusion protein	-0.053678
-1.268410	diffusion the	-0.053678
-1.222597	dimensional protein	-0.053678
-1.244650	dimensional shape	-0.053678
-1.222597	dimensional structure	-0.112693
-0.702220	dimer a	-0.053678
-0.769899	dioxide co	-0.053678
-0.689493	dipoles </s>
-1.065180	direction across	-0.053678
-1.026719	direction is	-0.053678
-0.943822	disaccharide a	-0.053678
-1.069742	disaccharide made	-0.053678
-0.770129	discrete spots	-0.053678
-1.038676	disease </s>
-1.172141	disease or	-0.053678
-1.244650	disease what	-0.053678
-0.921860	disorder </s>
-1.019956	disorder or	-0.053678
-0.615654	dissociation constant	-0.053678
-1.068917	dissociation of	-0.053678
-1.070200	dissolve easily	-0.053678
-0.991388	dissolve in	-0.053678
-0.731606	dissolved to	-0.053678
-0.769899	distinctive side	-0.053678
-0.691379	distribution of	-0.112693
-0.770129	distributions around	-0.053678
-0.700930	disturb the	-0.053678
-0.747796	disturbance is	-0.053678
-0.766856	disturbing this	-0.053678
-1.229066	disulfide bond	-0.053678
-1.244650	disulfide bonding	-0.053678
-1.231243	disulfide bonds	-0.053678
-0.769899	diverse functions	-0.053678
-0.983836	dna </s>
-0.947015	dna and	-0.200885
-1.710169	dna as	-0.053678
-1.762535	dna assembling	-0.053678
-1.488359	dna in	-0.053678
-1.704301	dna into	-0.053678
-1.747144	dna nucleotides	-0.053678
-0.915513	do not	-0.092118
-1.544387	do scientists	-0.053678
-1.535552	do some	-0.053678
-0.916406	do you	-0.112693
-1.456567	does entropy	-0.053678
-1.465276	does hyperventilation	-0.053678
-1.445701	does it	-0.053678
-1.456567	does not	-0.053678
-1.332917	does that	-0.053678
-0.739978	domain that	-0.053678
-0.757221	domains are	-0.053678
-0.702220	donate a	-0.053678
-0.770129	double stranded	-0.200885
-0.764613	doublestranded dna	-0.053678
-1.059263	down its	-0.053678
-0.996444	down to	-0.053678
-0.700930	drink the	-0.053678
-0.769899	drugs might	-0.053678
-0.770129	dry eyes	-0.053678
-0.427009	due to	-0.092118
-1.067647	during a	-0.053678
-1.222597	during protein	-0.053678
-1.064661	during the	-0.053678
-0.768357	e g	-0.053678
-1.116466	each of	-0.053678
-1.356457	each other	-0.053678
-1.369319	each second	-0.053678
-1.322839	each with	-0.053678
-0.728851	easily in	-0.053678
-1.128661	effect and	-0.053678
-1.242299	effect tendency	-0.053678
-1.064661	effect the	-0.053678
-0.617156	electric charge	-0.092118
-1.245197	electric potential	-0.053678
-0.769899	electrochemical gradient	-0.053678
-0.769899	electromagnetic field	-0.053678
-1.070200	electron distributions	-0.053678
-1.060735	electron h	-0.053678
-0.440650	electronegative atom	-0.053678
-0.727480	electronic and	-0.053678
-1.242299	electrons multiple	-0.053678
-1.245335	electrons respectively	-0.053678
-1.226899	electrons such	-0.053678
-0.770129	endoplasmic reticulum	-0.053678
-0.766107	endothermic referring	-0.053678
-1.070200	energetically favorable	-0.053678
-1.070200	energetically unfavorable	-0.053678
-0.689493	energies </s>
-1.092235	energy </s>
-1.900841	energy across	-0.053678
-1.792051	energy an	-0.053678
-1.830737	energy change	-0.112693
-1.910456	energy g	-0.053678
-1.561896	energy in	-0.053678
-1.930827	energy input	-0.053678
-1.015859	energy of	-0.082184
-1.933936	energy phosphoanhydride	-0.053678
-1.933936	energy required	-0.053678
-1.930827	energy source	-0.053678
-1.409179	energy the	-0.053678
-0.770129	engineering professor	-0.112693
-0.427009	enough to	-0.112693
-1.111467	enthalpy </s>
-1.336532	enthalpy change	-0.053678
-1.350670	enthalpy h	-0.053678
-1.116466	enthalpy of	-0.053678
-1.336532	entropy change	-0.053678
-1.368408	entropy increase	-0.053678
-1.362322	entropy s	-0.053678
-1.142366	entropy the	-0.053678
-0.753364	environment </s>
-1.392821	environment by	-0.053678
-1.435042	environment into	-0.053678
-1.215887	environment the	-0.053678
-0.760163	enzymatic reaction	-0.053678
-1.375685	enzyme a	-0.053678
-1.839313	enzyme acts	-0.053678
-1.839313	enzyme catalyzed	-0.053678
-1.836733	enzyme increases	-0.053678
-1.839313	enzyme inhibitors	-0.053678
-1.839313	enzyme mechanism	-0.053678
-1.745158	enzyme molecule	-0.053678
-1.738358	enzyme reaction	-0.053678
-1.212445	enzyme substrate	-0.053678
-1.773476	enzyme such	-0.053678
-1.581505	enzyme that	-0.053678
-0.921860	enzymes </s>
-1.070200	enzymes catalyze	-0.053678
-0.427009	equal to	-0.092118
-0.700930	equals the	-0.053678
-1.038676	equation </s>
-1.181774	equation is	-0.053678
-1.160856	equation that	-0.053678
-0.739778	equilibrium constant	-0.053678
-1.363562	equilibrium does	-0.053678
-1.163602	equilibrium the	-0.053678
-0.427009	equivalent to	-0.112693
-0.768357	especially found	-0.053678
-0.767606	eukaryotic cells	-0.053678
-0.770129	examples include	-0.053678
-0.691379	excess of	-0.053678
-0.766107	exothermic referring	-0.053678
-1.069742	experimentally determine	-0.053678
-1.066672	experimentally using	-0.053678
-0.941575	explain the	-0.053678
-1.070200	explain your	-0.053678
-1.240065	external environment	-0.053678
-1.242299	external magnetic	-0.053678
-1.235632	external solution	-0.112693
-1.245335	extracellular domain	-0.053678
-1.240065	extracellular environment	-0.053678
-1.220462	extracellular proteins	-0.053678
-0.766856	eyes do	-0.053678
-0.440922	facilitated diffusion	-0.053678
-0.766856	facilitating cell	-0.053678
-0.767606	fat consisting	-0.053678
-1.348762	fatty acid	-0.053678
-0.614073	fatty acids	-0.053678
-0.762383	favorable protein	-0.053678
-0.770129	feedback mechanisms	-0.053678
-0.766856	fewer than	-0.053678
-1.026719	fibrosis is	-0.053678
-1.070200	fibrosis patients	-0.053678
-0.988882	field and	-0.053678
-0.941575	field the	-0.053678
-0.770129	fight infection	-0.053678
-0.769899	final folding	-0.053678
-1.063693	find information	-0.053678
-1.054877	find water	-0.053678
-0.768357	fit model	-0.053678
-0.769110	five carbon	-0.053678
-0.691379	flow of	-0.053678
-0.770129	fluid particles	-0.053678
-1.057796	fluids as	-0.053678
-1.062211	fluids why	-0.053678
-0.700930	flux the	-0.053678
-0.770129	fold properly	-0.053678
-1.066672	folded chain	-0.053678
-1.056334	folded into	-0.053678
-1.244650	folding pattern	-0.053678
-1.242299	folding process	-0.053678
-1.216224	folding reaction	-0.053678
-0.761642	following proteins	-0.053678
-0.770129	foods ad	-0.053678
-1.016779	for a	-0.053678
-1.904906	for capturing	-0.053678
-1.904906	for destruction	-0.053678
-1.902013	for determining	-0.053678
-1.892195	for extracellular	-0.053678
-1.904906	for intravenous	-0.053678
-1.904906	for lubrication	-0.053678
-1.808141	for proteins	-0.053678
-1.883019	for some	-0.053678
-1.101197	for the	-0.053678
-1.815851	for water	-0.053678
-0.739978	force that	-0.053678
-0.769899	forces hold	-0.053678
-1.059263	foreign dna	-0.053678
-1.070200	foreign invaders	-0.053678
-1.365656	form a	-0.053678
-1.716117	form covalent	-0.053678
-1.127095	form hydrogen	-0.112693
-1.753624	form ionic	-0.053678
-1.716117	form nucleic	-0.053678
-0.894294	form of	-0.053678
-1.716117	form one	-0.053678
-1.191389	formation is	-0.053678
-0.568633	formation of	-0.053678
-1.130524	formed between	-0.112693
-0.396584	formed by	-0.118964
-1.709482	formed from	-0.053678
-1.563982	formed in	-0.053678
-0.702220	forming a	-0.053678
-0.991388	forms in	-0.053678
-1.070200	forms transiently	-0.053678
-1.069742	formula c	-0.053678
-1.066672	formula ch	-0.053678
-0.727480	forward and	-0.053678
-0.298574	found in	-0.076331
-1.244650	four constituent	-0.053678
-1.244650	four levels	-0.053678
-1.244650	four residues	-0.053678
-0.178786	free energy	-0.092118
-0.805589	from a	-0.053678
-1.801482	from an	-0.053678
-1.931977	from aqueous	-0.053678
-1.934870	from contact	-0.053678
-1.912982	from high	-0.053678
-1.869801	from its	-0.053678
-1.931977	from phospholipids	-0.053678
-1.903996	from rna	-0.053678
-1.431821	from the	-0.053678
-1.845814	from two	-0.053678
-1.290752	from water	-0.112693
-0.691379	frontiers of	-0.112693
-0.943822	fructose a	-0.053678
-1.051978	fructose molecule	-0.053678
-0.689493	fruits </s>
-0.411236	function of	-0.053678
-1.465717	functional capabilities	-0.053678
-1.465717	functional final	-0.053678
-0.832699	functional groups	-0.053678
-1.464685	functional shape	-0.053678
-1.036368	functions by	-0.053678
-1.057796	functions such	-0.053678
-0.769899	fused heterocyclic	-0.053678
-1.241519	g a	-0.053678
-1.543507	g cl	-0.053678
-1.543507	g indicates	-0.053678
-1.543507	g na	-0.053678
-1.205087	g of	-0.053678
-1.237071	g the	-0.053678
-0.764613	gained one	-0.053678
-0.943822	galactose a	-0.053678
-1.068169	galactose units	-0.053678
-0.921860	gene </s>
-1.070200	gene delivery	-0.053678
-0.757221	generally are	-0.053678
-0.769110	generate osmotic	-0.053678
-1.366367	genetic disease	-0.053678
-0.613166	genetic information	-0.053678
-0.766856	gibbs free	-0.053678
-0.943822	give a	-0.053678
-1.046236	give an	-0.053678
-1.050535	given reaction	-0.053678
-1.069742	given surface	-0.053678
-1.235632	gives information	-0.053678
-1.245335	gives off	-0.053678
-1.245335	gives rise	-0.053678
-1.067647	glucose a	-0.053678
-1.128661	glucose and	-0.053678
-1.218338	glucose molecule	-0.053678
-0.760902	glycerol molecule	-0.053678
-0.770129	glycine residue	-0.053678
-0.702220	glycocalyx a	-0.053678
-0.702220	glycolipid a	-0.053678
-0.689493	glycolipids </s>
-0.702220	glycoprotein a	-0.053678
-0.700930	glycosylation the	-0.053678
-1.145939	gradient a	-0.053678
-1.359380	gradient at	-0.053678
-1.304367	gradient by	-0.053678
-1.365285	gradient difference	-0.053678
-0.747796	graph is	-0.053678
-0.768357	graphical model	-0.053678
-1.360952	greater solute	-0.053678
-0.739156	greater than	-0.053678
-1.163602	greater the	-0.053678
-1.350400	group a	-0.053678
-1.595759	group an	-0.053678
-1.668024	group becomes	-0.053678
-1.652203	group containing	-0.053678
-0.562845	group of	-0.053678
-1.733375	groups are	-0.053678
-1.130701	groups in	-0.053678
-1.805013	groups linked	-0.053678
-1.818192	groups on	-0.053678
-1.831784	groups specific	-0.053678
-1.153260	groups that	-0.053678
-0.752332	groups to	-0.082184
-1.038676	guanine </s>
-1.067647	guanine a	-0.053678
-1.242299	guanine commonly	-0.053678
-1.003027	h </s>
-1.487579	h and	-0.053678
-1.800101	h co	-0.053678
-1.709206	h from	-0.053678
-1.792064	h heat	-0.053678
-1.802463	h neutrality	-0.053678
-1.792064	h o	-0.112693
-1.317936	h of	-0.053678
-1.358032	h the	-0.053678
-1.510833	h to	-0.053678
-0.727480	ha and	-0.053678
-0.691379	half of	-0.053678
-0.770129	handed spiral	-0.053678
-1.313365	has a	-0.053678
-1.583773	has an	-0.053678
-1.665288	has both	-0.053678
-1.653999	has not	-0.053678
-1.666990	has quartenary	-0.053678
-1.665288	has strength	-0.053678
-0.926614	has the	-0.053678
-0.767606	hating compounds	-0.053678
-1.046236	have an	-0.053678
-1.070200	have diverse	-0.053678
-0.770129	having lost	-0.053678
-0.765360	hco h	-0.053678
-0.766856	head group	-0.112693
-1.148139	heat in	-0.053678
-0.613423	heat such	-0.112693
-0.766107	held together	-0.053678
-0.702220	helix a	-0.053678
-0.731606	help to	-0.053678
-0.731606	helpful to	-0.053678
-0.770129	helps fight	-0.053678
-0.770129	hemoglobin insulin	-0.053678
-0.766856	hereditary information	-0.053678
-1.070200	heterocyclic ring	-0.053678
-1.070200	heterocyclic rings	-0.053678
-0.767606	hexose sugar	-0.053678
-0.736059	high concentration	-0.112693
-1.350665	high energy	-0.053678
-1.368954	high enough	-0.053678
-0.700930	higher the	-0.092118
-0.766856	highest free	-0.053678
-0.769110	highly specific	-0.053678
-0.943822	hold a	-0.053678
-1.069742	hold biomolecules	-0.053678
-0.700930	holds the	-0.053678
-0.941575	homeostasis the	-0.053678
-1.063693	homeostasis through	-0.053678
-0.770129	homology analysis	-0.053678
-0.727480	honey and	-0.053678
-1.453065	how do	-0.053678
-0.836969	how does	-0.053678
-0.834821	how it	-0.053678
-0.700930	hybridization the	-0.053678
-0.770129	hybridize mirror	-0.053678
-1.241313	hybridizes thymine	-0.053678
-0.609876	hybridizes with	-0.092118
-0.769899	hydrocarbon chains	-0.053678
-1.597435	hydrogen and	-0.053678
-1.861325	hydrogen atom	-0.053678
-1.830588	hydrogen bond	-0.053678
-1.125756	hydrogen bonding	-0.135906
-0.513075	hydrogen bonds	-0.103756
-1.861325	hydrogen ion	-0.053678
-0.675648	hydrolysis of	-0.053678
-1.335678	hydrolysis reaction	-0.053678
-1.163602	hydrolysis the	-0.053678
-0.768357	hydrolyzing some	-0.053678
-1.220091	hydrophilic and	-0.053678
-1.369319	hydrophilic forces	-0.053678
-1.368408	hydrophilic literally	-0.053678
-1.365285	hydrophilic regions	-0.053678
-1.217928	hydrophobic </s>
-1.349248	hydrophobic and	-0.053678
-0.917511	hydrophobic effect	-0.053678
-1.534324	hydrophobic hydrophilic	-0.053678
-1.542691	hydrophobic literally	-0.053678
-0.769899	hydrostatic pressure	-0.053678
-1.019956	hypertonic or	-0.053678
-1.062211	hypertonic referring	-0.053678
-0.739978	hyperventilation that	-0.053678
-1.070200	hypotonic compared	-0.053678
-1.062211	hypotonic referring	-0.053678
-0.744225	identical or	-0.053678
-0.768357	identify functional	-0.053678
-1.226899	if formed	-0.053678
-1.229066	if hydrogen	-0.053678
-1.242299	if you	-0.053678
-0.757955	images with	-0.053678
-0.762383	immune protein	-0.053678
-0.731606	impermeable to	-0.053678
-1.441984	important energy	-0.053678
-0.679459	important in	-0.053678
-1.426498	important molecule	-0.053678
-1.226965	in a	-0.076331
-2.585794	in acidosis	-0.053678
-1.361029	in an	-0.076331
-2.523839	in another	-0.053678
-2.553006	in atp	-0.053678
-2.496508	in biological	-0.053678
-1.971646	in cells	-0.053678
-2.306476	in chemical	-0.053678
-2.361072	in concentration	-0.053678
-2.585794	in cystic	-0.053678
-2.595797	in describing	-0.053678
-2.446521	in different	-0.053678
-2.401698	in dna	-0.053678
-1.874772	in double	-0.200885
-2.553006	in enthalpy	-0.112693
-2.595797	in foods	-0.053678
-2.595797	in honey	-0.053678
-2.401698	in its	-0.053678
-2.595797	in kidney	-0.053678
-2.595797	in milk	-0.053678
-2.162285	in molecules	-0.053678
-2.595797	in moles	-0.053678
-2.585794	in mrna	-0.053678
-2.401698	in nucleic	-0.053678
-2.401698	in one	-0.053678
-2.026429	in or	-0.053678
-2.595797	in order	-0.053678
-2.470796	in ph	-0.053678
-2.323923	in proteins	-0.053678
-2.496508	in rna	-0.053678
-1.963806	in solution	-0.053678
-2.595797	in stabilizing	-0.053678
-2.595797	in terms	-0.053678
-0.710364	in the	-0.060631
-2.342101	in two	-0.053678
-2.595797	in understanding	-0.053678
-2.595797	in vitro	-0.053678
-1.372821	in water	-0.135906
-1.255657	in which	-0.129146
-0.760902	include amino	-0.053678
-1.066672	including fatty	-0.053678
-1.068169	including sugars	-0.053678
-1.019956	increase or	-0.053678
-0.941575	increase the	-0.053678
-0.415062	increases the	-0.112693
-0.739978	indicates that	-0.053678
-0.766856	individual atoms	-0.053678
-0.770129	induced fit	-0.112693
-0.752846	infection by	-0.053678
-1.666552	information beyond	-0.053678
-1.666552	information concerning	-0.053678
-1.664747	information contained	-0.053678
-1.664747	information necessary	-0.053678
-1.257254	information of	-0.053678
-1.471656	information that	-0.053678
-1.666552	information transcribed	-0.053678
-1.666552	information useful	-0.053678
-0.700930	inhibiting the	-0.053678
-0.702220	inhibitor a	-0.053678
-0.689493	inhibitors </s>
-0.702220	initiate a	-0.053678
-0.991388	input in	-0.053678
-0.925084	input of	-0.053678
-0.728851	insoluble in	-0.053678
-0.770129	insulin myoglobin	-0.053678
-0.943822	interaction a	-0.053678
-1.057796	interaction between	-0.053678
-1.320152	interactions are	-0.053678
-1.344960	interactions between	-0.053678
-1.116466	interactions of	-0.053678
-1.344960	interactions such	-0.053678
-0.739978	interior that	-0.053678
-0.764613	intermediate its	-0.053678
-0.768357	internal environment	-0.053678
-0.768357	internet using	-0.053678
-0.727480	interpreted and	-0.053678
-0.769899	intimate sharing	-0.053678
-1.040007	into a	-0.053678
-1.803335	into broad	-0.053678
-1.780106	into cells	-0.053678
-1.803335	into doublestranded	-0.053678
-1.167558	into its	-0.053678
-1.803335	into newly	-0.053678
-1.793821	into smaller	-0.053678
-1.037558	into the	-0.053678
-0.770129	intravenous administration	-0.053678
-0.727480	invaders and	-0.053678
-0.757955	involve an	-0.053678
-1.531634	ion an	-0.053678
-1.607923	ion anion	-0.053678
-1.607923	ion cation	-0.053678
-1.607923	ion channel	-0.053678
-1.563280	ion concentration	-0.053678
-1.609506	ion e	-0.112693
-1.563280	ion into	-0.053678
-1.229066	ionic bond	-0.053678
-1.172141	ionic or	-0.053678
-1.244650	ionic strength	-0.053678
-0.921860	ions </s>
-1.057796	ions which	-0.053678
-1.501121	is </s>
-1.063498	is a	-0.053678
-2.408536	is accompanied	-0.053678
-2.374511	is active	-0.053678
-2.408536	is aligned	-0.053678
-1.709026	is an	-0.053678
-2.328573	is at	-0.053678
-2.328573	is called	-0.053678
-2.408536	is carried	-0.053678
-2.408536	is cleaved	-0.053678
-2.400644	is contained	-0.053678
-2.408536	is continually	-0.053678
-2.408536	is copied	-0.053678
-2.408536	is created	-0.053678
-2.408536	is critical	-0.053678
-2.408536	is dissolved	-0.053678
-1.802361	is equal	-0.112693
-2.400644	is equivalent	-0.053678
-2.400644	is folded	-0.053678
-2.350935	is high	-0.053678
-2.328573	is important	-0.053678
-2.408536	is interpreted	-0.053678
-2.408536	is isolated	-0.053678
-2.400644	is low	-0.053678
-2.400644	is obtained	-0.053678
-2.249122	is one	-0.053678
-2.408536	is remarkable	-0.053678
-2.231339	is such	-0.053678
-2.400644	is synthesized	-0.053678
-0.821891	is the	-0.053678
-2.408536	is transferred	-0.053678
-1.795621	is used	-0.053678
-2.408536	is very	-0.053678
-0.766107	island why	-0.053678
-0.760163	isolated from	-0.053678
-1.069742	isotonic hypertonic	-0.053678
-1.062211	isotonic referring	-0.053678
-1.666552	it behaves	-0.053678
-1.666552	it causes	-0.053678
-1.666552	it contributes	-0.053678
-1.666552	it equals	-0.053678
-1.641413	it has	-0.053678
-1.515578	it is	-0.053678
-1.664747	it might	-0.053678
-1.664747	it result	-0.053678
-1.762012	its characteristic	-0.053678
-1.759869	its components	-0.053678
-1.700494	its concentration	-0.053678
-1.752568	its extracellular	-0.053678
-1.752568	its formation	-0.053678
-1.134528	its functional	-0.053678
-1.762012	its native	-0.053678
-1.759869	its tertiary	-0.053678
-1.762012	its unique	-0.053678
-0.770129	itself undergoing	-0.053678
-0.731606	joined to	-0.053678
-0.762383	joining two	-0.053678
-1.292408	k a	-0.053678
-1.610032	k cat	-0.053678
-1.608573	k d	-0.053678
-1.610032	k m	-0.053678
-0.780469	k the	-0.053678
-1.070200	kcal mol	-0.053678
-1.070200	kcal mole	-0.053678
-1.069742	key concepts	-0.112693
-1.066672	key model	-0.053678
-0.769110	kidney disease	-0.053678
-0.770129	kinetics nascent	-0.053678
-0.700930	km the	-0.053678
-0.769110	known primary	-0.053678
-0.765360	lacks any	-0.053678
-0.943822	lactose a	-0.053678
-0.988882	lactose and	-0.053678
-1.524437	large free	-0.053678
-1.524437	large group	-0.053678
-1.491418	large molecule	-0.053678
-1.453389	large molecules	-0.053678
-1.524437	large negative	-0.053678
-1.537497	large number	-0.053678
-0.941575	lesser the	-0.053678
-0.996444	lesser to	-0.053678
-0.411236	levels of	-0.112693
-0.744225	library or	-0.053678
-1.060735	ligand any	-0.053678
-1.068169	ligand complex	-0.053678
-0.689493	ligands </s>
-0.767606	like secondary	-0.053678
-0.770129	limiting step	-0.053678
-0.770129	line resources	-0.053678
-1.369319	linear graph	-0.053678
-1.365285	linear organic	-0.053678
-1.368408	linear polymers	-0.053678
-1.353554	linear sequence	-0.053678
-0.770129	lineweaver burke	-0.053678
-0.763869	linkage formed	-0.053678
-0.964493	linked by	-0.053678
-0.533480	linked to	-0.053678
-1.554367	linked with	-0.053678
-0.766107	linking different	-0.053678
-0.769899	links adjacent	-0.053678
-1.065180	lipid consisting	-0.053678
-1.051978	lipid molecule	-0.053678
-0.765360	lipids small	-0.053678
-0.770129	liposome spherical	-0.053678
-0.766856	liter ph	-0.053678
-0.438482	literally water	-0.053678
-0.761642	little change	-0.053678
-1.070200	living organisms	-0.053678
-1.070200	living tissues	-0.053678
-0.770129	local domains	-0.053678
-1.065180	located at	-0.053678
-0.991388	located in	-0.053678
-0.727480	lock and	-0.053678
-0.765360	log h	-0.053678
-0.691379	logarithm of	-0.053678
-0.728851	look in	-0.053678
-0.691379	loss of	-0.053678
-0.744225	lost or	-0.053678
-0.767606	loving compounds	-0.053678
-1.056334	low concentration	-0.053678
-1.069742	low enough	-0.053678
-0.700930	lowering the	-0.053678
-0.691379	lubrication of	-0.053678
-0.700930	m the	-0.053678
-1.365285	macromolecule composed	-0.112693
-1.365285	macromolecule large	-0.053678
-1.368408	macromolecule ligand	-0.053678
-1.356457	macromolecule usually	-0.053678
-1.128661	macromolecules and	-0.053678
-1.244650	macromolecules particularly	-0.053678
-1.226899	macromolecules such	-0.053678
-1.244650	made after	-0.053678
-1.042900	made of	-0.053678
-1.244650	made up	-0.053678
-1.244650	magnetic field	-0.053678
-1.245335	magnetic nucleus	-0.053678
-1.245335	magnetic resonance	-0.053678
-0.691379	magnitude of	-0.053678
-0.943822	maintain a	-0.053678
-1.070200	maintain near	-0.053678
-0.766856	maintaining cell	-0.053678
-0.769899	maintains homeostasis	-0.053678
-0.769899	make up	-0.112693
-0.702220	making a	-0.053678
-0.763125	manifest into	-0.053678
-1.069742	many enzymes	-0.053678
-1.063693	many other	-0.053678
-0.770129	mark saltzman	-0.112693
-0.747796	mass is	-0.053678
-0.744225	match or	-0.053678
-0.760163	material from	-0.053678
-1.050535	maximum reaction	-0.053678
-1.069742	maximum velocity	-0.053678
-1.233432	may be	-0.053678
-1.244650	may contain	-0.053678
-1.244650	may occur	-0.053678
-0.691379	measure of	-0.325823
-0.689493	mechanism </s>
-0.763869	mechanisms such	-0.053678
-0.770129	mediate highly	-0.053678
-0.987827	membrane </s>
-1.397330	membrane a	-0.053678
-1.828934	membrane can	-0.053678
-1.901481	membrane coupled	-0.053678
-1.901481	membrane down	-0.053678
-1.789286	membrane from	-0.053678
-1.891329	membrane much	-0.053678
-1.891329	membrane must	-0.053678
-1.901481	membrane phospholipids	-0.053678
-1.904474	membrane separating	-0.053678
-1.904474	membrane surrounding	-0.053678
-1.891329	membrane via	-0.053678
-0.767606	membranes consisting	-0.053678
-0.769899	menten equation	-0.053678
-0.767606	messenger rna	-0.053678
-0.728851	method in	-0.053678
-0.740155	michaelis constant	-0.053678
-0.741974	michaelis menten	-0.112693
-1.069742	might act	-0.053678
-1.062211	might be	-0.053678
-0.689493	milk </s>
-0.770129	mirror images	-0.053678
-1.285893	model and	-0.053678
-1.460251	model may	-0.053678
-1.167443	model of	-0.053678
-1.465276	model then	-0.053678
-1.460251	model used	-0.053678
-0.925084	modification of	-0.053678
-0.941575	modification the	-0.053678
-0.769899	modified after	-0.053678
-0.764613	moiety dna	-0.053678
-0.689493	mol </s>
-0.689493	mole </s>
-1.070200	molecular biology	-0.053678
-1.068169	molecular complex	-0.053678
-0.669639	molecule </s>
-1.600223	molecule and	-0.053678
-1.950187	molecule composed	-0.053678
-1.941011	molecule each	-0.053678
-1.866133	molecule for	-0.053678
-1.914591	molecule linked	-0.053678
-1.932024	molecule on	-0.053678
-1.713137	molecule or	-0.112693
-1.923220	molecule other	-0.053678
-1.923220	molecule polar	-0.053678
-1.256319	molecule that	-0.053678
-1.044177	molecules </s>
-2.192757	molecules across	-0.053678
-1.117769	molecules and	-0.053678
-2.008144	molecules are	-0.053678
-2.192757	molecules called	-0.053678
-2.117507	molecules can	-0.053678
-2.251635	molecules facilitating	-0.053678
-2.117507	molecules formed	-0.053678
-2.053390	molecules from	-0.053678
-2.251635	molecules generally	-0.053678
-2.209508	molecules hydrophilic	-0.053678
-2.209508	molecules hydrophobic	-0.053678
-1.433707	molecules in	-0.053678
-1.476757	molecules of	-0.112693
-2.245953	molecules processed	-0.053678
-2.117507	molecules such	-0.053678
-1.391165	molecules that	-0.053678
-1.126145	molecules to	-0.053678
-2.161076	molecules together	-0.053678
-2.019021	molecules with	-0.053678
-0.769899	moles per	-0.053678
-0.921860	monomer </s>
-1.060735	monomer any	-0.053678
-0.770129	monomeric building	-0.053678
-0.567430	monomers </s>
-1.235681	monomers linked	-0.053678
-1.060735	monosaccharide any	-0.053678
-1.066672	monosaccharide subunits	-0.053678
-0.921860	monosaccharides </s>
-1.019956	monosaccharides or	-0.053678
-1.799565	more acetyl	-0.053678
-1.802028	more acyl	-0.053678
-1.802028	more appropriate	-0.053678
-1.802028	more concentrated	-0.053678
-1.799565	more electrons	-0.053678
-1.650289	more molecules	-0.053678
-1.791188	more pairs	-0.053678
-1.783334	more phosphate	-0.053678
-1.753265	more polypeptide	-0.053678
-1.802028	more rapidly	-0.053678
-1.791188	more sugars	-0.053678
-1.051978	most chemical	-0.053678
-1.065180	most important	-0.053678
-1.056334	move into	-0.053678
-1.069742	move out	-0.053678
-0.454906	movement of	-0.135906
-0.943822	mrna a	-0.053678
-1.068169	mrna gives	-0.053678
-1.240065	much greater	-0.053678
-1.240065	much more	-0.053678
-1.244650	much weaker	-0.053678
-1.245335	multiple identical	-0.053678
-1.240065	multiple noncovalent	-0.053678
-1.240065	multiple weak	-0.053678
-0.614760	must be	-0.053678
-1.243206	must you	-0.053678
-0.727480	myoglobin and	-0.053678
-0.763869	myristic acid	-0.053678
-0.700930	myristoylation the	-0.053678
-1.369319	n myristoylation	-0.053678
-1.369319	n terminal	-0.053678
-1.233050	n to	-0.053678
-1.369319	n where	-0.053678
-0.689493	na </s>
-0.752846	nacl by	-0.053678
-0.761642	nascent proteins	-0.053678
-0.765360	native form	-0.053678
-0.691379	nature of	-0.053678
-0.769899	near neutral	-0.053678
-0.438212	necessary for	-0.053678
-1.495411	negative change	-0.053678
-1.543507	negative charges	-0.053678
-1.537497	negative electric	-0.053678
-1.543507	negative feedback	-0.053678
-1.543507	negative logarithm	-0.053678
-1.537497	negative value	-0.053678
-0.921860	negatively </s>
-1.068169	negatively charged	-0.053678
-0.768357	neither acidic	-0.053678
-0.916448	net electric	-0.112693
-1.544475	net flow	-0.053678
-0.790087	net movement	-0.200885
-1.070200	neutral neither	-0.053678
-1.063693	neutral ph	-0.053678
-0.747796	neutrality is	-0.053678
-0.770129	neutralizing pathogens	-0.053678
-0.769899	newly synthesized	-0.053678
-1.128661	nitrogen and	-0.053678
-1.237843	nitrogen containing	-0.053678
-1.160856	nitrogen that	-0.053678
-1.229066	nitrogenous base	-0.053678
-1.240065	nitrogenous bases	-0.053678
-1.237843	nitrogenous compounds	-0.112693
-0.441289	nmr spectroscopy	-0.053678
-0.766856	no net	-0.053678
-0.439294	non covalent	-0.053678
-1.369761	noncovalent attraction	-0.053678
-0.737295	noncovalent bond	-0.092118
-1.353214	noncovalent bonds	-0.053678
-1.534567	nonpolar acidic	-0.053678
-1.515092	nonpolar groups	-0.053678
-0.775122	nonpolar molecules	-0.053678
-1.522778	nonpolar referring	-0.053678
-0.769110	nor basic	-0.053678
-0.770129	normal saline	-0.053678
-1.495411	not change	-0.053678
-1.543507	not dissolve	-0.053678
-1.515944	not form	-0.053678
-1.543507	not involve	-0.053678
-1.353050	not to	-0.053678
-1.543507	not yet	-0.053678
-0.769110	nuclear magnetic	-0.053678
-1.088111	nucleic acid	-0.256059
-0.257599	nucleic acids	-0.086414
-0.757955	nucleoside with	-0.053678
-1.145939	nucleotide a	-0.053678
-1.362322	nucleotide bases	-0.053678
-1.260188	nucleotide that	-0.053678
-1.369319	nucleotide triplets	-0.053678
-1.161824	nucleotides </s>
-1.285893	nucleotides and	-0.053678
-1.364380	nucleotides is	-0.053678
-1.445701	nucleotides linked	-0.053678
-1.332917	nucleotides that	-0.053678
-0.691379	nucleus of	-0.053678
-1.241313	number k	-0.053678
-0.568633	number of	-0.053678
-1.038676	o </s>
-1.128661	o and	-0.053678
-1.240065	o n	-0.053678
-0.434981	obtained by	-0.053678
-0.991388	occur in	-0.053678
-1.011976	occur that	-0.053678
-0.766856	occurs through	-0.053678
-0.908335	of a	-0.091171
-2.541333	of acid	-0.053678
-2.760865	of acids	-0.053678
-1.831366	of amino	-0.163433
-1.333769	of an	-0.053678
-2.760865	of another	-0.053678
-2.602945	of any	-0.053678
-2.674766	of atoms	-0.053678
-2.304157	of atp	-0.053678
-2.571047	of base	-0.053678
-2.890299	of biomedical	-0.112693
-2.871228	of both	-0.053678
-2.674766	of cell	-0.053678
-2.715686	of cells	-0.053678
-2.287833	of ch	-0.053678
-2.439404	of chemical	-0.053678
-2.715686	of compounds	-0.053678
-2.637373	of different	-0.053678
-2.890299	of discrete	-0.053678
-2.871228	of disorder	-0.053678
-2.571047	of dna	-0.053678
-2.890299	of dry	-0.053678
-2.760865	of each	-0.053678
-2.321930	of electrons	-0.053678
-2.214316	of energy	-0.053678
-2.602945	of enzyme	-0.053678
-2.890299	of eukaryotic	-0.053678
-2.890299	of fat	-0.053678
-2.890299	of fluid	-0.053678
-2.871228	of foreign	-0.053678
-2.890299	of forward	-0.053678
-2.811297	of four	-0.053678
-2.760865	of g	-0.053678
-2.811297	of glucose	-0.053678
-2.760865	of greater	-0.053678
-2.890299	of having	-0.053678
-2.760865	of high	-0.053678
-2.890299	of individual	-0.053678
-2.890299	of joining	-0.053678
-2.760865	of k	-0.053678
-2.327229	of kcal	-0.053678
-2.890299	of known	-0.053678
-2.871228	of lactose	-0.053678
-2.871228	of lesser	-0.053678
-2.205973	of macromolecules	-0.053678
-2.890299	of making	-0.053678
-2.871228	of many	-0.053678
-2.890299	of material	-0.053678
-2.871228	of molecular	-0.053678
-2.439404	of molecule	-0.053678
-2.047832	of molecules	-0.053678
-2.811297	of monomers	-0.053678
-2.871228	of monosaccharide	-0.053678
-2.811297	of multiple	-0.053678
-2.890299	of myristic	-0.053678
-2.321930	of nitrogenous	-0.092118
-2.272100	of nonpolar	-0.053678
-2.214316	of nucleic	-0.325823
-2.760865	of nucleotide	-0.053678
-2.287833	of nucleotides	-0.053678
-1.699693	of one	-0.282034
-2.811297	of organic	-0.053678
-2.811297	of osmotic	-0.053678
-2.890299	of physiological	-0.053678
-2.602945	of polypeptide	-0.053678
-2.890299	of polypeptides	-0.053678
-2.871228	of positive	-0.112693
-2.871228	of products	-0.053678
-1.837003	of proteins	-0.053678
-2.871228	of reactants	-0.053678
-2.163644	of rna	-0.053678
-2.602945	of small	-0.053678
-2.811297	of smaller	-0.053678
-2.811297	of strong	-0.053678
-2.487385	of structure	-0.112693
-2.760865	of substrate	-0.053678
-0.810387	of the	-0.096427
-2.715686	of their	-0.053678
-2.674766	of this	-0.053678
-2.327229	of transfer	-0.112693
-2.086636	of two	-0.082184
-2.890299	of values	-0.053678
-2.086636	of water	-0.076331
-2.760865	of x	-0.053678
-0.702220	off a	-0.053678
-1.070200	often modified	-0.053678
-1.070200	often stabilize	-0.053678
-0.760163	oh from	-0.053678
-0.689493	oligosaccharides </s>
-1.241519	on a	-0.053678
-1.543507	on cysteines	-0.053678
-1.543507	on line	-0.053678
-1.237071	on the	-0.053678
-1.528747	on their	-0.053678
-1.507614	on which	-0.053678
-1.343878	one </s>
-1.776333	one amino	-0.053678
-1.853375	one another	-0.053678
-1.870981	one direction	-0.053678
-1.870981	one fructose	-0.053678
-1.861888	one glucose	-0.053678
-1.870981	one heterocyclic	-0.053678
-1.059963	one of	-0.053678
-1.073121	one or	-0.568862
-1.870981	one product	-0.053678
-0.691379	opposite of	-0.112693
-2.305909	or alkalinity	-0.053678
-2.305909	or alkalosis	-0.053678
-2.298293	or asymmetric	-0.112693
-2.298293	or cluster	-0.053678
-2.298293	or collection	-0.053678
-2.298293	or conformation	-0.053678
-2.151224	or covalent	-0.053678
-2.305909	or decrease	-0.053678
-2.305909	or diabetes	-0.053678
-2.151224	or energy	-0.053678
-2.298293	or facilitated	-0.053678
-2.085622	or for	-0.053678
-2.305909	or gained	-0.053678
-2.207874	or group	-0.053678
-2.305909	or hybridize	-0.053678
-2.298293	or hypotonic	-0.053678
-1.668603	or in	-0.053678
-2.305909	or linking	-0.053678
-2.298293	or lipid	-0.053678
-1.686251	or more	-0.053678
-2.207874	or negative	-0.053678
-2.273039	or nitrogen	-0.053678
-1.680225	or on	-0.053678
-2.207874	or other	-0.053678
-2.298293	or out	-0.053678
-2.298293	or products	-0.053678
-2.305909	or randomness	-0.053678
-2.298293	or segments	-0.053678
-2.305909	or similar	-0.053678
-2.273039	or simple	-0.053678
-2.273039	or strong	-0.053678
-2.101117	or structure	-0.053678
-1.474499	or the	-0.053678
-2.298293	or well	-0.053678
-2.250214	or x	-0.053678
-0.731606	order to	-0.053678
-1.242299	organic compound	-0.053678
-1.237843	organic compounds	-0.053678
-1.240065	organic polymer	-0.053678
-0.731606	organisms to	-0.053678
-0.766107	original sequence	-0.053678
-1.038676	osmosis </s>
-1.242299	osmosis movement	-0.053678
-1.235632	osmosis net	-0.053678
-0.490273	osmotic pressure	-0.092118
-1.198964	other </s>
-1.453389	other molecules	-0.053678
-1.515944	other polypeptide	-0.053678
-1.543507	other polysaccharides	-0.053678
-1.542148	other source	-0.053678
-1.524437	other than	-0.053678
-0.691379	others of	-0.053678
-0.770129	otherwise impermeable	-0.053678
-0.411236	out of	-0.112693
-0.770129	over time	-0.053678
-0.769110	overall three	-0.053678
-0.700930	overcome the	-0.053678
-1.197646	oxygen molecules	-0.053678
-1.242299	oxygen o	-0.053678
-1.172141	oxygen or	-0.053678
-1.132123	pairs in	-0.053678
-1.042900	pairs of	-0.053678
-1.209942	pairs with	-0.053678
-0.769899	particle equivalent	-0.053678
-0.744225	particles or	-0.053678
-1.065180	particularly important	-0.053678
-1.053425	particularly proteins	-0.053678
-0.691379	parts of	-0.053678
-0.766856	pass through	-0.053678
-0.768357	passing x	-0.053678
-1.235287	passive and	-0.053678
-0.741025	passive diffusion	-0.053678
-1.284767	passive or	-0.053678
-0.727480	pathogens and	-0.053678
-0.727480	patients and	-0.053678
-0.921860	pattern </s>
-0.925084	pattern of	-0.053678
-0.702220	pentose a	-0.053678
-1.166919	peptide a	-0.053678
-1.350665	peptide bond	-0.053678
-0.737915	peptide bonds	-0.112693
-1.060735	per enzyme	-0.053678
-1.070200	per liter	-0.053678
-0.689493	permeability </s>
-0.731606	permeable to	-0.053678
-1.198964	ph </s>
-1.241519	ph a	-0.053678
-1.543507	ph log	-0.053678
-1.205087	ph of	-0.053678
-1.543507	ph when	-0.053678
-1.507614	ph which	-0.053678
-1.134839	phosphate </s>
-1.358357	phosphate group	-0.053678
-0.737295	phosphate groups	-0.053678
-0.765360	phosphoanhydride bonds	-0.053678
-0.617019	phospholipid bilayer	-0.053678
-1.088405	phospholipid the	-0.053678
-0.988882	phospholipids and	-0.053678
-1.044813	phospholipids are	-0.053678
-0.767606	phosphorous containing	-0.053678
-0.760163	phosphorylation reaction	-0.053678
-0.760902	physical chemical	-0.053678
-0.769899	physiological systems	-0.053678
-0.728851	place in	-0.053678
-0.763125	placed into	-0.053678
-0.767606	planar secondary	-0.053678
-0.766107	plasma membrane	-0.053678
-0.770129	plot graphical	-0.053678
-1.544387	polar head	-0.112693
-0.898022	polar molecules	-0.053678
-0.914621	polar nonpolar	-0.112693
-1.524532	polar referring	-0.053678
-1.577581	polymer any	-0.053678
-1.592370	polymer consisting	-0.053678
-1.609506	polymer examples	-0.053678
-1.567995	polymer formed	-0.053678
-1.544915	polymer from	-0.053678
-1.234126	polymer of	-0.053678
-1.587384	polymer usually	-0.053678
-1.050535	polymerization reaction	-0.053678
-0.941575	polymerization the	-0.053678
-0.411236	polymers of	-0.053678
-1.389264	polypeptide </s>
-1.437429	polypeptide a	-0.053678
-1.176905	polypeptide chain	-0.100231
-0.568235	polypeptide chains	-0.076331
-1.633692	polypeptide or	-0.053678
-1.791138	polypeptide subunits	-0.053678
-0.770129	polypeptides assumes	-0.053678
-0.767606	polysaccharide biological	-0.053678
-0.689493	polysaccharides </s>
-1.128661	positive and	-0.112693
-1.220462	positive change	-0.053678
-1.172141	positive or	-0.053678
-0.489935	positively charged	-0.092118
-0.441289	post translational	-0.112693
-1.065180	potential across	-0.053678
-1.059263	potential energy	-0.053678
-0.425957	present in	-0.112693
-1.038676	pressure </s>
-1.245335	pressure hydrostatic	-0.053678
-1.160856	pressure that	-0.053678
-1.534567	primary acidic	-0.053678
-0.782109	primary amino	-0.200885
-1.515092	primary nucleic	-0.053678
-1.503813	primary structure	-0.053678
-0.769899	principal components	-0.053678
-0.767606	proceeds at	-0.053678
-0.897165	process by	-0.112693
-1.544387	process occurs	-0.053678
-0.825559	process of	-0.053678
-1.544387	process whereby	-0.053678
-1.069742	processed per	-0.053678
-1.068169	processed via	-0.053678
-0.752846	produced by	-0.053678
-1.037764	product molecules	-0.053678
-0.925084	product of	-0.053678
-1.026719	products is	-0.053678
-1.070200	products will	-0.053678
-0.770129	professor mark	-0.112693
-0.763125	properly into	-0.053678
-0.674040	properties </s>
-1.369761	properties conferred	-0.053678
-1.139503	properties of	-0.053678
-0.691379	property of	-0.053678
-1.038676	protease </s>
-1.231243	protease enzyme	-0.053678
-1.245335	protease inhibitor	-0.053678
-0.769899	protecting against	-0.053678
-1.400496	protein </s>
-1.463960	protein a	-0.053678
-2.094552	protein aided	-0.053678
-2.048210	protein biological	-0.053678
-1.987125	protein can	-0.053678
-1.477441	protein folding	-0.053678
-1.987125	protein formed	-0.053678
-2.094552	protein forming	-0.053678
-1.628076	protein in	-0.053678
-2.022736	protein linked	-0.053678
-2.090139	protein made	-0.053678
-1.754502	protein or	-0.053678
-1.443401	protein structure	-0.053678
-2.094552	protein synthesis	-0.053678
-1.352574	protein that	-0.082184
-1.457179	protein the	-0.053678
-1.648492	protein to	-0.053678
-1.449968	protein which	-0.053678
-1.116013	proteins </s>
-1.459309	proteins a	-0.053678
-1.217087	proteins and	-0.053678
-1.420369	proteins are	-0.053678
-1.840193	proteins by	-0.053678
-1.985606	proteins can	-0.053678
-2.047370	proteins consisting	-0.053678
-2.074765	proteins disulfide	-0.053678
-1.985606	proteins formed	-0.053678
-2.034294	proteins has	-0.053678
-2.089823	proteins have	-0.053678
-2.060851	proteins how	-0.053678
-1.624039	proteins in	-0.053678
-2.089823	proteins present	-0.053678
-1.712620	proteins that	-0.053678
-1.452508	proteins the	-0.053678
-2.021601	proteins together	-0.053678
-0.770129	proteolysis degradation	-0.053678
-0.769899	proteolytic cleavage	-0.053678
-0.921860	proteome </s>
-0.941575	proteome the	-0.053678
-0.702220	proteomics a	-0.053678
-1.060735	proton h	-0.053678
-1.068169	proton positively	-0.053678
-0.753572	purified molecules	-0.053678
-0.943822	purine a	-0.053678
-1.068169	purine derivative	-0.053678
-1.068169	purines adenine	-0.053678
-0.988882	purines and	-0.053678
-1.067647	pyrimidine a	-0.053678
-1.128661	pyrimidine and	-0.053678
-1.242299	pyrimidine derivative	-0.053678
-0.769110	pyrimidines cytosine	-0.053678
-0.691379	quantities of	-0.053678
-0.762383	quartenary structure	-0.053678
-0.762383	quaternary structure	-0.053678
-0.689493	questions </s>
-0.728851	randomness in	-0.053678
-0.770129	rapid deep	-0.053678
-0.766856	rapidly than	-0.053678
-1.528747	rate constant	-0.053678
-1.543507	rate constants	-0.053678
-1.533100	rate greater	-0.053678
-1.543507	rate limiting	-0.053678
-1.205087	rate of	-0.159149
-1.543507	rate vmax	-0.053678
-0.766856	rather than	-0.053678
-0.925084	ratio of	-0.053678
-1.011976	ratio that	-0.053678
-0.770129	ray crystallography	-0.053678
-1.026719	rays is	-0.053678
-1.063693	rays through	-0.053678
-1.038676	reactants </s>
-1.132123	reactants in	-0.053678
-1.172141	reactants or	-0.053678
-0.758983	reaction </s>
-1.019862	reaction a	-0.082184
-1.695347	reaction and	-0.053678
-2.071645	reaction between	-0.053678
-1.923835	reaction by	-0.053678
-2.182742	reaction developed	-0.053678
-2.037784	reaction for	-0.053678
-2.121336	reaction has	-0.200885
-1.395464	reaction in	-0.112693
-2.182742	reaction intermediate	-0.053678
-1.484489	reaction of	-0.053678
-2.182742	reaction proceeds	-0.053678
-2.148491	reaction rate	-0.053678
-1.436972	reaction that	-0.053678
-1.532616	reaction the	-0.053678
-2.108370	reaction why	-0.053678
-2.178159	reaction without	-0.053678
-1.038676	reactions </s>
-1.195630	reactions by	-0.053678
-1.132123	reactions in	-0.053678
-0.766107	reason why	-0.053678
-0.769899	receptor transmembrane	-0.053678
-0.691379	reciprocal of	-0.053678
-0.700930	reduce the	-0.053678
-0.700930	reducing the	-0.053678
-0.145394	referring to	-0.309561
-0.691379	region of	-0.053678
-0.567430	regions </s>
-1.068917	regions of	-0.112693
-0.768357	regulates transport	-0.053678
-0.768357	relatively weak	-0.053678
-1.059263	release energy	-0.053678
-0.925084	release of	-0.053678
-0.769110	releases heat	-0.053678
-0.770129	reliable sources	-0.053678
-0.770129	remarkable about	-0.053678
-0.769899	repeated coupling	-0.053678
-0.768357	replaces thymine	-0.053678
-0.763869	represented as	-0.053678
-0.768357	repulsive interactions	-0.053678
-0.731606	required to	-0.053678
-0.764613	requiring energy	-0.053678
-0.728851	research in	-0.053678
-0.691379	residue of	-0.053678
-1.038676	residues </s>
-1.244650	residues bonded	-0.053678
-1.132123	residues in	-0.053678
-0.769899	resonance nmr	-0.053678
-0.769899	resources determined	-0.053678
-0.689493	respectively </s>
-0.691379	response of	-0.053678
-0.991388	result in	-0.053678
-0.925084	result of	-0.053678
-0.702220	results a	-0.053678
-0.691379	reticulum of	-0.053678
-0.768357	reverse rate	-0.053678
-0.769899	reviewed biochemical	-0.053678
-0.689493	ribosome </s>
-0.770129	right handed	-0.053678
-0.762383	ring two	-0.053678
-0.762383	rings two	-0.053678
-0.731606	rise to	-0.053678
-1.250355	rna </s>
-1.573954	rna are	-0.053678
-1.664747	rna hybridizes	-0.053678
-1.414786	rna in	-0.053678
-1.515578	rna is	-0.053678
-1.664747	rna mrna	-0.053678
-1.664747	rna uracil	-0.053678
-1.652789	rna using	-0.053678
-1.111467	s </s>
-1.145939	s a	-0.053678
-1.347806	s covalent	-0.053678
-1.362322	s s	-0.053678
-0.766856	saline solution	-0.053678
-0.689493	saltzman </s>
-1.054877	same protein	-0.053678
-1.069742	same type	-0.053678
-0.769899	scientists experimentally	-0.053678
-0.769899	seawater explain	-0.053678
-0.689493	second </s>
-0.225130	secondary structure	-0.256059
-0.921860	segments </s>
-0.925084	segments of	-0.053678
-0.766107	selective membrane	-0.053678
