
\data\
ngram 1=1039
ngram 2=2868
ngram 3=3330

\1-grams:
-1.307709	</s>
-99	<s>	-0.309056
-1.792828	a	-0.144280
-3.353705	abandoned	-0.073265
-3.353705	abject	-0.073265
-2.336623	about	-0.188460
-3.353705	above	-0.073265
-3.353705	absolute	-0.073265
-3.353705	absolutely	-0.073265
-3.353705	acre	-0.073265
-3.353705	acres	-0.073265
-3.353705	across	-0.073265
-3.353705	actual	-0.073265
-3.353705	actually	-0.073265
-3.180544	added	-0.073265
-3.353705	adulthood	-0.073265
-3.353705	advances	-0.073265
-3.353705	africa	-0.073265
-2.740607	after	-0.093946
-3.353705	age	-0.073265
-3.353705	air	-0.073265
-2.599547	all	-0.165838
-3.353705	allowed	-0.073265
-2.950857	almost	-0.104668
-3.353705	alone	-0.073265
-3.112871	already	-0.073265
-2.833131	also	-0.073265
-3.353705	always	-0.073265
-2.950857	am	-0.104668
-3.353705	amazing	-0.073265
-3.180544	america	-0.073265
-3.353705	american	-0.073265
-3.353705	americans	-0.073265
-3.353705	among	-0.073265
-3.353705	amount	-0.073265
-2.664375	an	-0.073265
-1.723487	and	-0.112628
-3.353705	ann	-0.073265
-3.353705	annual	-0.073265
-3.180544	another	-0.073265
-3.112871	any	-0.073265
-3.180544	anyone	-0.138520
-3.112871	anything	-0.073265
-3.353705	ap	-0.073265
-3.353705	apparel	-0.073265
-3.353705	appropriate	-0.073265
-3.353705	approx	-0.073265
-2.221758	are	-0.119518
-3.353705	area	-0.073265
-3.353705	argues	-0.073265
-3.180544	argument	-0.073265
-3.353705	army	-0.073265
-3.112871	around	-0.073265
-3.353705	article	-0.073265
-2.197231	as	-0.127110
-3.353705	ascent	-0.073265
-3.180544	asia	-0.073265
-3.353705	asked	-0.073265
-3.353705	assembly	-0.073265
-3.180544	assets	-0.073265
-3.353705	assoc	-0.073265
-3.353705	associates	-0.073265
-3.353705	assumption	-0.073265
-3.353705	assumptions	-0.073265
-2.275404	at	-0.285116
-3.353705	atlantic	-0.073265
-3.353705	attendant	-0.073265
-3.353705	authorities	-0.073265
-3.353705	auto	-0.073265
-3.353705	available	-0.073265
-3.112871	average	-0.073265
-3.112871	back	-0.073265
-3.353705	bacteria	-0.073265
-3.180544	bad	-0.073265
-3.353705	bag	-0.073265
-3.353705	ball	-0.073265
-3.353705	banda	-0.073265
-3.353705	bank	-0.073265
-3.353705	bare	-0.073265
-3.353705	barely	-0.073265
-3.180544	base	-0.073265
-3.353705	basis	-0.073265
-2.599547	be	-0.080452
-3.353705	beats	-0.073265
-2.740607	because	-0.093946
-3.353705	bed	-0.073265
-3.353705	bee	-0.073265
-3.180544	been	-0.073265
-3.180544	before	-0.073265
-3.353705	began	-0.073265
-3.353705	behind	-0.073265
-3.353705	benefits	-0.073265
-3.353705	bethany	-0.073265
-2.833131	better	-0.073265
-3.112871	between	-0.115662
-3.353705	big	-0.073265
-3.353705	bill	-0.073265
-2.664375	billion	-0.173969
-3.180544	bit	-0.073265
-3.353705	blocker	-0.073265
-3.353705	blue	-0.073265
-3.180544	boats	-0.073265
-3.353705	bodies	-0.073265
-3.353705	bolt	-0.073265
-3.353705	bombay	-0.073265
-3.353705	bone	-0.073265
-3.180544	bones	-0.115662
-3.353705	border	-0.073265
-3.180544	both	-0.073265
-3.353705	bottles	-0.073265
-3.180544	boy	-0.073265
-3.353705	brands	-0.073265
-3.353705	brazil	-0.073265
-3.353705	breaths	-0.073265
-3.353705	brief	-0.073265
-3.180544	british	-0.073265
-3.353705	brought	-0.073265
-3.353705	brutal	-0.073265
-3.353705	budged	-0.073265
-3.353705	build	-0.073265
-3.353705	bull	-0.073265
-3.353705	bureau	-0.073265
-2.543151	but	-0.092320
-3.353705	buy	-0.073265
-2.275404	by	-0.085555
-3.353705	calamity	-0.073265
-3.353705	calc	-0.073265
-3.180544	calculates	-0.138520
-3.353705	call	-0.073265
-3.180544	called	-0.073265
-3.353705	calls	-0.073265
-2.950857	came	-0.268565
-2.664375	can	-0.073265
-3.353705	cant	-0.073265
-3.353705	canton	-0.073265
-3.353705	carbine	-0.073265
-3.353705	careful	-0.073265
-3.353705	carried	-0.073265
-3.353705	catching	-0.073265
-3.353705	celebration	-0.073265
-3.180544	census	-0.073265
-3.353705	cents	-0.073265
-3.353705	century	-0.073265
-3.353705	certainly	-0.073265
-3.353705	change	-0.073265
-3.353705	chapter	-0.073265
-3.353705	chatting	-0.073265
-2.950857	child	-0.104668
-2.664375	children	-0.088682
-2.740607	china	-0.101064
-3.180544	chinas	-0.073265
-3.112871	chinese	-0.073265
-3.353705	cities	-0.073265
-3.353705	city	-0.073265
-3.353705	civil	-0.073265
-3.353705	class	-0.073265
-3.353705	clay	-0.073265
-3.353705	cleaner	-0.073265
-3.353705	clearly	-0.073265
-3.353705	climb	-0.073265
-3.180544	climbers	-0.073265
-3.353705	climbing	-0.073265
-3.353705	closed	-0.073265
-3.180544	closer	-0.138520
-3.353705	closing	-0.073265
-3.353705	clothing	-0.073265
-3.353705	co	-0.073265
-3.353705	coffee	-0.073265
-3.353705	cohen	-0.073265
-3.353705	coin	-0.073265
-3.353705	col	-0.073265
-3.180544	collapse	-0.073265
-3.353705	com	-0.073265
-3.353705	combination	-0.073265
-3.180544	come	-0.073265
-3.353705	comes	-0.073265
-3.180544	communities	-0.073265
-3.353705	compensates	-0.073265
-3.353705	concrete	-0.073265
-3.353705	consider	-0.073265
-3.353705	considerably	-0.073265
-3.353705	considered	-0.073265
-3.353705	considers	-0.073265
-3.353705	constant	-0.073265
-3.353705	construction	-0.073265
-3.180544	consume	-0.073265
-3.180544	consumes	-0.073265
-3.353705	consuming	-0.073265
-2.950857	consumption	-0.093946
-3.353705	contained	-0.073265
-3.180544	continue	-0.073265
-3.180544	cope	-0.138520
-3.353705	coped	-0.073265
-3.353705	correctly	-0.073265
-3.353705	costs	-0.073265
-3.353705	could	-0.073265
-3.353705	couldnt	-0.073265
-2.599547	countries	-0.124578
-3.112871	country	-0.073265
-3.180544	course	-0.073265
-3.353705	covered	-0.073265
-3.353705	create	-0.073265
-3.353705	creation	-0.073265
-3.353705	crossed	-0.073265
-3.353705	crystal	-0.073265
-3.353705	current	-0.073265
-3.353705	d	-0.073265
-3.353705	daily	-0.073265
-3.353705	dashed	-0.073265
-3.112871	data	-0.073265
-3.180544	daughter	-0.073265
-2.664375	day	-0.176830
-3.112871	days	-0.073265
-3.180544	dead	-0.138520
-3.353705	death	-0.073265
-3.353705	dec	-0.073265
-3.353705	decades	-0.073265
-3.353705	decided	-0.073265
-3.353705	declining	-0.073265
-3.180544	deep	-0.073265
-3.353705	defined	-0.073265
-3.353705	defines	-0.073265
-3.353705	definition	-0.073265
-3.353705	delete	-0.073265
-3.353705	demog	-0.073265
-3.353705	dense	-0.073265
-3.353705	depletion	-0.073265
-3.180544	described	-0.073265
-3.353705	description	-0.073265
-3.180544	desert	-0.073265
-3.353705	destruction	-0.073265
-3.353705	developed	-0.073265
-2.950857	developing	-0.221849
-3.353705	did	-0.073265
-3.353705	die	-0.073265
-3.180544	died	-0.138520
-3.353705	different	-0.073265
-3.353705	disaster	-0.073265
-3.353705	discarded	-0.073265
-3.353705	discuss	-0.073265
-3.353705	discussed	-0.073265
-3.353705	discussing	-0.073265
-3.353705	disease	-0.073265
-3.353705	divide	-0.073265
-3.353705	do	-0.073265
-3.180544	doesnt	-0.073265
-3.353705	doing	-0.073265
-3.353705	donkey	-0.073265
-3.353705	dont	-0.073265
-3.353705	dormitory	-0.073265
-2.950857	double	-0.073265
-3.353705	doubling	-0.073265
-2.950857	down	-0.073265
-3.353705	dr	-0.073265
-3.353705	drain	-0.073265
-3.353705	drains	-0.073265
-3.353705	dumped	-0.073265
-3.353705	during	-0.073265
-3.353705	dutkas	-0.073265
-3.353705	e	-0.073265
-2.833131	each	-0.193282
-2.833131	earn	-0.073265
-3.353705	earning	-0.073265
-3.353705	earns	-0.073265
-3.180544	earth	-0.086942
-3.353705	earths	-0.073265
-3.353705	eastern	-0.073265
-3.353705	eaten	-0.073265
-3.353705	economic	-0.073265
-3.112871	economy	-0.104668
-3.353705	edmind	-0.073265
-3.353705	either	-0.073265
-3.353705	el	-0.073265
-3.353705	electricity	-0.073265
-3.353705	elizabeth	-0.073265
-3.353705	ellen	-0.073265
-3.353705	else	-0.073265
-3.353705	embarrassed	-0.073265
-3.353705	embellishing	-0.073265
-3.180544	end	-0.073265
-3.353705	ends	-0.073265
-3.180544	english	-0.073265
-3.353705	enough	-0.073265
-3.180544	enter	-0.073265
-3.353705	entering	-0.073265
-3.353705	entire	-0.073265
-3.112871	environment	-0.073265
-3.112871	environmental	-0.359694
-3.112871	equal	-0.359694
-3.180544	equally	-0.073265
-3.353705	equivalent	-0.073265
-3.353705	estimate	-0.073265
-3.180544	etc	-0.115662
-3.180544	europe	-0.073265
-3.353705	even	-0.073265
-2.950857	eventually	-0.073265
-3.180544	ever	-0.073265
-3.180544	everest	-0.073265
-3.353705	every	-0.073265
-3.353705	everyone	-0.073265
-3.353705	everything	-0.073265
-3.180544	everywhere	-0.073265
-3.353705	evils	-0.073265
-3.353705	exaggerating	-0.073265
-3.353705	exam	-0.073265
-3.353705	example	-0.073265
-3.180544	exception	-0.073265
-3.353705	excess	-0.073265
-3.353705	expecting	-0.073265
-3.180544	expeditions	-0.073265
-3.353705	exploding	-0.073265
-3.112871	explosion	-0.073265
-3.180544	exponential	-0.073265
-3.180544	factor	-0.073265
-3.353705	factories	-0.073265
-3.112871	factory	-0.073265
-3.353705	facts	-0.073265
-3.353705	factual	-0.073265
-3.353705	fall	-0.073265
-3.112871	families	-0.073265
-2.950857	family	-0.073265
-3.353705	far	-0.073265
-3.353705	farm	-0.073265
-3.353705	fast	-0.073265
-3.353705	faster	-0.073265
-3.353705	father	-0.073265
-3.353705	feature	-0.073265
-3.353705	fed	-0.073265
-3.353705	fell	-0.073265
-3.112871	fertility	-0.073265
-3.180544	few	-0.073265
-3.353705	fields	-0.073265
-3.353705	fig	-0.073265
-3.353705	figure	-0.073265
-3.353705	figures	-0.073265
-3.353705	fill	-0.073265
-3.353705	finding	-0.073265
-3.180544	first	-0.073265
-3.353705	fishermans	-0.073265
-3.353705	fixed	-0.073265
-3.353705	flatter	-0.073265
-3.353705	foggiest	-0.073265
-2.950857	food	-0.073265
-3.353705	foot	-0.073265
-3.353705	footstep	-0.073265
-2.055979	for	-0.211327
-3.353705	forward	-0.073265
-2.950857	found	-0.104668
-3.353705	fpia	-0.073265
-3.353705	fraction	-0.073265
-3.353705	fragments	-0.073265
-2.407911	from	-0.093946
-3.353705	fuel	-0.073265
-3.353705	fujian	-0.073265
-2.950857	full	-0.138520
-3.353705	future	-0.073265
-3.353705	gamble	-0.073265
-3.353705	gambling	-0.073265
-3.353705	gave	-0.073265
-3.180544	gdp	-0.073265
-3.353705	general	-0.073265
-3.353705	generation	-0.073265
-2.664375	get	-0.088682
-3.180544	gets	-0.138520
-3.180544	getting	-0.073265
-3.180544	girl	-0.073265
-2.740607	girls	-0.073265
-3.353705	give	-0.073265
-2.740607	global	-0.090930
-3.353705	globally	-0.073265
-3.180544	gm	-0.073265
-3.353705	go	-0.073265
-3.180544	going	-0.073265
-3.180544	gone	-0.073265
-3.353705	good	-0.073265
-3.180544	gotten	-0.073265
-3.353705	gov	-0.073265
-3.353705	government	-0.073265
-3.353705	govt	-0.073265
-3.353705	grabs	-0.073265
-3.180544	graph	-0.073265
-3.353705	greater	-0.073265
-3.112871	green	-0.115662
-3.353705	grip	-0.073265
-3.353705	grips	-0.073265
-3.353705	gross	-0.073265
-3.353705	group	-0.073265
-3.353705	growing	-0.073265
-3.112871	grows	-0.073265
-2.543151	growth	-0.136244
-3.353705	guangzhou	-0.073265
-3.353705	guatemala	-0.073265
-3.353705	guilty	-0.073265
-3.180544	habitat	-0.073265
-2.543151	had	-0.073265
-3.353705	hadnt	-0.073265
-3.353705	hag	-0.073265
-3.180544	half	-0.073265
-3.353705	hammer	-0.073265
-3.180544	hand	-0.073265
-3.353705	harbor	-0.073265
-3.180544	hard	-0.073265
-2.543151	has	-0.086942
-3.353705	haulers	-0.073265
-3.353705	hauling	-0.073265
-2.304936	have	-0.119810
-3.353705	haven	-0.073265
-3.353705	haves	-0.073265
-2.833131	he	-0.093946
-3.112871	health	-0.073265
-3.112871	heard	-0.073265
-3.353705	heart	-0.073265
-3.353705	help	-0.073265
-2.543151	her	-0.086942
-3.353705	here	-0.073265
-3.353705	hhes	-0.073265
-3.353705	high	-0.073265
-3.180544	higher	-0.073265
-3.353705	highest	-0.073265
-3.353705	hillary	-0.073265
-3.353705	hip	-0.073265
-3.180544	his	-0.073265
-3.353705	history	-0.073265
-3.353705	holes	-0.073265
-3.112871	home	-0.115662
-3.112871	hong	-0.115662
-3.353705	horrific	-0.073265
-2.833131	hospital	-0.073265
-3.353705	hourly	-0.073265
-3.353705	house	-0.073265
-3.180544	houses	-0.073265
-2.833131	how	-0.098203
-3.112871	hr	-0.115662
-3.353705	hrs	-0.073265
-2.833131	html	-0.073265
-2.664375	http	-0.403515
-3.353705	huge	-0.073265
-3.112871	human	-0.073265
-3.353705	humanity	-0.073265
-3.353705	humongous	-0.073265
-3.353705	husband	-0.073265
-3.353705	hyperexponential	-0.073265
-2.110999	i	-0.104439
-3.180544	idea	-0.073265
-3.112871	if	-0.073265
-3.353705	illegal	-0.073265
-3.353705	imagine	-0.073265
-3.353705	immigrants	-0.073265
-3.180544	immigration	-0.073265
-3.353705	import	-0.073265
-3.353705	importance	-0.073265
-3.353705	imported	-0.073265
-3.353705	improve	-0.073265
-3.353705	improvement	-0.073265
-3.353705	improves	-0.073265
-1.592999	in	-0.256752
-3.353705	included	-0.073265
-3.112871	income	-0.073265
-3.353705	incomes	-0.073265
-2.950857	increase	-0.104668
-3.112871	increased	-0.115662
-3.112871	increasing	-0.115662
-3.180544	increment	-0.073265
-3.180544	india	-0.073265
-3.353705	indian	-0.073265
-3.180544	individual	-0.073265
-3.353705	indonesia	-0.073265
-3.353705	industry	-0.073265
-3.353705	inevitable	-0.073265
-3.353705	infect	-0.073265
-3.353705	infected	-0.073265
-3.353705	information	-0.073265
-3.353705	institutions	-0.073265
-3.353705	international	-0.073265
-2.950857	into	-0.073265
-3.353705	introduced	-0.073265
-3.353705	introduction	-0.073265
-1.821979	is	-0.149221
-3.353705	issues	-0.073265
-2.370806	it	-0.126411
-3.353705	italy	-0.073265
-2.493244	its	-0.073265
-3.353705	itself	-0.073265
-3.353705	j	-0.073265
-3.180544	job	-0.073265
-3.180544	jobs	-0.073265
-3.353705	jostling	-0.073265
-3.180544	jungle	-0.073265
-2.407911	just	-0.083482
-3.353705	keeper	-0.073265
-3.353705	keeps	-0.073265
-3.180544	kenya	-0.073265
-3.353705	kept	-0.073265
-3.353705	key	-0.073265
-3.353705	khartoum	-0.073265
-3.353705	know	-0.073265
-3.353705	kong	-0.073265
-2.833131	labor	-0.073265
-2.950857	laborers	-0.073265
-3.353705	ladders	-0.073265
-3.180544	land	-0.073265
-3.353705	landing	-0.073265
-3.180544	large	-0.073265
-3.180544	larger	-0.073265
-3.353705	largest	-0.073265
-3.353705	lashed	-0.073265
-3.353705	last	-0.073265
-2.950857	later	-0.098203
-3.180544	latin	-0.138520
-3.353705	leads	-0.073265
-3.353705	least	-0.073265
-3.353705	lecture	-0.073265
-3.353705	left	-0.073265
-3.353705	leg	-0.073265
-3.353705	legal	-0.073265
-2.448485	less	-0.433029
-3.353705	let	-0.073265
-3.353705	lets	-0.073265
-3.112871	level	-0.073265
-3.353705	levels	-0.073265
-3.353705	life	-0.073265
-3.112871	like	-0.073265
-3.112871	line	-0.104668
-3.112871	lines	-0.073265
-3.353705	literature	-0.073265
-3.353705	littered	-0.073265
-2.740607	little	-0.173969
-2.664375	live	-0.305510
-3.112871	lived	-0.073265
-3.180544	lives	-0.073265
-3.112871	living	-0.093946
-3.180544	long	-0.073265
-3.112871	look	-0.073265
-3.353705	lost	-0.073265
-3.353705	lot	-0.073265
-3.353705	lung	-0.073265
-3.353705	luxury	-0.073265
-3.112871	made	-0.073265
-3.353705	main	-0.073265
-3.353705	major	-0.073265
-2.833131	make	-0.098203
-3.353705	makes	-0.073265
-3.353705	makeshift	-0.073265
-2.833131	many	-0.093946
-3.353705	market	-0.073265
-3.353705	marrow	-0.073265
-3.353705	mart	-0.073265
-3.353705	mauritania	-0.073265
-3.353705	may	-0.073265
-3.353705	maybe	-0.073265
-3.353705	mcdb	-0.073265
-3.180544	me	-0.073265
-3.180544	means	-0.073265
-3.353705	median	-0.073265
-3.353705	medicines	-0.073265
-3.180544	meg	-0.073265
-3.353705	members	-0.073265
-3.353705	mexico	-0.073265
-3.353705	middle	-0.073265
-3.353705	midterm	-0.073265
-3.353705	might	-0.073265
-3.353705	migrant	-0.073265
-3.353705	milk	-0.073265
-2.275404	million	-0.125973
-3.180544	miners	-0.073265
-3.112871	miracle	-0.073265
-3.180544	misery	-0.104668
-3.353705	misses	-0.073265
-3.353705	missing	-0.073265
-3.353705	mistake	-0.073265
-3.353705	misunderstanding	-0.073265
-3.353705	mixes	-0.073265
-3.353705	modern	-0.073265
-3.353705	money	-0.073265
-3.353705	months	-0.073265
-2.370806	more	-0.357723
-3.112871	most	-0.268565
-3.180544	mostly	-0.073265
-3.112871	mother	-0.073265
-3.353705	mountain	-0.073265
-3.353705	mountains	-0.073265
-3.353705	moved	-0.073265
-3.353705	mrs	-0.073265
-3.353705	ms	-0.073265
-2.664375	much	-0.085555
-3.180544	mud	-0.073265
-3.180544	my	-0.073265
-3.353705	nation	-0.073265
-3.353705	national	-0.073265
-3.353705	natural	-0.073265
-3.353705	near	-0.073265
-3.353705	nearby	-0.073265
-3.353705	need	-0.073265
-3.353705	neglected	-0.073265
-3.353705	nepalese	-0.073265
-2.833131	never	-0.098203
-3.353705	nevertheless	-0.073265
-3.180544	new	-0.138520
-3.112871	news	-0.073265
-3.353705	newsletter	-0.073265
-3.180544	next	-0.073265
-3.180544	nexus	-0.138520
-3.353705	nh	-0.073265
-2.833131	no	-0.073265
-3.353705	none	-0.073265
-3.353705	norkay	-0.073265
-3.353705	north	-0.073265
-2.664375	not	-0.073265
-3.353705	notes	-0.073265
-3.353705	nots	-0.073265
-3.353705	nouakshott	-0.073265
-2.493244	now	-0.073265
-3.353705	npaltsrs	-0.073265
-3.112871	number	-0.115662
-2.950857	numbers	-0.104668
-3.353705	nw	-0.073265
-3.353705	nyrevbooks	-0.073265
-2.599547	nyt	-0.325989
-3.353705	nytimes	-0.073265
-3.353705	o	-0.073265
-3.353705	occur	-0.073265
-3.353705	ocean	-0.073265
-1.488109	of	-0.272429
-3.180544	off	-0.073265
-3.112871	official	-0.073265
-3.353705	oh	-0.073265
-2.950857	old	-0.073265
-3.353705	older	-0.073265
-2.131006	on	-0.232557
-2.543151	one	-0.149486
-3.112871	only	-0.073265
-3.180544	oozing	-0.073265
-3.353705	opponents	-0.073265
-3.112871	optimistic	-0.073265
-2.174015	or	-0.120908
-3.180544	org	-0.073265
-3.353705	organization	-0.073265
-3.353705	orianna	-0.073265
-2.950857	other	-0.073265
-3.353705	others	-0.073265
-3.112871	our	-0.073265
-2.833131	out	-0.098203
-2.664375	over	-0.090930
-3.353705	overpopulation	-0.073265
-3.353705	own	-0.073265
-3.353705	oxygen	-0.073265
-3.180544	p	-0.115662
-3.353705	pa	-0.073265
-3.353705	packages	-0.073265
-3.353705	paid	-0.073265
-3.353705	pair	-0.073265
-3.353705	pakistan	-0.073265
-3.180544	pants	-0.073265
-3.112871	parents	-0.104668
-3.353705	parts	-0.073265
-3.353705	passed	-0.073265
-3.353705	past	-0.073265
-3.180544	pay	-0.073265
-3.353705	paying	-0.073265
-3.180544	pbs	-0.073265
-3.353705	pdf	-0.073265
-3.353705	peak	-0.073265
-3.180544	peasant	-0.073265
-3.353705	pensions	-0.073265
-2.151978	people	-0.188486
-3.353705	percent	-0.073265
-3.180544	percentage	-0.073265
-3.353705	permits	-0.073265
-3.353705	person	-0.073265
-3.353705	perspective	-0.073265
-3.353705	pesticide	-0.073265
-3.353705	phenomenon	-0.073265
-3.353705	pick	-0.073265
-3.353705	pickers	-0.073265
-3.353705	places	-0.073265
-3.353705	planet	-0.073265
-3.353705	plant	-0.073265
-3.353705	plants	-0.073265
-3.180544	point	-0.073265
-3.353705	policemen	-0.073265
-3.353705	policies	-0.073265
-3.353705	politicized	-0.073265
-3.112871	pollution	-0.073265
-2.370806	poor	-0.353198
-3.353705	poorer	-0.073265
-3.353705	poorest	-0.073265
-2.664375	pop	-0.085555
-3.353705	popclock	-0.073265
-2.336623	population	-0.220210
-3.353705	portion	-0.073265
-3.353705	post	-0.073265
-3.353705	pounds	-0.073265
-2.275404	poverty	-0.104668
-3.180544	powder	-0.073265
-3.353705	powdered	-0.073265
-3.353705	prada	-0.073265
-3.353705	prb	-0.073265
-3.353705	precondition	-0.073265
-3.353705	predict	-0.073265
-3.353705	predicting	-0.073265
-3.353705	prepare	-0.073265
-3.353705	present	-0.073265
-3.353705	president	-0.073265
-3.353705	press	-0.073265
-3.180544	prices	-0.073265
-3.353705	primarily	-0.073265
-3.353705	print	-0.073265
-3.353705	probably	-0.073265
-3.112871	problem	-0.104668
-2.950857	problems	-0.104668
-3.353705	process	-0.073265
-3.353705	producers	-0.073265
-3.353705	producing	-0.073265
-3.353705	prof	-0.073265
-3.353705	program	-0.073265
-3.112871	progress	-0.073265
-3.353705	proj	-0.073265
-3.180544	projection	-0.073265
-3.353705	projections	-0.073265
-3.353705	prostitutes	-0.073265
-3.353705	provides	-0.073265
-3.353705	province	-0.073265
-3.353705	public	-0.073265
-3.353705	pus	-0.073265
-3.353705	putting	-0.073265
-3.353705	quadrupling	-0.073265
-3.353705	queen	-0.073265
-3.353705	quiet	-0.073265
-3.353705	rains	-0.073265
-3.353705	rapid	-0.073265
-3.353705	rarely	-0.073265
-2.950857	rate	-0.104668
-3.353705	rather	-0.073265
-3.353705	reach	-0.073265
-3.353705	really	-0.073265
-3.353705	recent	-0.073265
-3.353705	recently	-0.073265
-3.353705	recorded	-0.073265
-3.353705	reduce	-0.073265
-3.353705	references	-0.073265
-3.180544	regions	-0.073265
-3.353705	register	-0.073265
-3.353705	relationship	-0.073265
-3.353705	remain	-0.073265
-3.353705	remember	-0.073265
-3.353705	remembering	-0.073265
-3.353705	remembers	-0.073265
-3.112871	repeat	-0.115662
-3.353705	replace	-0.073265
-3.353705	replacement	-0.073265
-3.353705	report	-0.073265
-3.353705	reported	-0.073265
-3.353705	reports	-0.073265
-3.353705	reproducing	-0.073265
-3.353705	reproductive	-0.073265
-3.180544	require	-0.073265
-2.950857	resources	-0.073265
-3.353705	rest	-0.073265
-3.353705	results	-0.073265
-3.353705	returning	-0.073265
-3.353705	rice	-0.073265
-2.833131	rich	-0.221849
-3.353705	richer	-0.073265
-3.353705	right	-0.073265
-3.112871	rise	-0.073265
-3.180544	rock	-0.073265
-3.353705	rolls	-0.073265
-3.180544	romania	-0.073265
-3.353705	romanian	-0.073265
-3.353705	rooms	-0.073265
-3.353705	roosevelt	-0.073265
-3.353705	ropes	-0.073265
-3.353705	rosen	-0.073265
-3.353705	roughly	-0.073265
-3.180544	row	-0.073265
-3.353705	rule	-0.073265
-3.180544	rw	-0.138520
-3.353705	s	-0.073265
-3.353705	sacks	-0.073265
-3.353705	sahara	-0.073265
-3.353705	saharan	-0.073265
-3.112871	sales	-0.073265
-3.353705	salvador	-0.073265
-3.353705	same	-0.073265
-3.180544	sampans	-0.073265
-3.353705	save	-0.073265
-3.353705	saw	-0.073265
-2.950857	say	-0.268565
-3.353705	says	-0.073265
-3.353705	scale	-0.073265
-3.353705	scarce	-0.073265
-3.353705	scenario	-0.073265
-3.353705	sci	-0.073265
-3.353705	scrap	-0.073265
-3.353705	second	-0.073265
-3.353705	sector	-0.073265
-3.112871	see	-0.073265
-3.180544	seemed	-0.138520
-2.950857	seen	-0.073265
-3.180544	sell	-0.138520
-2.950857	servants	-0.104668
-3.353705	services	-0.073265
-3.353705	set	-0.073265
-3.353705	sets	-0.073265
-3.353705	settlement	-0.073265
-3.353705	several	-0.073265
-3.353705	sharp	-0.073265
-2.493244	she	-0.147472
-3.353705	sheet	-0.073265
-3.353705	sherpa	-0.073265
-3.353705	shouldnt	-0.073265
-3.353705	shudder	-0.073265
-3.353705	shy	-0.073265
-3.353705	sicker	-0.073265
-3.353705	sickly	-0.073265
-3.180544	side	-0.138520
-3.353705	sign	-0.073265
-3.353705	single	-0.073265
-3.353705	sir	-0.073265
-3.353705	siteresources	-0.073265
-3.353705	size	-0.073265
-3.353705	skin	-0.073265
-3.353705	slaves	-0.073265
-2.740607	slide	-0.660724
-3.353705	slowed	-0.073265
-3.353705	slur	-0.073265
-3.353705	small	-0.073265
-3.353705	smaller	-0.073265
-2.543151	so	-0.080905
-3.353705	soft	-0.073265
-3.180544	sold	-0.073265
-2.664375	some	-0.109345
-3.112871	someone	-0.115662
-3.180544	soon	-0.073265
-3.353705	soviet	-0.073265
-3.353705	space	-0.073265
-3.353705	spain	-0.073265
-3.353705	sportswear	-0.073265
-3.353705	sprawled	-0.073265
-3.353705	sprayers	-0.073265
-3.353705	squatter	-0.073265
-3.353705	st	-0.073265
-3.353705	stabilization	-0.073265
-3.353705	stabilize	-0.073265
-3.180544	stabilizes	-0.138520
-3.112871	standard	-0.359694
-3.112871	started	-0.073265
-3.353705	starts	-0.073265
-3.353705	starvation	-0.073265
-3.353705	state	-0.073265
-3.353705	statistics	-0.073265
-3.353705	stays	-0.073265
-3.353705	steel	-0.073265
-3.353705	step	-0.073265
-3.353705	stone	-0.073265
-3.353705	stores	-0.073265
-3.112871	story	-0.073265
-3.353705	strain	-0.073265
-3.353705	street	-0.073265
-3.353705	stress	-0.073265
-3.353705	strife	-0.073265
-3.353705	strings	-0.073265
-3.180544	student	-0.073265
-3.353705	students	-0.073265
-3.353705	sub	-0.073265
-3.353705	such	-0.073265
-3.353705	sudan	-0.073265
-3.180544	suffer	-0.073265
-3.353705	summit	-0.073265
-3.353705	sunday	-0.073265
-3.353705	supplements	-0.073265
-3.353705	sure	-0.073265
-3.353705	survive	-0.073265
-3.353705	survived	-0.073265
-3.353705	sustain	-0.073265
-3.353705	sweatshop	-0.073265
-3.180544	take	-0.073265
-3.180544	taken	-0.115662
-3.180544	taking	-0.073265
-2.950857	tb	-0.073265
-3.353705	technology	-0.073265
-3.353705	technoserve	-0.073265
-3.353705	tell	-0.073265
-3.353705	tents	-0.073265
-3.353705	tenzing	-0.073265
-3.180544	term	-0.073265
-3.353705	terms	-0.073265
-3.353705	territory	-0.073265
-3.353705	th	-0.073265
-2.664375	than	-0.111947
-1.992024	that	-0.159090
-2.833131	thats	-0.073265
-1.581294	the	-0.147740
-2.493244	their	-0.085555
-3.112871	them	-0.073265
-3.180544	then	-0.073265
-2.407911	there	-0.307768
-3.353705	theres	-0.073265
-2.493244	these	-0.082688
-2.174015	they	-0.231976
-3.180544	things	-0.073265
-2.833131	think	-0.073265
-2.407911	this	-0.087760
-3.112871	those	-0.073265
-3.353705	thousands	-0.073265
-3.353705	thresh	-0.073265
-3.353705	threshld	-0.073265
-3.112871	through	-0.115662
-3.353705	thursday	-0.073265
-3.353705	thus	-0.073265
-2.950857	time	-0.073265
-3.353705	times	-0.073265
-3.353705	tipping	-0.073265
-1.692570	to	-0.161860
-3.353705	today	-0.073265
-3.353705	together	-0.073265
-3.112871	told	-0.073265
-2.950857	too	-0.104668
-3.180544	top	-0.073265
-3.353705	tops	-0.073265
-3.353705	total	-0.073265
-3.353705	totaled	-0.073265
-3.353705	toting	-0.073265
-3.353705	towns	-0.073265
-3.353705	toyotas	-0.073265
-3.353705	translates	-0.073265
-3.180544	trash	-0.073265
-3.353705	treated	-0.073265
-3.353705	trees	-0.073265
-3.353705	tremendous	-0.073265
-3.353705	triple	-0.073265
-3.353705	tripling	-0.073265
-3.353705	true	-0.073265
-3.353705	truly	-0.073265
-3.180544	try	-0.138520
-3.353705	tuberculosis	-0.073265
-3.353705	two	-0.073265
-3.353705	txt	-0.073265
-3.353705	type	-0.073265
-3.353705	u	-0.073265
-3.353705	un	-0.073265
-3.112871	under	-0.104668
-3.180544	union	-0.138520
-3.353705	unknown	-0.073265
-3.353705	unplanned	-0.073265
-3.353705	unprecedented	-0.073265
-3.353705	uns	-0.073265
-3.353705	until	-0.073265
-2.543151	up	-0.085555
-3.180544	urban	-0.073265
-2.543151	us	-0.140456
-2.664375	used	-0.260228
-3.180544	usually	-0.073265
-3.353705	utterly	-0.073265
-3.353705	value	-0.073265
-3.353705	vastly	-0.073265
-3.353705	vendors	-0.073265
-3.180544	very	-0.073265
-3.353705	video	-0.073265
-3.353705	village	-0.073265
-3.353705	villages	-0.073265
-3.353705	virtually	-0.073265
-3.353705	visit	-0.073265
-3.353705	visited	-0.073265
-3.353705	vs	-0.073265
-2.833131	w	-0.098203
-2.833131	wages	-0.098203
-2.950857	wal	-0.484632
-3.353705	walking	-0.073265
-3.353705	want	-0.073265
-3.353705	wants	-0.073265
-3.353705	wards	-0.073265
-3.353705	warming	-0.073265
-2.304936	was	-0.084423
-3.353705	waste	-0.073265
-3.353705	water	-0.073265
-3.180544	way	-0.073265
-2.543151	we	-0.135197
-3.353705	weather	-0.073265
-3.112871	week	-0.073265
-3.353705	weeks	-0.073265
-3.180544	well	-0.073265
-3.180544	went	-0.073265
-2.599547	were	-0.117375
-3.353705	werent	-0.073265
-3.180544	western	-0.073265
-3.112871	weve	-0.115662
-3.353705	wfw	-0.073265
-2.740607	what	-0.093946
-3.353705	whats	-0.073265
-2.493244	when	-0.234822
-2.950857	where	-0.073265
-3.353705	whether	-0.073265
-2.950857	which	-0.104668
-3.180544	while	-0.073265
-2.740607	who	-0.073265
-3.180544	why	-0.073265
-3.353705	wife	-0.073265
-3.180544	wildly	-0.073265
-2.407911	will	-0.127818
-3.353705	winter	-0.073265
-2.407911	with	-0.092320
-3.353705	wm	-0.073265
-3.112871	women	-0.073265
-3.353705	wondering	-0.073265
-3.180544	word	-0.073265
-2.740607	work	-0.090930
-3.180544	worked	-0.073265
-3.353705	worker	-0.073265
-2.599547	workers	-0.073265
-3.353705	working	-0.073265
-2.336623	world	-0.195705
-3.353705	worldbank	-0.073265
-3.180544	worlds	-0.073265
-3.180544	worried	-0.073265
-3.353705	worries	-0.073265
-3.112871	worry	-0.359694
-3.353705	worse	-0.073265
-2.493244	would	-0.197033
-3.353705	wrestling	-0.073265
-3.353705	written	-0.073265
-3.112871	www	-0.073265
-2.833131	x	-0.220758
-3.353705	xian	-0.073265
-3.353705	xu	-0.073265
-3.180544	yale	-0.073265
-3.353705	yards	-0.073265
-2.833131	year	-0.073265
-2.664375	years	-0.178930
-2.664375	you	-0.090930
-3.180544	young	-0.073265
-3.180544	younger	-0.073265
-3.353705	your	-0.073265
-3.353705	yousif	-0.073265
-3.180544	youve	-0.073265
-2.599547	yr	-0.085555
-3.180544	yrs	-0.073265
-3.180544	zambia	-0.073265
-3.353705	zoned	-0.073265

\2-grams:
-1.602830	<s> </s>
-2.060636	<s> a	-0.031685
-2.997666	<s> advances	-0.031685
-2.873657	<s> almost	-0.031685
-2.732573	<s> an	-0.031685
-1.918993	<s> and	-0.121496
-2.997666	<s> ann	-0.031685
-2.509143	<s> another	-0.031685
-2.953938	<s> anyone	-0.031685
-2.408398	<s> as	-0.031685
-2.997666	<s> asked	-0.031685
-2.469622	<s> at	-0.031685
-2.416167	<s> billion	-0.121496
-2.997666	<s> brazil	-0.031685
-1.598426	<s> but	-0.059608
-1.951571	<s> by	-0.031685
-2.416167	<s> can	-0.121496
-2.873657	<s> child	-0.031685
-2.774706	<s> china	-0.031685
-2.953938	<s> consumes	-0.031685
-2.997666	<s> description	-0.031685
-2.456764	<s> each	-0.031685
-2.953938	<s> equally	-0.031685
-2.997666	<s> even	-0.031685
-2.933113	<s> fertility	-0.031685
-2.997666	<s> fishermans	-0.031685
-2.873657	<s> food	-0.031685
-2.149516	<s> for	-0.031685
-2.774706	<s> global	-0.031685
-2.953938	<s> graph	-0.031685
-2.933113	<s> hong	-0.031685
-2.821370	<s> how	-0.031685
-2.015951	<s> http	-0.455030
-1.422986	<s> i	-0.074273
-1.209608	<s> in	-0.046693
-2.997666	<s> indonesia	-0.031685
-2.087063	<s> is	-0.031685
-2.540916	<s> it	-0.031685
-1.993414	<s> its	-0.031685
-2.953938	<s> kenya	-0.031685
-2.478580	<s> later	-0.031685
-2.997666	<s> let	-0.031685
-2.997666	<s> lets	-0.031685
-2.774706	<s> little	-0.031685
-2.933113	<s> look	-0.031685
-2.821370	<s> many	-0.031685
-2.997666	<s> mcdb	-0.031685
-2.469622	<s> million	-0.031685
-2.953938	<s> miners	-0.031685
-2.047945	<s> most	-0.089451
-2.997666	<s> natural	-0.031685
-2.997666	<s> nevertheless	-0.031685
-2.997666	<s> nouakshott	-0.031685
-1.817330	<s> now	-0.031685
-2.008308	<s> nyt	-0.031685
-1.459905	<s> of	-0.065415
-2.933113	<s> official	-0.031685
-2.193632	<s> on	-0.031685
-2.217493	<s> or	-0.031685
-2.732573	<s> over	-0.031685
-2.953938	<s> pbs	-0.031685
-2.997666	<s> places	-0.031685
-2.540916	<s> poor	-0.031685
-2.997666	<s> primarily	-0.031685
-2.933113	<s> repeat	-0.031685
-2.953938	<s> romania	-0.031685
-2.933113	<s> see	-0.031685
-2.626257	<s> she	-0.031685
-2.774706	<s> slide	-0.031685
-1.518755	<s> so	-0.055508
-2.997666	<s> squatter	-0.031685
-2.524344	<s> sub	-0.121496
-2.997666	<s> sudan	-0.031685
-2.109471	<s> that	-0.031685
-2.031653	<s> thats	-0.031685
-0.875745	<s> the	-0.038225
-2.217493	<s> they	-0.031685
-1.685135	<s> this	-0.065415
-2.997666	<s> thus	-0.031685
-1.968566	<s> to	-0.031685
-2.997666	<s> toyotas	-0.031685
-2.997666	<s> un	-0.031685
-2.501550	<s> under	-0.031685
-2.997666	<s> until	-0.031685
-1.598426	<s> us	-0.234858
-2.997666	<s> virtually	-0.031685
-2.821370	<s> wages	-0.031685
-2.478580	<s> wal	-0.121496
-1.598426	<s> we	-0.193695
-2.953938	<s> well	-0.031685
-1.817330	<s> when	-0.074273
-2.873657	<s> where	-0.031685
-2.953938	<s> why	-0.031685
-2.732573	<s> you	-0.031685
-2.953938	<s> youve	-0.031685
-2.590491	a age	-0.031685
-2.590491	a bag	-0.031685
-2.590491	a bee	-0.031685
-2.481067	a better	-0.031685
-2.564930	a bit	-0.031685
-2.564930	a british	-0.031685
-2.515264	a child	-0.031685
-2.590491	a city	-0.031685
-2.590491	a combination	-0.031685
-1.075666	a day	-0.046693
-2.590491	a doubling	-0.031685
-2.564930	a factor	-0.031685
-2.590491	a factual	-0.031685
-2.515264	a family	-0.121496
-1.403931	a few	-0.031685
-2.035306	a global	-0.031685
-2.084421	a good	-0.031685
-2.590491	a govt	-0.031685
-2.564930	a half	-0.031685
-2.590491	a hammer	-0.031685
-2.564930	a higher	-0.031685
-2.590491	a hip	-0.031685
-2.590491	a huge	-0.031685
-2.590491	a humongous	-0.031685
-2.564930	a job	-0.031685
-2.076287	a large	-0.031685
-2.035306	a little	-0.031685
-2.084421	a lot	-0.031685
-2.590491	a lung	-0.031685
-2.481067	a make	-0.031685
-2.590491	a nepalese	-0.031685
-2.590491	a pair	-0.031685
-1.959793	a poor	-0.121496
-2.590491	a precondition	-0.031685
-2.590491	a prof	-0.031685
-2.590491	a scenario	-0.031685
-2.084421	a single	-0.031685
-2.590491	a slur	-0.031685
-2.590491	a smaller	-0.031685
-2.590491	a soft	-0.031685
-2.072175	a story	-0.031685
-2.590491	a sweatshop	-0.031685
-2.590491	a tipping	-0.031685
-2.590491	a tremendous	-0.031685
-2.084421	a tripling	-0.031685
-2.590491	a true	-0.031685
-2.515264	a wal	-0.031685
-2.552384	a week	-0.031685
-2.564930	a while	-0.031685
-2.564930	a wildly	-0.031685
-2.392167	a yr	-0.031685
-0.796650	abandoned by	-0.031685
-0.796650	abject poverty	-0.031685
-1.695886	about a	-0.031685
-1.461375	about both	-0.121496
-2.000469	about decided	-0.031685
-1.904443	about it	-0.031685
-2.000469	about maybe	-0.031685
-1.994399	about my	-0.031685
-1.896639	about population	-0.121496
-0.606271	about the	-0.031685
-1.912389	about this	-0.031685
-1.641045	about to	-0.031685
-1.972498	about x	-0.031685
-0.801483	above its	-0.031685
-0.807189	absolute number	-0.031685
-0.807962	absolutely unprecedented	-0.031685
-0.807189	acre most	-0.031685
-0.805551	acres thats	-0.031685
-0.751073	across the	-0.031685
-0.807962	actual figure	-0.031685
-0.772506	actually a	-0.031685
-1.283000	added americans	-0.031685
-1.275840	added each	-0.121496
-1.238835	added people	-0.031685
-0.705910	adulthood </s>
-0.752517	advances in	-0.031685
-0.978508	africa of	-0.031685
-1.098312	africa yr	-0.031685
-1.410596	after a	-0.031685
-1.493349	after i	-0.031685
-1.578328	after row	-0.031685
-1.467542	after that	-0.031685
-0.950186	after the	-0.031685
-0.807451	age percentage	-0.031685
-0.774784	air is	-0.031685
-1.744419	all developing	-0.031685
-1.744419	all eventually	-0.031685
-1.081593	all of	-0.031685
-0.686922	all the	-0.031685
-1.755705	all together	-0.031685
-1.750195	all women	-0.031685
-0.752517	allowed in	-0.031685
-0.858482	almost all	-0.031685
-1.407191	almost certainly	-0.031685
-1.407191	almost inevitable	-0.031685
-0.807962	alone banda	-0.031685
-1.029937	already </s>
-1.281476	already gone	-0.031685
-1.281476	already suffer	-0.031685
-1.500250	also calculates	-0.031685
-1.483111	also get	-0.031685
-1.475398	also has	-0.031685
-1.498960	also increased	-0.031685
-1.494943	also seen	-0.031685
-0.807962	always paid	-0.031685
-0.845783	am i	-0.031685
-1.392428	am not	-0.031685
-1.405304	am p	-0.031685
-0.805551	amazing how	-0.031685
-1.169327	america and	-0.031685
-1.252345	america have	-0.031685
-1.190621	america is	-0.031685
-0.705910	american </s>
-0.805551	americans each	-0.031685
-0.807962	among others	-0.031685
-0.738282	amount of	-0.031685
-1.646840	an acre	-0.031685
-1.646840	an army	-0.031685
-1.646840	an auto	-0.031685
-1.646840	an example	-0.031685
-1.635965	an increase	-0.031685
-1.643324	an increment	-0.031685
-1.643324	an individual	-0.031685
-1.824577	and a	-0.031685
-2.348242	and all	-0.031685
-2.467392	and almost	-0.031685
-2.503094	and around	-0.031685
-2.178018	and at	-0.031685
-2.539618	and catching	-0.031685
-2.375107	and children	-0.031685
-2.539618	and civil	-0.031685
-2.515134	and continue	-0.031685
-2.539618	and discarded	-0.031685
-2.539618	and eastern	-0.031685
-2.007984	and eventually	-0.031685
-2.539618	and every	-0.031685
-2.539618	and fed	-0.031685
-2.467392	and food	-0.031685
-2.539618	and fuel	-0.031685
-2.467392	and full	-0.031685
-2.503094	and green	-0.031685
-2.322943	and her	-0.031685
-2.515134	and his	-0.031685
-1.825960	and i	-0.031685
-2.515134	and india	-0.031685
-2.299037	and its	-0.031685
-2.178018	and million	-0.031685
-2.539618	and mistake	-0.031685
-2.539618	and neglected	-0.031685
-1.833858	and on	-0.031685
-2.467392	and other	-0.031685
-2.539618	and overpopulation	-0.031685
-2.539618	and pensions	-0.031685
-2.097873	and people	-0.031685
-2.503094	and pollution	-0.031685
-2.539618	and pounds	-0.031685
-2.539618	and rapid	-0.031685
-2.515134	and regions	-0.031685
-2.299037	and she	-0.031685
-2.375107	and some	-0.031685
-2.539618	and spain	-0.031685
-2.539618	and tents	-0.031685
-2.539618	and tenzing	-0.031685
-1.012730	and the	-0.031685
-2.254843	and there	-0.031685
-2.112763	and they	-0.031685
-2.515134	and try	-0.031685
-2.195988	and was	-0.031685
-2.403744	and what	-0.031685
-2.299037	and when	-0.031685
-2.254843	and will	-0.031685
-2.214734	and world	-0.031685
-2.299037	and would	-0.031685
-2.515134	and younger	-0.031685
-2.348242	and yr	-0.031685
-2.515134	and yrs	-0.031685
-0.807451	ann increment	-0.031685
-0.807189	annual sales	-0.031685
-1.271039	another billion	-0.031685
-1.241058	another or	-0.031685
-1.275840	another rich	-0.031685
-1.281476	any individual	-0.031685
-1.256944	any more	-0.031685
-1.283000	any statistics	-0.031685
-0.561596	anyone who	-0.031685
-1.283000	anything else	-0.031685
-1.134839	anything in	-0.031685
-1.219326	anything that	-0.031685
-0.802293	ap us	-0.031685
-0.807962	apparel industry	-0.031685
-0.788714	appropriate for	-0.031685
-0.807189	approx equal	-0.031685
-1.745068	are a	-0.031685
-2.198247	are between	-0.031685
-2.204079	are called	-0.031685
-2.204079	are closer	-0.031685
-2.204079	are dead	-0.031685
-2.180464	are developing	-0.031685
-2.215681	are expecting	-0.031685
-2.215681	are exploding	-0.031685
-1.402143	are in	-0.031685
-2.215681	are jostling	-0.031685
-2.072968	are less	-0.031685
-2.198247	are made	-0.031685
-2.009778	are million	-0.031685
-2.131106	are much	-0.031685
-2.131106	are not	-0.031685
-0.991181	are now	-0.031685
-2.163380	are rich	-0.031685
-2.215681	are right	-0.031685
-2.101065	are so	-0.031685
-2.131106	are some	-0.031685
-2.204079	are taking	-0.031685
-2.215681	are thousands	-0.031685
-2.180464	are too	-0.031685
-0.799866	area just	-0.031685
-0.785580	argues that	-0.031685
-1.103152	argument also	-0.031685
-1.099919	argument over	-0.031685
-0.738282	army of	-0.031685
-1.169327	around and	-0.031685
-1.281476	around asia	-0.031685
-1.283000	around guangzhou	-0.031685
-0.797452	article was	-0.031685
-0.853571	as a	-0.031685
-2.045350	as an	-0.031685
-2.071192	as better	-0.031685
-2.112231	as earning	-0.031685
-2.084714	as laborers	-0.031685
-2.103219	as latin	-0.031685
-1.997866	as less	-0.031685
-2.071192	as many	-0.031685
-2.112231	as members	-0.031685
-2.045350	as much	-0.031685
-1.906891	as or	-0.031685
-2.112231	as producers	-0.031685
-2.112231	as prostitutes	-0.031685
-2.112231	as romanian	-0.031685
-2.098670	as sales	-0.031685
-2.084714	as servants	-0.031685
-2.103219	as young	-0.031685
-2.103219	as youve	-0.031685
-0.807962	ascent sir	-0.031685
-0.923682	asia </s>
-1.000994	asia the	-0.031685
-0.807189	asked around	-0.031685
-0.807962	assembly plants	-0.031685
-1.106408	assets sales	-0.031685
-1.107950	assets totaled	-0.031685
-0.807962	assoc press	-0.031685
-0.705910	associates </s>
-0.785580	assumption that	-0.031685
-0.799060	assumptions it	-0.031685
-1.371677	at a	-0.031685
-1.965549	at an	-0.031685
-1.965549	at day	-0.031685
-1.995584	at home	-0.031685
-1.965549	at http	-0.031685
-0.773851	at least	-0.065415
-1.998072	at prices	-0.031685
-0.612259	at the	-0.031685
-0.807962	atlantic ocean	-0.031685
-0.807962	attendant evils	-0.031685
-1.101533	authorities who	-0.031685
-1.095116	authorities would	-0.031685
-0.807962	auto plant	-0.031685
-0.785580	available that	-0.031685
-1.526307	average about	-0.031685
-1.580924	average american	-0.031685
-1.580924	average farm	-0.031685
-1.576360	average income	-0.031685
-1.576360	average standard	-0.031685
-1.501257	average they	-0.031685
-1.280696	back home	-0.031685
-1.161835	back to	-0.031685
-1.266289	back up	-0.031685
-0.802293	bacteria had	-0.031685
-1.070356	bad for	-0.031685
-1.095116	bad now	-0.031685
-0.806369	bag which	-0.031685
-0.796650	ball at	-0.031685
-0.807962	banda beats	-0.031685
-1.107950	bank defines	-0.031685
-1.091943	bank from	-0.031685
-0.807451	bare hand	-0.031685
-0.807962	barely budged	-0.031685
-0.923682	base </s>
-1.044092	base is	-0.031685
-0.799866	basis this	-0.031685
-1.341830	be a	-0.031685
-2.022298	be careful	-0.031685
-2.014133	be closer	-0.031685
-2.022298	be doing	-0.031685
-2.022298	be dumped	-0.031685
-2.014133	be going	-0.031685
-1.517957	be in	-0.031685
-2.022298	be included	-0.031685
-1.897244	be more	-0.031685
-1.997317	be servants	-0.121496
-2.022298	be sickly	-0.031685
-2.014133	be sold	-0.031685
-2.022298	be sure	-0.031685
-2.014133	be taken	-0.089451
-1.961336	be used	-0.031685
-2.014133	be worried	-0.031685
-0.807451	beats rock	-0.031685
-0.883758	because </s>
-1.545769	because its	-0.121496
-1.545769	because she	-0.031685
-1.327940	because the	-0.031685
-1.576856	because weve	-0.031685
-0.807962	bed dormitory	-0.031685
-0.807962	bee keeper	-0.031685
-1.106408	been made	-0.031685
-1.096711	been one	-0.031685
-1.000994	before the	-0.031685
-1.095116	before their	-0.031685
-0.763508	began to	-0.031685
-0.807189	behind them	-0.031685
-0.766487	benefits and	-0.031685
-0.799866	bethany just	-0.031685
-1.483111	better over	-0.031685
-1.500250	better pay	-0.031685
-1.483111	better than	-0.031685
-1.475398	better us	-0.031685
-1.500250	better word	-0.031685
-0.706540	between and	-0.031685
-1.281906	between chinas	-0.031685
-1.106930	big british	-0.031685
-1.103152	big hospital	-0.031685
-1.085665	bill by	-0.031685
-1.003566	bill in	-0.031685
-1.258360	billion </s>
-1.457925	billion and	-0.031685
-1.613889	billion its	-0.031685
-0.608919	billion people	-0.031685
-1.645534	billion young	-0.031685
-1.106930	bit off	-0.031685
-1.107950	bit older	-0.031685
-0.805551	blocker html	-0.031685
-0.807189	blue line	-0.031685
-0.923682	boats </s>
-1.106930	boats sampans	-0.031685
-1.076415	bodies on	-0.031685
-1.023356	bodies to	-0.031685
-0.806369	bolt which	-0.031685
-0.705910	bombay </s>
-0.807962	bone marrow	-0.031685
-0.706540	bones and	-0.089451
-1.146886	bones in	-0.031685
-0.795052	border are	-0.031685
-0.923682	both </s>
-1.101533	both china	-0.031685
-0.738282	bottles of	-0.031685
-1.107950	boy alone	-0.031685
-1.099919	boy children	-0.031685
-0.807189	brands like	-0.031685
-0.803919	brazil pop	-0.031685
-0.807451	breaths climbers	-0.031685
-0.752517	brief in	-0.579968
-1.107950	british dr	-0.031685
-1.103152	british hospital	-0.031685
-0.752517	brought in	-0.031685
-0.796650	brutal poverty	-0.031685
-0.751073	budged the	-0.031685
-0.751073	build the	-0.031685
-1.106930	bull chinas	-0.031685
-1.106930	bull rw	-0.031685
-1.107950	bureau proj	-0.031685
-1.099919	bureau used	-0.031685
-1.789697	but by	-0.031685
-1.845999	but has	-0.031685
-1.487051	but in	-0.031685
-1.342403	but it	-0.031685
-1.837495	but now	-0.031685
-1.903969	but pay	-0.031685
-1.350559	but she	-0.031685
-1.820971	but there	-0.031685
-1.760524	but they	-0.031685
-1.797307	but was	-0.031685
-1.845999	but we	-0.031685
-0.807962	buy rice	-0.031685
-1.169141	by </s>
-1.677914	by a	-0.031685
-1.632939	by and	-0.031685
-1.916593	by at	-0.031685
-2.090150	by donkey	-0.031685
-1.995119	by her	-0.031685
-2.047319	by how	-0.031685
-1.850115	by i	-0.031685
-1.948526	by it	-0.031685
-2.080730	by large	-0.031685
-1.499424	by million	-0.031685
-1.948526	by more	-0.031685
-2.075977	by only	-0.031685
-1.948526	by poor	-0.031685
-1.533175	by the	-0.031685
-2.090150	by thursday	-0.031685
-1.612086	by to	-0.031685
-2.090150	by vastly	-0.031685
-0.705910	calamity </s>
-0.799866	calc from	-0.121496
-0.552074	calculates that	-0.121496
-0.801483	call these	-0.121496
-1.070356	called for	-0.031685
-1.000994	called the	-0.031685
-0.801483	calls these	-0.031685
-1.404368	came down	-0.031685
-0.363193	came to	-0.074273
-1.733088	can also	-0.031685
-1.753931	can fill	-0.031685
-1.719466	can get	-0.031685
-1.719466	can live	-0.031685
-1.753931	can present	-0.031685
-1.749437	can require	-0.031685
-1.747151	can see	-0.121496
-1.749437	can sell	-0.031685
-1.404483	can the	-0.121496
-0.807189	cant back	-0.031685
-0.807962	canton closed	-0.031685
-0.807962	carbine toting	-0.031685
-0.807962	careful mixes	-0.031685
-0.752517	carried in	-0.031685
-0.802293	catching up	-0.031685
-0.738282	celebration of	-0.031685
-1.107950	census bureau	-0.031685
-1.107950	census gov	-0.031685
-0.772506	cents a	-0.031685
-0.799866	century with	-0.031685
-0.803919	certainly get	-0.031685
-0.788714	change for	-0.031685
-0.807962	chapter newsletter	-0.031685
-0.799866	chatting with	-0.031685
-0.861066	child labor	-0.031685
-1.383703	child she	-0.031685
-1.389500	child workers	-0.031685
-1.077358	children and	-0.031685
-1.692131	children eventually	-0.031685
-1.499099	children is	-0.031685
-1.668480	children nyt	-0.031685
-1.674273	children some	-0.031685
-1.389497	children the	-0.031685
-1.680144	children who	-0.031685
-1.001298	china </s>
-1.121106	china and	-0.031685
-1.657504	china are	-0.031685
-1.685663	china it	-0.031685
-1.366518	china of	-0.031685
-1.709583	china one	-0.031685
-1.674179	china was	-0.031685
-1.107950	chinas demog	-0.031685
-1.106408	chinas progress	-0.031685
-1.281476	chinese peasant	-0.031685
-1.238835	chinese people	-0.031685
-1.268657	chinese workers	-0.031685
-0.738282	cities of	-0.031685
-0.738282	city of	-0.031685
-0.807962	civil strife	-0.031685
-0.923682	class </s>
-1.104777	class where	-0.031685
-0.802293	clay up	-0.031685
-0.751073	cleaner the	-0.031685
-0.807962	clearly werent	-0.031685
-0.803919	climb over	-0.031685
-1.082560	climbers are	-0.031685
-1.091943	climbers there	-0.031685
-0.807451	climbing everest	-0.031685
-0.752517	closed in	-0.031685
-0.540840	closer to	-0.031685
-0.752517	closing in	-0.031685
-0.807189	clothing factory	-0.031685
-0.807962	co producing	-0.031685
-0.807962	coffee pickers	-0.031685
-0.807962	cohen sci	-0.031685
-0.774784	coin is	-0.031685
-0.705910	col </s>
-1.107950	collapse during	-0.031685
-0.978508	collapse of	-0.031685
-0.807962	com packages	-0.031685
-0.738282	combination of	-0.031685
-1.104777	come down	-0.031685
-1.107950	come forward	-0.031685
-0.806369	comes down	-0.031685
-0.923682	communities </s>
-1.107950	communities sprawled	-0.031685
-0.803106	compensates workers	-0.031685
-0.705910	concrete </s>
-0.807189	consider environmental	-0.031685
-0.799060	considerably more	-0.031685
-0.807962	considered globally	-0.031685
-0.805551	considers wages	-0.031685
-0.752517	constant in	-0.031685
-0.803106	construction workers	-0.031685
-1.099919	consume an	-0.031685
-1.093526	consume less	-0.031685
-0.923682	consumes </s>
-1.088792	consumes about	-0.031685
-0.806369	consuming too	-0.031685
-1.183547	consumption </s>
-1.581212	consumption approx	-0.031685
-1.020894	consumption by	-0.031685
-1.420118	consumption is	-0.031685
-1.581212	consumption leads	-0.031685
-0.796650	contained by	-0.031685
-1.101533	continue because	-0.031685
-1.107950	continue growing	-0.031685
-0.559196	cope with	-0.031685
-1.103152	coped w	-0.031685
-1.091943	coped with	-0.031685
-0.806369	correctly am	-0.031685
-0.752517	costs in	-0.031685
-0.803106	could be	-0.031685
-0.803919	couldnt get	-0.031685
-0.777486	countries </s>
-1.582866	countries and	-0.031685
-1.783942	countries are	-0.031685
-1.905301	countries consume	-0.031685
-1.867518	countries http	-0.031685
-1.507205	countries in	-0.031685
-1.633563	countries is	-0.031685
-1.851077	countries one	-0.031685
-1.867518	countries pop	-0.031685
-1.911026	countries state	-0.031685
-1.827527	countries will	-0.031685
-1.094730	country </s>
-1.404874	country consumes	-0.031685
-1.406901	country sets	-0.031685
-1.397403	country wages	-0.031685
-1.029937	course </s>
-1.234423	course i	-0.031685
-1.190621	course is	-0.031685
-0.751073	covered the	-0.031685
-0.807962	create makeshift	-0.031685
-0.807962	creation program	-0.031685
-0.796650	crossed million	-0.031685
-0.807962	crystal ball	-0.031685
-0.807189	current level	-0.031685
-0.798255	d world	-0.031685
-0.807189	daily news	-0.031685
-0.807189	dashed lines	-0.031685
-1.243292	data as	-0.031685
-1.283000	data sheet	-0.455030
-1.271039	data you	-0.031685
-1.106408	daughter back	-0.031685
-1.106930	daughter went	-0.031685
-0.793601	day </s>
-1.934858	day as	-0.031685
-1.961693	day at	-0.031685
-2.053861	day billion	-0.031685
-2.114246	day considerably	-0.031685
-2.106163	day gets	-0.031685
-1.366553	day in	-0.031685
-1.758960	day is	-0.031685
-1.085513	day nyt	-0.234859
-1.516172	day or	-0.455030
-2.114246	day person	-0.031685
-2.053861	day pop	-0.031685
-2.114246	day technoserve	-0.031685
-1.926269	day they	-0.031685
-1.273433	days after	-0.031685
-1.275840	days many	-0.031685
-1.263934	days when	-0.031685
-0.563180	dead bodies	-0.031685
-0.806369	death rate	-0.031685
-0.806369	dec resources	-0.579968
-0.806369	decades old	-0.031685
-0.803919	decided not	-0.031685
-0.804734	declining because	-0.031685
-1.106930	deep jungle	-0.031685
-1.085665	deep poverty	-0.031685
-0.794254	defined as	-0.031685
-0.796650	defines poverty	-0.031685
-0.738282	definition of	-0.031685
-0.799060	delete it	-0.031685
-0.806369	demog problems	-0.031685
-0.798255	dense population	-0.031685
-0.738282	depletion of	-0.031685
-1.107950	described life	-0.031685
-1.091943	described with	-0.031685
-0.738282	description of	-0.031685
-1.094730	desert </s>
-1.357747	desert are	-0.031685
-1.219155	desert in	-0.031685
-1.406901	desert rolls	-0.031685
-0.738282	destruction of	-0.031685
-0.803106	developed countries	-0.031685
-0.469270	developing countries	-0.031685
-1.504277	developing fast	-0.031685
-1.470941	developing world	-0.031685
-0.791080	did i	-0.031685
-0.752517	die in	-0.031685
-0.527658	died of	-0.031685
-0.806369	different problems	-0.031685
-0.793459	disaster or	-0.031685
-0.807451	discarded trash	-0.031685
-0.751073	discuss the	-0.031685
-0.791871	discussed on	-0.031685
-0.796650	discussing poverty	-0.031685
-0.802293	disease but	-0.031685
-0.806369	divide wal	-0.031685
-0.803919	do you	-0.031685
-1.106930	doesnt come	-0.031685
-1.087226	doesnt have	-0.031685
-0.803106	doing all	-0.031685
-0.799866	donkey there	-0.031685
-0.797452	dont have	-0.031685
-0.807962	dormitory rooms	-0.031685
-1.094730	double </s>
-1.354842	double as	-0.031685
-1.219155	double in	-0.031685
-1.214938	double the	-0.031685
-0.738282	doubling of	-0.031685
-1.094730	down </s>
-1.252160	down to	-0.031685
-1.397403	down w	-0.031685
-1.375601	down with	-0.031685
-0.807451	dr worked	-0.031685
-0.791871	drain on	-0.031685
-0.705910	drains </s>
-0.796650	dumped at	-0.031685
-0.751073	during the	-0.031685
-0.807189	dutkas mother	-0.031685
-0.807962	e u	-0.031685
-1.578943	each country	-0.031685
-1.557405	each one	-0.031685
-1.578943	each week	-0.031685
-0.548937	each year	-0.031685
-1.403577	earn a	-0.031685
-1.526307	earn about	-0.031685
-1.580924	earn cents	-0.031685
-1.576360	earn hr	-0.031685
-1.539396	earn less	-0.031685
-1.580924	earn working	-0.031685
-0.800674	earning less	-0.031685
-0.800674	earns less	-0.031685
-1.239936	earth </s>
-1.654413	earth are	-0.031685
-1.749859	earth cope	-0.031685
-1.707918	earth has	-0.031685
-1.418571	earth in	-0.031685
-1.528976	earth is	-0.031685
-1.754217	earth sustain	-0.031685
-1.160996	earth that	-0.031685
-1.280696	earths environment	-0.031685
-1.238835	earths people	-0.031685
-1.278261	earths resources	-0.031685
-0.807451	eastern europe	-0.031685
-0.801483	eaten its	-0.031685
-0.807189	economic miracle	-0.031685
-0.756371	economy </s>
-1.407191	economy improves	-0.031685
-1.377983	economy will	-0.031685
-0.807962	edmind hillary	-0.031685
-0.807189	either worry	-0.031685
-0.807962	el salvador	-0.031685
-0.766487	electricity and	-0.031685
-0.805551	elizabeth hospital	-0.031685
-0.791080	ellen i	-0.031685
-0.791080	else i	-0.031685
-0.798255	embarrassed about	-0.031685
-0.751073	embellishing the	-0.031685
-1.003566	end in	-0.031685
-0.978508	end of	-0.031685
-0.738282	ends of	-0.031685
-1.107950	english literature	-0.031685
-1.107950	english pdf	-0.304995
-0.802293	enough so	-0.031685
-1.107950	enter adulthood	-0.031685
-1.095116	enter their	-0.031685
-0.801483	entering their	-0.031685
-0.798255	entire world	-0.031685
-1.029937	environment </s>
-1.280696	environment already	-0.031685
-1.283000	environment available	-0.031685
-0.249134	environmental misery	-0.031685
-0.242572	equal to	-0.089451
-1.106930	equally bad	-0.031685
-1.106408	equally someone	-0.031685
-0.738282	equivalent of	-0.031685
-0.751073	estimate the	-0.031685
-1.048321	etc </s>
-0.738578	etc etc	-0.031685
-1.106930	europe higher	-0.031685
-1.106930	europe mostly	-0.031685
-0.807962	even worse	-0.031685
-1.494943	eventually came	-0.031685
-1.494943	eventually found	-0.031685
-1.500250	eventually stabilizes	-0.031685
-1.471592	eventually when	-0.031685
-1.479237	eventually yr	-0.031685
-1.044092	ever is	-0.031685
-1.107950	ever recorded	-0.031685
-1.003566	everest in	-0.031685
-1.044092	everest is	-0.031685
-0.807962	every scrap	-0.031685
-0.799866	everyone will	-0.031685
-0.791080	everything i	-0.031685
-1.076415	everywhere on	-0.031685
-1.091943	everywhere there	-0.031685
-0.785580	evils that	-0.031685
-0.793459	exaggerating or	-0.031685
-0.791080	exam i	-0.031685
-0.799060	example it	-0.031685
-1.028790	exception and	-0.031685
-1.070356	exception for	-0.031685
-0.807451	excess girl	-0.031685
-0.763508	expecting to	-0.031685
-1.003566	expeditions in	-0.031685
-1.091943	expeditions just	-0.031685
-0.705910	exploding </s>
-1.138819	explosion </s>
-1.487019	explosion because	-0.031685
-1.358773	explosion is	-0.031685
-1.401741	explosion that	-0.031685
-1.483111	explosion used	-0.031685
-1.096711	exponential but	-0.031685
-1.096711	exponential growth	-0.031685
-0.978508	factor of	-0.031685
-1.095116	factor when	-0.031685
-0.752517	factories in	-0.031685
-1.283000	factory closing	-0.031685
-1.283000	factory imported	-0.031685
-1.283000	factory paying	-0.031685
-0.805551	facts html	-0.031685
-0.807962	factual basis	-0.031685
-0.807962	fall winter	-0.031685
-1.442290	families are	-0.031685
-1.490963	families earn	-0.031685
-1.431793	families people	-0.031685
-1.502776	families slaves	-0.031685
-1.317013	families to	-0.031685
-1.391061	family can	-0.031685
-1.406901	family house	-0.031685
-1.343410	family i	-0.031685
-1.178721	family of	-0.031685
-0.807451	far gone	-0.031685
-0.807962	farm size	-0.031685
-0.766487	fast and	-0.031685
-0.803919	faster than	-0.031685
-0.766487	father and	-0.031685
-0.807962	feature blocker	-0.031685
-0.763508	fed to	-0.031685
-0.799866	fell from	-0.031685
-1.283000	fertility comes	-0.031685
-1.281476	fertility doesnt	-0.031685
-1.275840	fertility thats	-0.031685
-1.502776	few carbine	-0.031685
-1.498960	few days	-0.031685
-1.502776	few months	-0.031685
-1.502776	few students	-0.031685
-1.502776	few weeks	-0.031685
-0.793459	fields or	-0.031685
-0.705910	fig </s>
-0.807962	figure could	-0.031685
-0.806369	figures say	-0.031685
-0.772506	fill a	-0.031685
-0.807189	finding living	-0.031685
-1.107950	first introduction	-0.031685
-1.044092	first is	-0.031685
-0.807451	fishermans boats	-0.031685
-0.807962	fixed ropes	-0.031685
-0.705910	flatter </s>
-0.807451	foggiest idea	-0.031685
-1.261403	food and	-0.031685
-1.287882	food is	-0.031685
-1.406901	food supplements	-0.031685
-1.381719	food would	-0.031685
-0.807962	foot references	-0.031685
-0.803919	footstep can	-0.031685
-0.765451	for a	-0.059608
-2.249861	for acres	-0.031685
-2.161235	for all	-0.031685
-2.234556	for any	-0.031685
-2.249861	for everyone	-0.031685
-2.239684	for gm	-0.031685
-2.249861	for hrs	-0.031685
-1.676855	for in	-0.031685
-1.835209	for is	-0.031685
-2.135054	for its	-0.031685
-2.218868	for later	-0.031685
-2.249861	for luxury	-0.031685
-2.098523	for more	-0.031685
-2.013899	for people	-0.031685
-0.843616	for the	-0.031685
-2.135054	for their	-0.031685
-2.135054	for these	-0.031685
-2.110362	for this	-0.031685
-2.249861	for trees	-0.031685
-2.218868	for wal	-0.031685
-0.752517	forward in	-0.031685
-1.288437	found a	-0.031685
-1.405304	found everywhere	-0.031685
-0.861066	found out	-0.121496
-0.807189	fpia news	-0.031685
-0.738282	fraction of	-0.031685
-0.806369	fragments into	-0.031685
-1.876375	from ap	-0.031685
-1.876375	from brutal	-0.031685
-1.841637	from china	-0.031685
-1.867822	from data	-0.031685
-1.876375	from fujian	-0.031685
-1.474983	from in	-0.031685
-1.786059	from poor	-0.031685
-1.176275	from the	-0.031685
-1.208562	from to	-0.031685
-1.778669	from world	-0.121496
-0.807962	fuel process	-0.031685
-0.807962	fujian province	-0.031685
-0.795417	full of	-0.031685
-0.862140	full time	-0.031685
-1.029937	future </s>
-1.101272	future of	-0.031685
-1.280696	future repeat	-0.031685
-0.799866	gamble with	-0.031685
-0.807451	gambling wildly	-0.031685
-0.772506	gave a	-0.031685
-1.106930	gdp assets	-0.031685
-0.978508	gdp of	-0.031685
-0.807962	general rule	-0.031685
-0.705910	generation </s>
-1.575584	get for	-0.031685
-1.692131	get full	-0.031685
-1.692131	get into	-0.031685
-1.674273	get much	-0.031685
-1.704091	get sicker	-0.031685
-1.071496	get to	-0.031685
-1.700221	get worried	-0.031685
-0.545453	gets a	-0.031685
-1.103152	getting better	-0.031685
-1.106930	getting larger	-0.031685
-1.088792	girl about	-0.031685
-1.099919	girl children	-0.031685
-1.478648	girls and	-0.031685
-1.749437	girls died	-0.031685
-1.411025	girls in	-0.031685
-1.640029	girls or	-0.031685
-1.753931	girls orianna	-0.031685
-1.587495	girls that	-0.031685
-1.404483	girls the	-0.031685
-1.712812	girls were	-0.031685
-1.699803	girls would	-0.031685
-0.807189	give them	-0.031685
-1.642027	global economy	-0.031685
-1.087445	global population	-0.031685
-1.642027	global problem	-0.031685
-1.636674	global problems	-0.031685
-1.647127	global scale	-0.031685
-1.647127	global warming	-0.031685
-0.705910	globally </s>
-1.107950	gm compensates	-0.031685
-1.106930	gm union	-0.031685
-0.807189	go back	-0.121496
-1.278261	going down	-0.031685
-1.161835	going to	-0.031685
-1.266289	going up	-0.031685
-1.028790	gone and	-0.031685
-1.023356	gone to	-0.031685
-1.107950	good fraction	-0.031685
-1.106408	good week	-0.031685
-1.103152	gotten better	-0.031685
-1.104777	gotten into	-0.031685
-1.283000	gov hhes	-0.031685
-1.283000	gov main	-0.031685
-1.254638	gov population	-0.031685
-1.107950	government calls	-0.031685
-1.107950	government provides	-0.031685
-0.807451	govt job	-0.031685
-0.802293	grabs us	-0.031685
-0.923682	graph </s>
-0.978508	graph of	-0.031685
-0.807451	greater new	-0.031685
-1.178958	green and	-0.031685
-0.738375	green line	-0.121496
-0.705910	grip </s>
-0.752517	grips in	-0.031685
-0.807962	gross misunderstanding	-0.031685
-0.807451	group ever	-0.031685
-0.804734	growing after	-0.031685
-1.273433	grows because	-0.031685
-1.250064	grows by	-0.031685
-1.280696	grows like	-0.031685
-1.188925	growth </s>
-2.070891	growth fig	-0.031685
-1.324223	growth in	-0.121496
-1.717150	growth is	-0.031685
-2.070891	growth lecture	-0.031685
-1.495945	growth of	-0.031685
-1.883885	growth or	-0.031685
-2.046309	growth rate	-0.031685
-1.806512	growth that	-0.031685
-0.966233	growth the	-0.031685
-1.638237	growth to	-0.121496
-1.489892	growth was	-0.031685
-1.500271	growth will	-0.031685
-0.807962	guangzhou canton	-0.031685
-0.803919	guatemala day	-0.031685
-0.738282	guilty of	-0.031685
-1.106930	habitat etc	-0.031685
-1.070356	habitat for	-0.031685
-1.557146	had a	-0.031685
-1.839037	had annual	-0.031685
-1.833576	had been	-0.031685
-1.839037	had eaten	-0.031685
-1.833576	had gotten	-0.031685
-1.839037	had infect	-0.031685
-1.759084	had just	-0.031685
-1.830803	had most	-0.031685
-1.830803	had parents	-0.031685
-1.822223	had seen	-0.031685
-1.505032	had to	-0.031685
-0.802293	hadnt had	-0.031685
-0.807962	hag yousif	-0.031685
-1.082560	half are	-0.031685
-0.978508	half of	-0.031685
-0.805551	hammer he	-0.031685
-1.028790	hand and	-0.031685
-1.107950	hand lashed	-0.031685
-0.791080	harbor i	-0.031685
-1.028790	hard and	-0.031685
-1.023356	hard to	-0.031685
-1.516584	has a	-0.031685
-1.754217	has barely	-0.031685
-1.749859	has been	-0.031685
-1.727325	has little	-0.031685
-1.733992	has never	-0.031685
-1.701637	has now	-0.031685
-1.412120	has the	-0.031685
-1.111811	has to	-0.031685
-0.807962	haulers street	-0.031685
-0.807962	hauling sacks	-0.031685
-1.670405	have a	-0.031685
-2.012479	have already	-0.031685
-2.016270	have come	-0.031685
-2.016270	have gotten	-0.031685
-2.012479	have heard	-0.031685
-2.023759	have incomes	-0.031685
-2.023759	have lost	-0.031685
-2.012479	have made	-0.031685
-1.989447	have never	-0.121496
-1.478301	have no	-0.031685
-2.023759	have nots	-0.031685
-1.537101	have the	-0.031685
-1.847248	have they	-0.031685
-0.940105	have to	-0.031685
-1.107950	haven chapter	-0.031685
-1.104777	haven where	-0.031685
-0.807962	haves vs	-0.031685
-1.386179	he and	-0.031685
-1.032568	he can	-0.031685
-1.578328	he doesnt	-0.031685
-1.572277	he found	-0.031685
-1.581212	he grips	-0.031685
-1.283000	health authorities	-0.031685
-1.283000	health benefits	-0.031685
-1.283000	health calamity	-0.031685
-1.254638	heard about	-0.031685
-1.101272	heard of	-0.031685
-1.273433	heard what	-0.031685
-0.807962	heart strings	-0.031685
-0.751073	help the	-0.031685
-1.749859	her daughter	-0.031685
-1.754217	her husband	-0.031685
-1.418571	her in	-0.031685
-1.754217	her leg	-0.031685
-1.749859	her long	-0.031685
-1.747641	her mother	-0.031685
-1.212410	her parents	-0.031685
-1.412120	her the	-0.031685
-0.766487	here and	-0.031685
-0.807189	hhes www	-0.031685
-0.799866	high there	-0.031685
-1.106930	higher base	-0.031685
-1.106408	higher lines	-0.031685
-1.106930	highest ever	-0.031685
-1.107950	highest mountains	-0.031685
-0.772506	hillary a	-0.031685
-0.766487	hip and	-0.031685
-1.107950	his bare	-0.031685
-1.104777	his family	-0.031685
-0.705910	history </s>
-0.752517	holes in	-0.031685
-0.657999	home </s>
-1.178958	home and	-0.031685
-1.261691	hong from	-0.031685
-0.738974	hong kong	-0.031685
-0.807962	horrific probably	-0.031685
-1.327763	hospital and	-0.031685
-1.438763	hospital as	-0.031685
-1.475398	hospital but	-0.031685
-1.424933	hospital i	-0.031685
-1.502776	hospital queen	-0.031685
-0.806369	hourly rate	-0.031685
-0.751073	house the	-0.031685
-1.103152	houses out	-0.031685
-1.099919	houses some	-0.031685
-1.491895	how many	-0.031685
-0.954817	how much	-0.031685
-1.503064	how rarely	-0.031685
-1.325723	how to	-0.031685
-0.657999	hr </s>
-1.245058	hr or	-0.031685
-0.804734	hrs work	-0.031685
-1.138819	html </s>
-1.483111	html children	-0.031685
-1.502776	html foot	-0.031685
-1.464079	html just	-0.031685
-1.456694	html world	-0.031685
-1.106787	http siteresources	-0.579968
-0.277876	http www	-0.234859
-0.807962	huge gamble	-0.031685
-1.283000	human history	-0.031685
-1.283000	human institutions	-0.031685
-1.281476	human misery	-0.031685
-0.799866	humanity will	-0.031685
-0.807451	humongous factor	-0.031685
-0.766487	husband and	-0.031685
-0.705910	hyperexponential </s>
-2.253011	i am	-0.031685
-2.296508	i began	-0.031685
-2.296508	i call	-0.121496
-2.296508	i cant	-0.031685
-2.296508	i couldnt	-0.031685
-2.282085	i described	-0.031685
-2.296508	i exaggerating	-0.031685
-2.253011	i found	-0.031685
-2.296508	i gave	-0.031685
-1.725791	i had	-0.031685
-2.065493	i have	-0.121496
-2.109147	i just	-0.031685
-2.296508	i left	-0.031685
-2.296508	i prepare	-0.031685
-2.296508	i remembering	-0.031685
-2.296508	i saw	-0.031685
-2.253011	i say	-0.031685
-2.296508	i shudder	-0.031685
-2.274871	i started	-0.031685
-1.596484	i the	-0.031685
-2.232198	i think	-0.031685
-2.274871	i told	-0.031685
-2.193345	i used	-0.031685
-1.772133	i visited	-0.031685
-1.772133	i want	-0.121496
-1.258897	i was	-0.031685
-2.282085	i went	-0.031685
-2.140895	i would	-0.031685
-0.923682	idea </s>
-1.101533	idea what	-0.031685
-1.263934	if she	-0.031685
-1.280696	if someone	-0.031685
-1.241058	if they	-0.031685
-0.705910	illegal </s>
-0.772506	imagine a	-0.031685
-0.799866	immigrants from	-0.031685
-1.107950	immigration legal	-0.031685
-1.099919	immigration pop	-0.031685
-0.803106	import workers	-0.031685
-0.738282	importance of	-0.031685
-0.807189	imported chinese	-0.031685
-0.807962	improve faster	-0.031685
-0.752517	improvement in	-0.031685
-0.805551	improves rich	-0.031685
-1.257457	in </s>
-1.432538	in a	-0.031685
-1.917840	in and	-0.031685
-2.702812	in another	-0.031685
-2.729961	in apparel	-0.031685
-2.702812	in asia	-0.031685
-2.729961	in bed	-0.031685
-2.702812	in both	-0.031685
-2.341642	in by	-0.031685
-1.537272	in china	-0.031685
-2.650326	in consumption	-0.031685
-2.729961	in d	-0.031685
-2.550338	in day	-0.121496
-2.650326	in developing	-0.031685
-2.729961	in discussing	-0.031685
-2.729961	in el	-0.031685
-2.702812	in english	-0.579968
-2.702812	in exponential	-0.031685
-2.581179	in global	-0.031685
-2.702812	in his	-0.031685
-2.689521	in hong	-0.031685
-2.550338	in http	-0.031685
-2.689521	in human	-0.031685
-2.228781	in i	-0.031685
-2.702812	in india	-0.031685
-2.126812	in its	-0.031685
-2.422343	in just	-0.031685
-2.702812	in kenya	-0.031685
-2.702812	in latin	-0.031685
-2.445100	in less	-0.031685
-2.729961	in mexico	-0.031685
-2.729961	in middle	-0.031685
-2.400719	in more	-0.031685
-2.729961	in nearby	-0.031685
-2.729961	in nh	-0.031685
-2.650326	in numbers	-0.031685
-1.707489	in of	-0.031685
-2.729961	in pakistan	-0.031685
-1.687487	in poverty	-0.031685
-2.702812	in prices	-0.031685
-2.729961	in print	-0.031685
-2.702812	in romania	-0.031685
-2.469117	in she	-0.031685
-2.689521	in standard	-0.031685
-2.729961	in technology	-0.031685
-2.729961	in terms	-0.031685
-0.582885	in the	-0.066626
-2.422343	in there	-0.031685
-2.469117	in these	-0.031685
-2.422343	in this	-0.031685
-2.213507	in those	-0.031685
-2.650326	in time	-0.031685
-1.771416	in to	-0.031685
-2.494539	in us	-0.031685
-2.729961	in utterly	-0.031685
-2.614378	in w	-0.031685
-2.650326	in which	-0.031685
-2.702812	in zambia	-0.031685
-0.807189	included under	-0.031685
-1.094730	income </s>
-1.387925	income countries	-0.031685
-1.335029	income for	-0.031685
-1.178721	income of	-0.031685
-0.738282	incomes of	-0.031685
-1.366764	increase by	-0.031685
-1.405304	increase immigration	-0.031685
-0.805192	increase in	-0.031685
-1.268097	increased but	-0.031685
-0.730195	increased by	-0.031685
-0.657999	increasing </s>
-1.261691	increasing from	-0.031685
-1.107950	increment roughly	-0.031685
-1.101533	increment slide	-0.031685
-1.082560	india are	-0.031685
-1.107950	india opponents	-0.031685
-0.807962	indian figures	-0.031685
-1.106930	individual usually	-0.031685
-1.107950	individual worries	-0.031685
-0.752517	indonesia in	-0.031685
-0.803106	industry yr	-0.031685
-0.785580	inevitable that	-0.031685
-0.751073	infect the	-0.031685
-0.799866	infected with	-0.031685
-0.923682	information </s>
-1.088792	information about	-0.031685
-0.705910	institutions </s>
-0.805551	international labor	-0.031685
-1.406901	into atlantic	-0.031685
-1.384811	into her	-0.031685
-1.404874	into powder	-0.031685
-1.214938	into the	-0.031685
-0.763508	introduced to	-0.031685
-0.763508	introduction to	-0.031685
-1.057221	is </s>
-1.192713	is a	-0.031685
-2.199909	is about	-0.031685
-2.473926	is absolutely	-0.031685
-2.415892	is almost	-0.031685
-2.167142	is at	-0.031685
-2.473926	is brought	-0.031685
-2.473926	is defined	-0.031685
-2.454467	is everywhere	-0.031685
-2.415892	is found	-0.031685
-2.415892	is full	-0.031685
-2.454467	is getting	-0.031685
-1.951656	is going	-0.031685
-2.473926	is guilty	-0.031685
-2.444816	is hr	-0.031685
-2.217269	is it	-0.031685
-2.254220	is less	-0.031685
-2.473926	is littered	-0.031685
-2.473926	is missing	-0.031685
-1.862353	is more	-0.031685
-2.339145	is much	-0.031685
-2.388775	is no	-0.031685
-2.273946	is now	-0.031685
-2.444816	is only	-0.031685
-2.339145	is over	-0.031685
-1.839498	is poverty	-0.031685
-2.473926	is quiet	-0.031685
-2.473926	is really	-0.031685
-2.473926	is scarce	-0.031685
-2.473926	is set	-0.031685
-2.294610	is so	-0.031685
-1.988536	is that	-0.031685
-1.146699	is the	-0.031685
-2.473926	is truly	-0.031685
-2.444816	is under	-0.031685
-2.339145	is used	-0.031685
-2.273946	is when	-0.031685
-2.339145	is years	-0.031685
-2.473926	is zoned	-0.031685
-0.807962	issues wfw	-0.031685
-1.649892	it a	-0.031685
-1.941320	it also	-0.031685
-1.611228	it and	-0.031685
-1.964879	it calculates	-0.031685
-1.921981	it can	-0.031685
-1.877095	it from	-0.031685
-1.531216	it in	-0.031685
-0.906939	it is	-0.031685
-1.593115	it to	-0.031685
-1.396681	it was	-0.031685
-1.903466	it we	-0.031685
-1.877095	it will	-0.031685
-0.766487	italy and	-0.031685
-1.909553	its amazing	-0.031685
-1.903137	its assets	-0.031685
-1.903137	its bad	-0.121496
-1.909553	its current	-0.031685
-1.899883	its environment	-0.031685
-1.909553	its grip	-0.031685
-1.816913	its just	-0.031685
-1.861040	its not	-0.031685
-1.909553	its own	-0.031685
-1.909553	its peak	-0.031685
-1.800446	its population	-0.031685
-1.842848	its us	-0.031685
-1.903137	its way	-0.031685
-0.807189	itself increasing	-0.031685
-0.807962	j cohen	-0.031685
-1.107950	job creation	-0.031685
-1.003566	job in	-0.031685
-1.087226	jobs have	-0.031685
-1.095116	jobs these	-0.031685
-0.763508	jostling to	-0.031685
-0.923682	jungle </s>
-1.028790	jungle and	-0.031685
-1.230546	just a	-0.031685
-1.776315	just about	-0.031685
-1.876091	just change	-0.031685
-1.694871	just for	-0.031685
-1.876091	just gambling	-0.031685
-1.876091	just keeps	-0.031685
-1.876091	just north	-0.031685
-1.876091	just nw	-0.031685
-1.867337	just see	-0.031685
-1.461242	just the	-0.031685
-1.527481	just to	-0.031685
-0.766487	keeper and	-0.031685
-0.791871	keeps on	-0.031685
-1.003566	kenya in	-0.031685
-0.978508	kenya of	-0.031685
-0.807189	kept increasing	-0.031685
-0.807189	key number	-0.031685
-0.807962	khartoum fpia	-0.031685
-0.785580	know that	-0.031685
-0.923682	kong </s>
-1.003566	kong in	-0.031685
-1.170913	labor </s>
-1.580924	labor costs	-0.031685
-1.580924	labor estimate	-0.031685
-1.580924	labor import	-0.031685
-1.552891	labor nyt	-0.031685
-1.580924	labor organization	-0.031685
-1.406901	laborers contained	-0.031685
-1.391061	laborers get	-0.031685
-1.219155	laborers in	-0.031685
-1.406901	laborers last	-0.031685
-0.705910	ladders </s>
-1.096711	land but	-0.031685
-1.064381	land that	-0.031685
-0.738282	landing of	-0.031685
-1.278261	large numbers	-0.031685
-1.283000	large steel	-0.031685
-1.281476	large urban	-0.031685
-0.923682	larger </s>
-1.104777	larger numbers	-0.031685
-0.807962	largest group	-0.031685
-0.807962	lashed ladders	-0.031685
-0.805551	last year	-0.031685
-1.429172	later i	-0.031685
-0.887403	later in	-0.121496
-1.284295	later the	-0.031685
-1.484461	later years	-0.031685
-0.562929	latin america	-0.031685
-0.763508	leads to	-0.031685
-1.280499	least a	-0.031685
-1.400609	least double	-0.031685
-1.406901	least triple	-0.031685
-1.397403	least x	-0.031685
-0.807962	lecture notes	-0.031685
-0.807451	left my	-0.031685
-0.802293	leg but	-0.031685
-0.807962	legal illegal	-0.031685
-1.544924	less </s>
-1.787974	less a	-0.031685
-1.978296	less assoc	-0.031685
-1.978296	less developed	-0.031685
-1.973321	less green	-0.031685
-0.236496	less than	-0.548033
-0.802293	let us	-0.031685
-0.807451	lets take	-0.031685
-1.094730	level </s>
-1.261403	level and	-0.031685
-1.363617	level by	-0.031685
-1.335029	level for	-0.031685
-0.738282	levels of	-0.031685
-0.794254	life as	-0.031685
-1.263934	like now	-0.031685
-1.283000	like prada	-0.031685
-1.259261	like this	-0.031685
-1.110692	line </s>
-1.339922	line for	-0.031685
-0.805192	line in	-0.031685
-1.245537	lines are	-0.031685
-1.271039	lines used	-0.031685
-1.275840	lines w	-0.031685
-0.766487	literature and	-0.031685
-0.805551	littered w	-0.031685
-1.645534	little bit	-0.031685
-1.645534	little girl	-0.031685
-0.615148	little girls	-0.031685
-1.644105	little progress	-0.031685
-1.648334	little value	-0.031685
-0.374091	live in	-0.101986
-1.607224	live is	-0.031685
-1.755105	live off	-0.031685
-1.191471	live on	-0.369212
-1.280696	lived between	-0.031685
-1.281476	lived hard	-0.031685
-1.236623	lived on	-0.031685
-1.028790	lives and	-0.031685
-1.076415	lives on	-0.031685
-1.183547	living </s>
-1.410596	living a	-0.031685
-1.333163	living in	-0.031685
-1.013282	living on	-0.031685
-1.581212	living space	-0.031685
-1.106930	long bones	-0.031685
-1.106930	long term	-0.031685
-1.250064	look at	-0.031685
-1.280696	look like	-0.031685
-1.280696	look weve	-0.031685
-0.801483	lost their	-0.031685
-1.090365	lot more	-0.031685
-0.978508	lot of	-0.031685
-0.807962	lung disease	-0.031685
-0.807962	luxury brands	-0.031685
-1.029937	made </s>
-1.256944	made it	-0.031685
-1.266289	made up	-0.031685
-0.807189	main www	-0.031685
-0.807962	major public	-0.031685
-1.503064	make concrete	-0.031685
-1.503064	make sportswear	-0.031685
-1.284295	make the	-0.031685
-0.952645	make up	-0.031685
-0.807451	makes pants	-0.031685
-0.807451	makeshift houses	-0.031685
-1.554427	many countries	-0.031685
-1.563260	many girls	-0.031685
-1.533099	many more	-0.031685
-1.283570	many of	-0.031685
-1.014542	many people	-0.031685
-0.763508	market to	-0.031685
-0.806369	marrow tb	-0.031685
-1.138819	mart </s>
-1.502776	mart makes	-0.031685
-1.490963	mart wages	-0.031685
-1.498960	mart women	-0.031685
-1.502776	mart worker	-0.031685
-0.806369	mauritania where	-0.031685
-0.803106	may be	-0.031685
-0.803919	maybe years	-0.031685
-0.804734	mcdb global	-0.031685
-1.029937	me </s>
-1.169327	me and	-0.031685
-1.266289	me her	-0.031685
-1.106930	means taking	-0.031685
-1.095116	means when	-0.031685
-0.796650	median poverty	-0.031685
-0.801483	medicines these	-0.031685
-1.085665	meg by	-0.031685
-0.978508	meg of	-0.031685
-0.738282	members of	-0.031685
-0.752517	mexico in	-0.031685
-0.807189	middle income	-0.031685
-0.763508	midterm to	-0.031685
-0.803106	might be	-0.031685
-0.806369	migrant laborers	-0.031685
-0.766487	milk and	-0.031685
-1.555910	million added	-0.031685
-2.065519	million child	-0.031685
-2.027690	million children	-0.031685
-1.971155	million from	-0.031685
-1.940460	million have	-0.031685
-2.027690	million http	-0.031685
-1.570869	million in	-0.031685
-2.091881	million migrant	-0.031685
-1.534757	million nyt	-0.031685
-1.893680	million or	-0.031685
-1.046969	million people	-0.031685
-2.039938	million slide	-0.031685
-1.639250	million to	-0.031685
-2.027690	million years	-0.031685
-1.534757	million yr	-0.031685
-1.107950	miners construction	-0.031685
-1.107950	miners hauling	-0.031685
-1.094730	miracle </s>
-1.219155	miracle in	-0.031685
-1.287882	miracle is	-0.031685
-1.406901	miracle starts	-0.031685
-0.756371	misery </s>
-1.405304	misery gets	-0.031685
-1.401330	misery later	-0.031685
-0.802293	misses her	-0.031685
-0.772506	missing a	-0.031685
-0.751073	mistake the	-0.031685
-0.738282	misunderstanding of	-0.031685
-0.807451	mixes gdp	-0.031685
-0.807962	modern sector	-0.031685
-0.797452	money was	-0.031685
-0.796650	months million	-0.031685
-1.947590	more appropriate	-0.031685
-1.942081	more optimistic	-0.031685
-1.375661	more people	-0.031685
-1.903171	more she	-0.031685
-0.319870	more than	-0.050100
-1.699083	more to	-0.031685
-0.356652	most of	-0.031685
-1.370528	most people	-0.031685
-1.107950	mostly italy	-0.031685
-1.079477	mostly or	-0.031685
-1.283000	mother father	-0.031685
-1.266289	mother had	-0.031685
-1.252345	mother was	-0.031685
-1.107950	mountain tops	-0.031685
-1.099919	mountain you	-0.031685
-0.705910	mountains </s>
-0.763508	moved to	-0.031685
-0.807962	mrs roosevelt	-0.031685
-0.802293	ms had	-0.031685
-1.252148	much </s>
-1.798950	much cleaner	-0.031685
-1.798950	much co	-0.031685
-1.798950	much do	-0.031685
-1.798950	much flatter	-0.031685
-1.747759	much has	-0.031685
-1.259779	much information	-0.031685
-1.677276	much or	-0.031685
-1.791644	much pollution	-0.031685
-1.028790	mud and	-0.031685
-1.106930	mud houses	-0.031685
-1.107950	my crystal	-0.031685
-1.106930	my first	-0.031685
-0.807962	nation npaltsrs	-0.031685
-0.796650	national poverty	-0.031685
-0.806369	natural increase	-0.031685
-0.751073	near the	-0.031685
-0.807962	nearby towns	-0.031685
-0.763508	need to	-0.031685
-0.807451	neglected lives	-0.031685
-0.807962	nepalese sherpa	-0.031685
-1.455937	never have	-0.031685
-1.499458	never heard	-0.031685
-1.503064	never introduced	-0.031685
-0.958095	never seen	-0.031685
-0.802293	nevertheless we	-0.031685
-0.563180	new haven	-0.031685
-1.029937	news </s>
-1.259261	news from	-0.031685
-1.190621	news is	-0.031685
-0.807962	newsletter guatemala	-0.031685
-1.406901	next century	-0.031685
-1.406901	next step	-0.031685
-1.400609	next time	-0.031685
-1.391061	next years	-0.031685
-0.527658	nexus of	-0.031685
-0.807962	nh register	-0.031685
-1.580924	no electricity	-0.031685
-1.577902	no idea	-0.031685
-1.580924	no need	-0.031685
-1.580924	no services	-0.031685
-1.580924	no sign	-0.031685
-1.577902	no way	-0.031685
-0.738282	none of	-0.031685
-0.772506	norkay a	-0.031685
-0.738282	north of	-0.031685
-1.703804	not abandoned	-0.031685
-1.703804	not always	-0.031685
-1.699798	not exponential	-0.031685
-1.699798	not getting	-0.031685
-1.661082	not one	-0.031685
-1.703804	not predicting	-0.031685
-1.661082	not so	-0.031685
-1.437105	not to	-0.031685
-0.705910	notes </s>
-0.705910	nots </s>
-0.807962	nouakshott mauritania	-0.031685
-1.971974	now after	-0.031685
-1.847676	now are	-0.031685
-1.866076	now at	-0.031685
-2.013723	now expeditions	-0.031685
-2.022018	now greater	-0.031685
-2.009530	now green	-0.031685
-1.804823	now i	-0.031685
-2.009530	now if	-0.031685
-1.660361	now is	-0.031685
-1.866076	now million	-0.031685
-2.013723	now org	-0.031685
-1.960144	now over	-0.031685
-2.022018	now putting	-0.031685
-2.022018	now slowed	-0.031685
-1.504664	now the	-0.031685
-1.830024	now they	-0.031685
-2.009530	now weve	-0.031685
-0.807962	npaltsrs txt	-0.031685
-0.684107	number of	-0.031685
-1.172006	number to	-0.031685
-1.386592	numbers has	-0.031685
-1.404339	numbers look	-0.031685
-0.790254	numbers of	-0.031685
-0.738282	nw of	-0.031685
-0.705910	nyrevbooks </s>
-0.542449	nyt </s>
-1.905183	nyt had	-0.031685
-1.405335	nyt p	-0.031685
-0.715980	nyt pa	-0.481086
-1.922773	nyt slide	-0.031685
-1.947023	nyt th	-0.031685
-0.807962	nytimes com	-0.031685
-1.101533	o china	-0.031685
-1.099919	o some	-0.031685
-0.752517	occur in	-0.031685
-0.705910	ocean </s>
-1.557828	of </s>
-2.000397	of a	-0.031685
-2.564017	of all	-0.031685
-2.594710	of an	-0.031685
-2.745247	of anything	-0.031685
-2.338100	of are	-0.031685
-2.789801	of bethany	-0.031685
-2.789801	of bombay	-0.031685
-2.789801	of bone	-0.031685
-2.702447	of child	-0.031685
-2.789801	of clay	-0.031685
-2.789801	of coffee	-0.031685
-2.702447	of consumption	-0.031685
-2.759844	of deep	-0.031685
-2.759844	of english	-0.031685
-2.759844	of everest	-0.031685
-2.789801	of fixed	-0.031685
-2.627740	of girls	-0.031685
-2.789801	of gross	-0.031685
-2.193435	of growth	-0.031685
-2.759844	of habitat	-0.031685
-2.789801	of haves	-0.031685
-2.535350	of her	-0.031685
-2.789801	of humanity	-0.031685
-2.759844	of immigration	-0.031685
-1.823376	of in	-0.031685
-2.789801	of khartoum	-0.031685
-2.702447	of laborers	-0.031685
-2.759844	of land	-0.031685
-2.483136	of less	-0.031685
-2.745247	of living	-0.031685
-2.759844	of long	-0.031685
-2.112995	of million	-0.031685
-2.145663	of more	-0.121496
-2.745247	of mother	-0.031685
-2.759844	of mud	-0.031685
-2.759844	of new	-0.031685
-1.727172	of of	-0.031685
-2.745247	of our	-0.031685
-2.789801	of oxygen	-0.031685
-1.340709	of people	-0.180797
-2.145663	of poor	-0.121496
-1.755843	of population	-0.089451
-2.112995	of poverty	-0.031685
-2.663489	of rich	-0.031685
-2.759844	of row	-0.031685
-2.627740	of slide	-0.121496
-2.789801	of st	-0.031685
-2.789801	of stabilization	-0.031685
-2.261643	of tb	-0.031685
-0.554256	of the	-0.131454
-2.508459	of their	-0.031685
-2.276671	of them	-0.031685
-1.589579	of these	-0.031685
-1.765161	of this	-0.031685
-2.745247	of those	-0.031685
-2.663489	of wages	-0.031685
-2.789801	of waste	-0.031685
-2.702447	of which	-0.031685
-2.414979	of world	-0.031685
-2.759844	of worlds	-0.031685
-2.789801	of yards	-0.031685
-2.789801	of your	-0.031685
-0.923682	off </s>
-1.095116	off its	-0.031685
-1.283000	official definition	-0.031685
-1.283000	official indian	-0.031685
-1.250064	official poverty	-0.031685
-0.802293	oh us	-0.031685
-1.170913	old </s>
-1.577902	old boy	-0.031685
-1.577902	old daughter	-0.031685
-1.580924	old prb	-0.031685
-1.577902	old trash	-0.031685
-1.562127	old who	-0.031685
-0.803919	older than	-0.031685
-1.169464	on a	-0.031685
-2.236245	on average	-0.031685
-1.696766	on day	-0.031685
-2.206727	on each	-0.031685
-1.231763	on earth	-0.031685
-2.206727	on how	-0.031685
-2.236245	on human	-0.031685
-2.236245	on increasing	-0.031685
-2.105381	on it	-0.031685
-1.679475	on less	-0.676878
-2.032722	on or	-0.031685
-2.241146	on pbs	-0.031685
-2.250865	on small	-0.031685
-2.250865	on sunday	-0.031685
-0.674603	on the	-0.080713
-2.140673	on their	-0.031685
-2.241146	on top	-0.031685
-1.755418	one clothing	-0.031685
-1.755418	one considers	-0.031685
-1.714942	one has	-0.031685
-0.676209	one of	-0.031685
-1.657650	one or	-0.031685
-1.751631	one student	-0.031685
-1.698553	one there	-0.031685
-1.266289	only but	-0.031685
-1.283000	only declining	-0.031685
-1.101272	only of	-0.031685
-1.103152	oozing out	-0.031685
-1.106408	oozing through	-0.031685
-0.738282	opponents of	-0.031685
-1.283000	optimistic assumption	-0.031685
-1.283000	optimistic assumptions	-0.031685
-1.241058	optimistic they	-0.031685
-1.353320	or </s>
-2.047709	or all	-0.031685
-2.116911	or anything	-0.031685
-1.925804	or as	-0.031685
-2.060696	or billion	-0.031685
-2.131271	or embellishing	-0.031685
-2.121726	or equally	-0.031685
-1.560323	or less	-0.031685
-1.524368	or or	-0.031685
-2.131271	or quadrupling	-0.031685
-1.102570	or so	-0.031685
-2.060696	or some	-0.031685
-1.570121	or the	-0.031685
-2.035100	or we	-0.031685
-2.074082	or work	-0.031685
-2.121726	or younger	-0.031685
-1.573001	or yr	-0.031685
-1.107950	org dec	-0.579968
-1.107950	org issues	-0.031685
-0.807962	organization reports	-0.031685
-0.807962	orianna dutkas	-0.031685
-1.699798	other end	-0.031685
-1.691426	other food	-0.031685
-1.329200	other of	-0.031685
-1.697758	other parents	-0.031685
-1.703804	other parts	-0.031685
-1.638246	other poor	-0.121496
-1.699798	other side	-0.031685
-1.685185	other year	-0.031685
-0.793459	others they	-0.031685
-1.283000	our levels	-0.031685
-1.271039	our pop	-0.031685
-1.254638	our population	-0.031685
-1.244351	out of	-0.031685
-1.407033	out that	-0.121496
-1.499458	out through	-0.031685
-0.956999	out x	-0.031685
-1.620999	over billion	-0.031685
-1.102733	over consumption	-0.031685
-1.643749	over dead	-0.031685
-1.577107	over million	-0.031685
-1.636674	over time	-0.031685
-1.647127	over whether	-0.031685
-0.774784	overpopulation is	-0.031685
-0.807189	own official	-0.031685
-0.766487	oxygen and	-0.031685
-0.657999	p </s>
-1.281906	p gm	-0.031685
-0.923682	pa </s>
-1.107950	pa col	-0.031685
-0.805551	packages html	-0.031685
-0.788714	paid for	-0.031685
-0.705910	pair </s>
-0.803919	pakistan live	-0.031685
-1.275840	pants earn	-0.031685
-1.134839	pants in	-0.031685
-1.281476	pants sell	-0.031685
-0.861931	parents came	-0.121496
-1.386592	parents her	-0.031685
-1.261544	parents to	-0.031685
-0.738282	parts of	-0.031685
-0.796650	passed million	-0.031685
-1.281476	past few	-0.031685
-1.266289	past has	-0.031685
-1.283000	past theres	-0.031685
-1.103152	pay how	-0.031685
-1.044092	pay is	-0.031685
-0.807962	paying enough	-0.031685
-1.107950	pbs mrs	-0.031685
-1.107950	pbs oh	-0.031685
-0.923682	pdf </s>
-1.003566	pdf in	-0.031685
-0.705910	peak </s>
-1.106408	peasant families	-0.031685
-1.101533	peasant who	-0.031685
-0.807962	pensions total	-0.031685
-1.024806	people </s>
-2.393869	people added	-0.121496
-2.386184	people already	-0.031685
-1.602949	people and	-0.031685
-1.780148	people are	-0.031685
-2.393869	people consume	-0.031685
-2.409260	people consuming	-0.031685
-2.409260	people create	-0.031685
-2.409260	people did	-0.031685
-2.340885	people each	-0.031685
-2.409260	people entering	-0.031685
-1.798262	people have	-0.031685
-2.409260	people improve	-0.031685
-0.989945	people in	-0.059608
-1.194157	people live	-0.481086
-1.879374	people lived	-0.455030
-1.879374	people living	-0.031685
-2.409260	people may	-0.031685
-2.409260	people moved	-0.031685
-1.757115	people on	-0.121496
-2.409260	people reproducing	-0.031685
-2.409260	people returning	-0.031685
-2.262393	people so	-0.031685
-2.393869	people suffer	-0.031685
-1.686108	people the	-0.031685
-2.340885	people think	-0.031685
-2.280726	people were	-0.031685
-0.738282	percent of	-0.031685
-1.107950	percentage kept	-0.031685
-1.101533	percentage slide	-0.031685
-0.807962	permits climbing	-0.031685
-0.705910	person </s>
-0.785580	perspective that	-0.031685
-0.807962	pesticide sprayers	-0.031685
-0.705910	phenomenon </s>
-0.802293	pick up	-0.031685
-0.803106	pickers were	-0.031685
-0.796650	places at	-0.031685
-0.705910	planet </s>
-0.705910	plant </s>
-0.807962	plants near	-0.031685
-1.227889	point for	-0.031685
-1.134839	point in	-0.031685
-1.190621	point is	-0.031685
-0.705910	policemen </s>
-0.705910	policies </s>
-0.807451	politicized argument	-0.031685
-1.029937	pollution </s>
-1.283000	pollution destruction	-0.031685
-1.283000	pollution finding	-0.031685
-0.681933	poor countries	-0.074273
-1.910690	poor country	-0.031685
-1.373084	poor families	-0.031685
-1.889358	poor not	-0.031685
-0.542217	poor people	-0.059608
-0.803919	poorer than	-0.031685
-1.098312	poorest countries	-0.031685
-1.106930	poorest half	-0.031685
-1.252148	pop </s>
-1.259779	pop bull	-0.031685
-1.798950	pop crossed	-0.031685
-1.791644	pop data	-0.455030
-1.791644	pop grows	-0.031685
-1.747759	pop growth	-0.089451
-1.794107	pop meg	-0.031685
-1.798950	pop today	-0.031685
-1.727374	pop will	-0.031685
-0.805551	popclock html	-0.031685
-1.288183	population </s>
-1.754644	population and	-0.031685
-2.136448	population because	-0.121496
-2.188682	population earns	-0.031685
-2.162168	population eventually	-0.031685
-2.175623	population explosion	-0.031685
-2.175623	population grows	-0.031685
-0.639585	population growth	-0.031685
-1.665877	population in	-0.031685
-1.815772	population is	-0.031685
-2.067332	population just	-0.031685
-2.188682	population policies	-0.031685
-2.175623	population problem	-0.089451
-2.188682	population projections	-0.031685
-2.180005	population stabilizes	-0.031685
-1.155302	population will	-0.031685
-0.738282	portion of	-0.031685
-0.807962	post soviet	-0.031685
-0.751073	pounds the	-0.031685
-1.180447	poverty </s>
-1.375066	poverty and	-0.031685
-1.894429	poverty as	-0.031685
-2.090988	poverty brief	-0.579968
-2.090988	poverty dense	-0.031685
-2.090988	poverty fell	-0.031685
-1.555614	poverty in	-0.031685
-2.077390	poverty increased	-0.031685
-1.407277	poverty is	-0.031685
-1.554160	poverty level	-0.031685
-1.554160	poverty line	-0.031685
-2.077390	poverty lines	-0.031685
-2.081952	poverty means	-0.031685
-2.090988	poverty starvation	-0.031685
-2.090988	poverty threshld	-0.031685
-1.103152	powder he	-0.031685
-1.044092	powder is	-0.031685
-0.807962	powdered milk	-0.031685
-0.807962	prada among	-0.031685
-0.798255	prb world	-0.031685
-0.788714	precondition for	-0.031685
-0.751073	predict the	-0.031685
-0.807962	predicting disaster	-0.031685
-0.788714	prepare for	-0.031685
-0.799866	present this	-0.031685
-0.807451	president died	-0.031685
-0.807962	press carried	-0.031685
-0.923682	prices </s>
-1.088792	prices world	-0.031685
-0.805551	primarily rich	-0.031685
-0.798255	print about	-0.031685
-0.804734	probably because	-0.031685
-0.756371	problem </s>
-1.295429	problem is	-0.031685
-1.392428	problem not	-0.031685
-0.756371	problems </s>
-1.407191	problems grabs	-0.031685
-1.191458	problems of	-0.031685
-0.766487	process and	-0.031685
-0.738282	producers of	-0.031685
-0.805551	producing x	-0.031685
-0.738282	prof of	-0.031685
-0.806369	program laborers	-0.031685
-1.169327	progress and	-0.031685
-1.266289	progress has	-0.031685
-1.252345	progress was	-0.031685
-0.763508	proj to	-0.031685
-0.923682	projection </s>
-1.070356	projection for	-0.031685
-0.807962	projections nation	-0.031685
-0.807451	prostitutes miners	-0.031685
-0.805551	provides no	-0.031685
-0.807451	province described	-0.031685
-0.807189	public health	-0.031685
-1.106408	pus started	-0.031685
-1.087226	pus was	-0.031685
-0.805551	putting out	-0.031685
-0.738282	quadrupling of	-0.031685
-0.807962	queen elizabeth	-0.031685
-0.807962	quiet here	-0.031685
-0.807962	rains water	-0.031685
-0.798255	rapid population	-0.031685
-0.803919	rarely an	-0.031685
-1.339922	rate for	-0.031685
-1.191458	rate of	-0.031685
-0.852509	rate was	-0.031685
-0.807962	rather different	-0.031685
-0.751073	reach the	-0.031685
-0.807962	really two	-0.031685
-0.807189	recent rise	-0.031685
-0.798255	recently world	-0.031685
-0.805551	recorded earn	-0.031685
-1.095116	reduce their	-0.031685
-1.106408	reduce those	-0.031685
-0.807962	references rosen	-0.031685
-0.923682	regions </s>
-1.107950	regions such	-0.031685
-0.705910	register </s>
-0.807189	relationship between	-0.031685
-1.090365	remain poor	-0.031685
-1.096711	remain so	-0.031685
-0.774784	remember is	-0.031685
-0.807962	remembering correctly	-0.031685
-0.807962	remembers wondering	-0.031685
-1.281906	repeat anyone	-0.031685
-0.684107	repeat of	-0.121496
-0.751073	replace the	-0.031685
-0.807189	replacement level	-0.031685
-0.807962	report reported	-0.031685
-0.791871	reported on	-0.031685
-0.785580	reports that	-0.031685
-0.806369	reproducing too	-0.031685
-0.803919	reproductive years	-0.031685
-1.107950	require breaths	-0.031685
-1.099919	require than	-0.031685
-1.094730	resources </s>
-1.375601	resources from	-0.031685
-1.403839	resources pollution	-0.031685
-1.363617	resources poverty	-0.579968
-0.738282	rest of	-0.031685
-0.738282	results of	-0.031685
-0.763508	returning to	-0.031685
-0.788714	rice for	-0.031685
-1.372752	rich and	-0.031685
-1.501554	rich country	-0.031685
-0.465804	rich people	-0.031685
-0.705910	richer </s>
-0.807962	right behind	-0.031685
-1.283000	rise above	-0.031685
-1.134839	rise in	-0.031685
-1.190621	rise is	-0.031685
-1.107950	rock fragments	-0.031685
-1.091943	rock with	-0.031685
-0.806369	rolls into	-0.031685
-1.044092	romania is	-0.031685
-0.978508	romania of	-0.031685
-0.803106	romanian workers	-0.031685
-0.807962	rooms xu	-0.031685
-0.807962	roosevelt wife	-0.031685
-0.799060	ropes more	-0.031685
-0.807962	rosen ellen	-0.031685
-0.807189	roughly equal	-0.031685
-1.101533	row after	-0.031685
-0.978508	row of	-0.031685
-0.705910	rule </s>
-0.563180	rw calc	-0.121496
-0.807451	s side	-0.031685
-0.738282	sacks of	-0.031685
-0.807451	sahara desert	-0.031685
-0.807962	saharan africa	-0.031685
-1.283000	sales associates	-0.031685
-1.271039	sales http	-0.031685
-1.101272	sales of	-0.031685
-0.751073	salvador the	-0.031685
-1.354842	same as	-0.031685
-1.384811	same but	-0.031685
-1.397403	same hospital	-0.031685
-1.394221	same little	-0.031685
-1.003566	sampans in	-0.031685
-1.079477	sampans they	-0.031685
-0.802293	save her	-0.031685
-0.766487	saw and	-0.031685
-1.394138	say has	-0.031685
-0.368688	say that	-0.031685
-0.785580	says that	-0.031685
-0.705910	scale </s>
-0.751073	scarce the	-0.031685
-0.752517	scenario in	-0.031685
-0.806369	sci am	-0.031685
-0.738282	scrap of	-0.031685
-0.774784	second is	-0.031685
-0.807962	sector actually	-0.031685
-1.271039	see some	-0.031685
-1.219326	see that	-0.031685
-1.283000	see video	-0.031685
-0.540840	seemed to	-0.121496
-1.403577	seen a	-0.031685
-1.576360	seen any	-0.031685
-1.576360	seen anything	-0.031685
-1.493218	seen on	-0.031685
-1.462472	seen that	-0.031685
-1.534989	seen this	-0.031685
-0.553646	sell for	-0.031685
-0.756371	servants </s>
-1.261544	servants to	-0.121496
-1.383703	servants when	-0.031685
-0.705910	services </s>
-0.802293	set up	-0.031685
-0.801483	sets its	-0.031685
-0.705910	settlement </s>
-0.807962	several wards	-0.031685
-0.807189	sharp rise	-0.031685
-1.791796	she had	-0.031685
-1.840802	she hadnt	-0.031685
-1.840802	she misses	-0.031685
-1.785171	she now	-0.031685
-1.840802	she remembers	-0.031685
-1.840802	she survived	-0.031685
-1.299277	she told	-0.121496
-0.803763	she was	-0.031685
-0.705910	sheet </s>
-0.772506	sherpa a	-0.031685
-0.803106	shouldnt be	-0.031685
-0.763508	shudder to	-0.031685
-0.766487	shy and	-0.031685
-0.807451	sicker next	-0.031685
-0.793459	sickly they	-0.031685
-0.527658	side of	-0.031685
-0.738282	sign of	-0.031685
-1.104777	single family	-0.031685
-1.107950	single footstep	-0.031685
-0.807962	sir edmind	-0.031685
-0.807962	siteresources worldbank	-0.579968
-0.797452	size was	-0.031685
-0.923682	skin </s>
-1.079477	skin they	-0.031685
-0.801483	slaves would	-0.031685
-0.101087	slide </s>
-0.772506	slowed a	-0.031685
-0.791871	slur on	-0.031685
-0.807451	small boats	-0.031685
-0.807962	smaller portion	-0.031685
-1.296103	so </s>
-1.996977	so abject	-0.031685
-1.928510	so all	-0.031685
-1.985383	so lived	-0.031685
-1.451545	so many	-0.031685
-1.850638	so million	-0.031685
-1.939304	so much	-0.031685
-1.435585	so of	-0.031685
-1.878229	so poor	-0.031685
-1.740970	so that	-0.031685
-1.961732	so thats	-0.031685
-1.502112	so the	-0.031685
-1.575946	so to	-0.031685
-1.917977	so we	-0.031685
-1.989278	so while	-0.031685
-0.807962	soft landing	-0.031685
-1.261403	sold and	-0.031685
-1.354842	sold as	-0.031685
-1.363617	sold by	-0.031685
-1.252160	sold to	-0.031685
-1.566821	some as	-0.031685
-1.644174	some exception	-0.031685
-1.647415	some improvement	-0.031685
-0.985930	some of	-0.031685
-1.102941	some other	-0.031685
-0.695467	someone in	-0.031685
-1.283290	someone wants	-0.031685
-1.104777	soon came	-0.031685
-1.106930	soon enter	-0.031685
-0.803106	soviet countries	-0.031685
-0.752517	space in	-0.031685
-0.788714	spain for	-0.031685
-0.788714	sportswear for	-0.031685
-0.807962	sprawled across	-0.031685
-0.807962	sprayers haulers	-0.031685
-0.807962	squatter settlement	-0.031685
-0.807962	st ascent	-0.031685
-0.807451	stabilization yale	-0.031685
-0.807451	stabilize meg	-0.031685
-0.510207	stabilizes </s>
-0.238543	standard of	-0.455030
-1.283000	started chatting	-0.031685
-1.281476	started oozing	-0.031685
-1.161835	started to	-0.031685
-0.796650	starts at	-0.031685
-0.766487	starvation and	-0.031685
-0.738282	state of	-0.031685
-0.791871	statistics on	-0.031685
-0.807962	stays constant	-0.031685
-0.807962	steel bolt	-0.031685
-0.802293	step up	-0.031685
-0.807451	stone powder	-0.031685
-0.705910	stores </s>
-1.498960	story any	-0.031685
-1.278919	story in	-0.031685
-1.358773	story is	-0.031685
-1.428349	story on	-0.031685
-1.401741	story that	-0.031685
-0.791871	strain on	-0.031685
-0.807962	street vendors	-0.031685
-0.791871	stress on	-0.031685
-0.705910	strife </s>
-0.705910	strings </s>
-1.000994	student the	-0.031685
-1.087226	student was	-0.031685
-0.804734	students after	-0.031685
-0.807962	sub saharan	-0.121496
-0.794254	such as	-0.031685
-0.807962	sudan hag	-0.031685
-0.923682	suffer </s>
-1.091943	suffer from	-0.031685
-0.796650	summit by	-0.031685
-0.799866	sunday there	-0.031685
-0.799866	supplements this	-0.031685
-0.785580	sure that	-0.031685
-0.791871	survive on	-0.031685
-0.806369	survived came	-0.031685
-0.772506	sustain a	-0.031685
-0.807189	sweatshop factory	-0.031685
-1.039865	take a	-0.031685
-1.000994	take the	-0.031685
-1.281198	taken home	-0.031685
-0.704185	taken to	-0.089451
-1.095116	taking now	-0.031685
-1.103152	taking out	-0.031685
-1.170913	tb </s>
-1.505333	tb as	-0.031685
-1.548346	tb had	-0.031685
-1.323883	tb in	-0.031685
-1.543848	tb she	-0.031685
-1.543848	tb these	-0.031685
-0.799866	technology will	-0.031685
-0.798255	technoserve world	-0.031685
-1.000994	tell the	-0.031685
-1.099919	tell you	-0.031685
-0.791871	tents on	-0.031685
-0.807962	tenzing norkay	-0.031685
-1.094730	term </s>
-1.384811	term growth	-0.031685
-1.214938	term the	-0.031685
-1.404874	term well	-0.031685
-0.738282	terms of	-0.031685
-0.705910	territory </s>
-0.803106	th yr	-0.031685
-1.665886	than a	-0.676878
-1.966366	than billion	-0.031685
-1.966366	than day	-0.199342
-2.000136	than double	-0.031685
-2.012002	than hr	-0.031685
-1.539731	than in	-0.031685
-1.878432	than million	-0.031685
-1.465376	than of	-0.031685
-1.836317	than people	-0.031685
-1.905812	than poor	-0.031685
-0.922089	than the	-0.031685
-1.844420	than they	-0.031685
-2.015858	than union	-0.031685
-1.988585	than year	-0.031685
-1.966366	than you	-0.031685
-1.415135	that </s>
-2.097496	that at	-0.031685
-2.314552	that chinese	-0.031685
-2.314552	that environmental	-0.031685
-2.335438	that everything	-0.031685
-2.200859	that had	-0.031685
-2.273258	that he	-0.031685
-1.687379	that i	-0.031685
-1.830983	that is	-0.031685
-2.314552	that look	-0.031685
-2.321520	that means	-0.031685
-2.335438	that might	-0.031685
-2.321520	that nexus	-0.031685
-1.423615	that of	-0.031685
-2.314552	that our	-0.031685
-2.138823	that poor	-0.031685
-2.124606	that population	-0.031685
-2.314552	that repeat	-0.031685
-0.828433	that the	-0.031685
-2.153521	that there	-0.031685
-2.184500	that these	-0.121496
-2.047880	that they	-0.031685
-2.321520	that things	-0.031685
-1.310546	that we	-0.089451
-2.184500	that when	-0.031685
-2.124606	that world	-0.031685
-2.235552	that you	-0.031685
-1.446261	thats a	-0.031685
-1.619677	thats billion	-0.031685
-1.619677	thats day	-0.031685
-1.641533	thats equal	-0.031685
-1.593819	thats just	-0.031685
-1.574187	thats million	-0.031685
-1.630467	thats x	-0.031685
-2.952584	the absolute	-0.031685
-2.952584	the actual	-0.031685
-2.952584	the air	-0.031685
-2.952584	the amount	-0.031685
-2.896274	the argument	-0.031685
-2.952584	the article	-0.031685
-2.952584	the assembly	-0.031685
-2.952584	the attendant	-0.031685
-1.708477	the average	-0.065415
-2.952584	the bacteria	-0.031685
-2.896274	the base	-0.031685
-2.733953	the better	-0.031685
-2.504378	the big	-0.031685
-2.952584	the blue	-0.031685
-2.037229	the bones	-0.089451
-2.483469	the boy	-0.121496
-2.870003	the chinese	-0.031685
-2.952584	the cities	-0.031685
-2.504378	the class	-0.031685
-2.896274	the climbers	-0.031685
-2.952584	the coin	-0.031685
-2.896274	the collapse	-0.031685
-2.896274	the communities	-0.031685
-2.586766	the countries	-0.031685
-2.896274	the course	-0.031685
-2.952584	the dashed	-0.031685
-2.870003	the days	-0.031685
-2.952584	the death	-0.031685
-2.896274	the deep	-0.031685
-2.483469	the desert	-0.031685
-2.442219	the developing	-0.031685
-2.952584	the e	-0.031685
-1.843659	the earth	-0.059608
-2.504378	the earths	-0.031685
-2.952584	the economic	-0.031685
-2.896274	the end	-0.031685
-2.952584	the ends	-0.031685
-2.952584	the entire	-0.031685
-2.870003	the environment	-0.031685
-2.952584	the equivalent	-0.031685
-2.952584	the exam	-0.031685
-2.896274	the exception	-0.031685
-2.870003	the explosion	-0.031685
-2.870003	the factory	-0.031685
-2.796672	the family	-0.031685
-2.952584	the fields	-0.031685
-2.896274	the first	-0.031685
-2.952584	the foggiest	-0.031685
-2.504378	the future	-0.031685
-2.896274	the gdp	-0.031685
-2.952584	the general	-0.031685
-2.679159	the girls	-0.031685
-2.386312	the global	-0.121496
-2.504378	the government	-0.031685
-2.313996	the growth	-0.031685
-2.896274	the habitat	-0.031685
-2.952584	the harbor	-0.031685
-2.473125	the health	-0.121496
-2.952584	the heart	-0.031685
-2.504378	the highest	-0.031685
-2.733953	the hospital	-0.031685
-2.952584	the importance	-0.031685
-1.722019	the in	-0.031685
-2.870003	the income	-0.031685
-2.796672	the increase	-0.031685
-2.870003	the increased	-0.031685
-2.896274	the jobs	-0.031685
-2.896274	the jungle	-0.031685
-2.952584	the key	-0.031685
-2.733953	the labor	-0.031685
-2.952584	the largest	-0.031685
-2.733953	the make	-0.031685
-2.952584	the market	-0.031685
-2.952584	the median	-0.031685
-2.339642	the million	-0.031685
-2.473125	the miracle	-0.031685
-2.952584	the modern	-0.031685
-2.952584	the money	-0.031685
-2.952584	the mountain	-0.031685
-2.952584	the national	-0.031685
-2.870003	the news	-0.031685
-2.037229	the next	-0.031685
-2.870003	the number	-0.031685
-2.796672	the numbers	-0.031685
-1.585962	the of	-0.455030
-2.870003	the official	-0.031685
-2.254365	the or	-0.031685
-1.833853	the other	-0.031685
-2.483469	the pants	-0.031685
-2.504378	the past	-0.031685
-2.106210	the people	-0.031685
-2.952584	the percent	-0.031685
-2.896274	the percentage	-0.031685
-2.952584	the planet	-0.031685
-2.483469	the point	-0.031685
-2.952584	the politicized	-0.031685
