
\data\
ngram 1=1421
ngram 2=3705
ngram 3=4230

\1-grams:
-1.431234	</s>
-99	<s>	-0.125039
-1.885172	a	-0.086694
-3.481737	abolish	-0.069354
-3.481737	abolished	-0.069354
-3.214065	about	-0.069354
-3.481737	absentia	-0.069354
-3.481737	absolute	-0.069354
-3.481737	abundant	-0.069354
-3.481737	accursed	-0.069354
-3.481737	acquired	-0.069354
-3.481737	acquires	-0.069354
-3.481737	acropolis	-0.069354
-3.481737	across	-0.069354
-3.279497	act	-0.069354
-3.481737	acting	-0.069354
-3.481737	action	-0.069354
-3.481737	acts	-0.069354
-3.481737	added	-0.069354
-3.481737	adding	-0.069354
-3.214065	addition	-0.097274
-3.481737	administering	-0.069354
-3.481737	administration	-0.069354
-3.481737	admitted	-0.069354
-3.481737	advanced	-0.069354
-3.481737	advised	-0.069354
-3.481737	aegean	-0.069354
-3.481737	aegina	-0.069354
-3.481737	aeginetan	-0.069354
-3.481737	affair	-0.069354
-3.279497	affairs	-0.069354
-3.481737	affecting	-0.069354
-3.481737	affiliation	-0.069354
-2.651640	after	-0.078463
-3.055145	against	-0.069354
-2.847538	age	-0.082018
-3.481737	agenda	-0.069354
-3.481737	ages	-0.069354
-3.279497	agora	-0.069354
-3.481737	agriculture	-0.069354
-3.481737	agroikoi	-0.069354
-3.481737	aigikoreis	-0.069354
-3.279497	alcmaeon	-0.069354
-3.481737	alcmaeonid	-0.069354
-3.214065	alcmaeonidae	-0.069354
-3.055145	alcmaeonids	-0.069354
-3.481737	aliens	-0.069354
-3.279497	alkmeonid	-0.069354
-2.651640	all	-0.084361
-3.279497	alliances	-0.069354
-3.481737	allowed	-0.069354
-3.055145	also	-0.069354
-3.279497	altar	-0.111938
-3.481737	always	-0.069354
-3.481737	amalgamation	-0.069354
-3.481737	amnesty	-0.069354
-3.214065	among	-0.097274
-3.481737	amount	-0.069354
-2.557505	an	-0.076168
-3.481737	anacreon	-0.069354
-3.481737	anarchia	-0.069354
-3.481737	anarchy	-0.069354
-3.481737	ancestral	-0.069354
-3.481737	ancient	-0.069354
-1.507098	and	-0.132852
-3.279497	annual	-0.069354
-3.279497	any	-0.069354
-3.481737	apaturia	-0.069354
-3.279497	apollo	-0.069354
-3.279497	appeal	-0.069354
-3.481737	appeals	-0.069354
-3.279497	appear	-0.069354
-3.481737	application	-0.069354
-3.055145	appointed	-0.069354
-3.481737	arbitrator	-0.069354
-3.481737	archaic	-0.069354
-2.771992	archon	-0.076793
-2.847538	archons	-0.081101
-2.847538	archonship	-0.077544
-2.847538	are	-0.277484
-3.481737	areas	-0.069354
-3.055145	areopagus	-0.069354
-3.481737	argadeis	-0.069354
-3.481737	argive	-0.069354
-3.279497	argos	-0.069354
-3.481737	arises	-0.069354
-3.481737	aristides	-0.069354
-3.481737	aristions	-0.069354
-3.279497	aristocracies	-0.069354
-3.481737	aristocrat	-0.069354
-3.214065	aristocratic	-0.069354
-3.055145	aristocrats	-0.069354
-3.279497	aristogiton	-0.069354
-3.214065	aristotle	-0.312076
-3.481737	army	-0.069354
-3.481737	arrangements	-0.069354
-3.481737	arranges	-0.069354
-3.481737	artisans	-0.069354
-3.481737	artistic	-0.069354
-2.117567	as	-0.175567
-3.481737	ascribed	-0.069354
-3.279497	asia	-0.111938
-3.481737	assassinate	-0.069354
-3.481737	assassination	-0.069354
-3.481737	assault	-0.069354
-3.481737	assemblies	-0.069354
-3.214065	assembly	-0.069354
-3.481737	assertiveness	-0.069354
-3.279497	assigned	-0.069354
-3.481737	assignment	-0.069354
-3.481737	asty	-0.069354
-2.651640	at	-0.087767
-3.481737	ath	-0.069354
-3.279497	athena	-0.111938
-3.481737	athenaeus	-0.069354
-2.331667	athenian	-0.087358
-2.847538	athenians	-0.069354
-2.202119	athens	-0.106760
-3.279497	attack	-0.069354
-2.939052	attempt	-0.085890
-3.481737	attempts	-0.069354
-3.481737	attend	-0.069354
-2.939052	attica	-0.073645
-3.481737	attitude	-0.069354
-3.481737	attracts	-0.069354
-3.279497	attributes	-0.069354
-3.279497	autochthonous	-0.069354
-3.279497	automatically	-0.069354
-3.481737	avoids	-0.069354
-3.481737	awarded	-0.069354
-3.279497	b	-0.069354
-3.279497	background	-0.069354
-3.481737	backward	-0.069354
-3.481737	banished	-0.069354
-3.481737	barred	-0.069354
-3.481737	base	-0.069354
-2.939052	based	-0.334469
-3.481737	basic	-0.069354
-3.481737	basileis	-0.069354
-3.055145	basileus	-0.085890
-3.279497	basis	-0.069354
-3.481737	be	-0.069354
-3.279497	became	-0.069354
-2.771992	become	-0.069354
-2.847538	becomes	-0.170222
-3.481737	becoming	-0.069354
-3.279497	been	-0.069354
-2.939052	before	-0.085890
-3.279497	began	-0.069354
-3.481737	beginning	-0.069354
-3.481737	beginnings	-0.069354
-3.481737	begins	-0.069354
-3.481737	behind	-0.069354
-3.055145	being	-0.069354
-3.481737	believed	-0.069354
-3.481737	bended	-0.069354
-3.481737	beneath	-0.069354
-3.481737	benefit	-0.069354
-3.481737	benefited	-0.069354
-3.481737	beside	-0.069354
-3.481737	betrayed	-0.069354
-3.481737	betraying	-0.069354
-3.055145	between	-0.090124
-3.481737	beyond	-0.069354
-3.214065	birth	-0.069354
-3.214065	black	-0.097274
-3.481737	ble	-0.069354
-3.481737	blocks	-0.069354
-3.279497	board	-0.111938
-3.481737	boards	-0.069354
-3.214065	body	-0.069354
-3.481737	bodyguard	-0.069354
-3.279497	boeotia	-0.069354
-3.481737	boeotian	-0.069354
-3.481737	boeotians	-0.069354
-3.481737	born	-0.069354
-3.481737	borrowers	-0.069354
-3.481737	both	-0.069354
-2.939052	boule	-0.085890
-3.481737	bouleutic	-0.069354
-3.481737	boundaries	-0.069354
-3.481737	boy	-0.069354
-3.481737	branch	-0.069354
-3.481737	brauron	-0.069354
-3.279497	break	-0.069354
-3.481737	breaks	-0.069354
-3.481737	broneer	-0.069354
-3.214065	bronze	-0.312076
-3.481737	brother	-0.069354
-3.481737	brought	-0.069354
-3.481737	build	-0.069354
-3.481737	building	-0.069354
-3.481737	built	-0.069354
-3.481737	burdens	-0.069354
-3.481737	bureaucratic	-0.069354
-2.707660	but	-0.069354
-2.060081	by	-0.145934
-3.481737	c	-0.069354
-3.055145	called	-0.069354
-3.481737	cancelled	-0.069354
-3.481737	candidate	-0.069354
-3.481737	candidates	-0.069354
-3.481737	capacities	-0.069354
-3.481737	capacity	-0.069354
-3.481737	capital	-0.069354
-3.481737	capturing	-0.069354
-3.481737	career	-0.069354
-3.481737	carried	-0.069354
-3.481737	carry	-0.069354
-3.481737	case	-0.069354
-3.279497	cases	-0.069354
-3.481737	ceases	-0.069354
-3.481737	cecrops	-0.069354
-3.279497	census	-0.111938
-3.481737	center	-0.069354
-3.279497	centers	-0.069354
-3.481737	central	-0.069354
-3.481737	centralized	-0.069354
-3.279497	century	-0.069354
-3.481737	ceos	-0.069354
-3.481737	certain	-0.069354
-3.481737	chalcidian	-0.069354
-3.481737	chalcidians	-0.069354
-3.481737	chalcis	-0.069354
-3.481737	chamber	-0.069354
-3.481737	chambers	-0.069354
-3.481737	change	-0.069354
-3.481737	changes	-0.069354
-3.481737	changing	-0.069354
-3.481737	character	-0.069354
-3.214065	chersonese	-0.097274
-3.055145	chief	-0.085890
-3.481737	children	-0.069354
-3.481737	chose	-0.069354
-3.481737	chosen	-0.069354
-3.481737	chronological	-0.069354
-3.481737	cimon	-0.069354
-3.481737	circuit	-0.069354
-3.214065	cities	-0.069354
-3.214065	citizen	-0.069354
-2.847538	citizens	-0.069354
-3.214065	citizenship	-0.069354
-3.481737	city	-0.069354
-3.481737	civil	-0.069354
-3.481737	civilization	-0.069354
-3.481737	civilized	-0.069354
-3.481737	claim	-0.069354
-3.481737	claiming	-0.069354
-3.481737	clan	-0.069354
-3.214065	class	-0.069354
-2.707660	classes	-0.085890
-2.446140	cleisthenes	-0.073430
-3.279497	cleisthenic	-0.069354
-2.847538	cleomenes	-0.079615
-3.481737	cleruchs	-0.069354
-3.481737	coast	-0.069354
-3.214065	code	-0.069354
-3.214065	codification	-0.312076
-3.481737	codifying	-0.069354
-3.481737	coin	-0.069354
-3.481737	coinage	-0.069354
-3.279497	coins	-0.069354
-3.481737	collapse	-0.069354
-3.481737	colonies	-0.069354
-3.481737	colonization	-0.069354
-3.481737	colony	-0.069354
-3.481737	come	-0.069354
-3.481737	command	-0.069354
-3.481737	commanded	-0.069354
-3.279497	common	-0.069354
-3.481737	commoners	-0.069354
-3.481737	communities	-0.069354
-3.481737	compelled	-0.069354
-3.481737	complete	-0.069354
-3.481737	completed	-0.069354
-3.279497	composed	-0.111938
-3.481737	concerning	-0.069354
-3.481737	condemn	-0.069354
-3.481737	condemned	-0.069354
-3.481737	conditions	-0.069354
-3.481737	conjectural	-0.069354
-3.481737	connected	-0.069354
-3.481737	conquest	-0.069354
-3.279497	conservative	-0.069354
-3.481737	consider	-0.069354
-3.481737	considerable	-0.069354
-3.481737	considered	-0.069354
-3.481737	consisted	-0.069354
-3.481737	consisting	-0.069354
-3.481737	conspiracy	-0.069354
-3.481737	conspired	-0.069354
-3.481737	const	-0.069354
-3.214065	constitution	-0.085890
-3.481737	constitutional	-0.069354
-3.481737	consulted	-0.069354
-3.481737	contingent	-0.069354
-3.481737	continued	-0.069354
-3.481737	contrary	-0.069354
-3.481737	contrast	-0.069354
-3.481737	contrasting	-0.069354
-2.939052	control	-0.085890
-3.481737	controlled	-0.069354
-3.481737	conviction	-0.069354
-3.481737	copyright	-0.069354
-3.279497	corinth	-0.069354
-3.481737	corinthians	-0.069354
-3.481737	corinths	-0.069354
-3.481737	correcting	-0.069354
-3.481737	could	-0.069354
-2.357582	council	-0.391349
-3.279497	councilors	-0.069354
-3.481737	counted	-0.069354
-3.481737	country	-0.069354
-3.481737	court	-0.069354
-3.481737	courts	-0.069354
-3.481737	crafts	-0.069354
-3.279497	created	-0.069354
-3.481737	creditor	-0.069354
-3.481737	crete	-0.069354
-3.481737	criteria	-0.069354
-3.279497	criterion	-0.069354
-3.481737	crucial	-0.069354
-3.214065	cults	-0.069354
-3.481737	curse	-0.069354
-3.481737	curtail	-0.069354
-3.481737	customary	-0.069354
-3.481737	customs	-0.069354
-3.481737	cyclades	-0.069354
-3.481737	cyclopes	-0.069354
-3.214065	cylon	-0.069354
-3.279497	cylons	-0.069354
-3.481737	cyprus	-0.069354
-3.279497	damasias	-0.069354
-3.481737	danger	-0.069354
-3.481737	darius	-0.069354
-3.214065	dark	-0.237559
-3.279497	date	-0.069354
-3.481737	dating	-0.069354
-3.481737	day	-0.069354
-3.481737	dealing	-0.069354
-3.279497	death	-0.069354
-3.481737	debt	-0.069354
-3.481737	debtors	-0.069354
-3.279497	debts	-0.069354
-3.481737	decentralization	-0.069354
-3.481737	decide	-0.069354
-3.481737	dedicated	-0.069354
-3.481737	defeat	-0.069354
-3.481737	deliberative	-0.069354
-3.481737	delphi	-0.069354
-3.481737	demanding	-0.069354
-3.481737	demaratus	-0.069354
-3.481737	demarch	-0.069354
-2.939052	deme	-0.069354
-3.214065	demes	-0.090124
-3.279497	demiourgoi	-0.069354
-3.214065	democracy	-0.069354
-3.481737	democrat	-0.069354
-3.279497	democratic	-0.069354
-3.279497	demos	-0.069354
-3.481737	demotic	-0.069354
-3.481737	demotikotatos	-0.069354
-3.481737	dentify	-0.069354
-3.481737	dependence	-0.069354
-3.481737	dependent	-0.069354
-3.481737	descent	-0.069354
-3.481737	describes	-0.069354
-3.481737	deserve	-0.069354
-3.481737	destruction	-0.069354
-3.481737	devastation	-0.069354
-3.214065	development	-0.097274
-3.481737	develops	-0.069354
-3.481737	diakria	-0.069354
-3.279497	diakrioi	-0.069354
-2.480184	did	-0.128610
-3.481737	died	-0.069354
-3.481737	differ	-0.069354
-3.481737	different	-0.069354
-3.481737	dikai	-0.069354
-3.481737	dionysia	-0.069354
-3.279497	dionysus	-0.069354
-3.481737	discards	-0.069354
-3.481737	discovered	-0.069354
-3.481737	disintegration	-0.069354
-3.279497	disputes	-0.069354
-3.481737	dissolve	-0.069354
-3.481737	distinction	-0.069354
-3.481737	distinguish	-0.069354
-3.481737	distressing	-0.069354
-3.481737	district	-0.069354
-3.481737	districts	-0.069354
-3.481737	dividing	-0.069354
-3.055145	do	-0.069354
-2.939052	does	-0.085890
-3.279497	dominant	-0.069354
-3.481737	done	-0.069354
-3.279497	dorian	-0.111938
-3.481737	dorians	-0.069354
-3.055145	down	-0.085890
-3.481737	downfall	-0.069354
-3.214065	draco	-0.069354
-3.279497	dracos	-0.111938
-3.481737	drinking	-0.069354
-3.279497	driven	-0.111938
-3.279497	drives	-0.111938
-3.214065	due	-0.312076
-3.214065	during	-0.312076
-3.279497	duties	-0.069354
-3.481737	duty	-0.069354
-3.055145	e	-0.079615
-2.771992	each	-0.157615
-3.481737	earlier	-0.069354
-3.481737	earliest	-0.069354
-2.847538	early	-0.081101
-3.279497	earth	-0.069354
-3.481737	east	-0.069354
-3.481737	eastward	-0.069354
-3.214065	ecclesia	-0.069354
-3.214065	economic	-0.069354
-3.481737	economy	-0.069354
-3.481737	effect	-0.069354
-3.481737	eisangelia	-0.069354
-3.279497	ekklesia	-0.069354
-3.481737	elaborate	-0.069354
-3.481737	elder	-0.069354
-3.481737	elders	-0.069354
-3.279497	elect	-0.069354
-3.481737	elected	-0.069354
-3.481737	election	-0.069354
-3.481737	electoral	-0.069354
-3.481737	elements	-0.069354
-3.481737	eleusinia	-0.069354
-3.481737	eleusinian	-0.069354
-3.481737	eleusinians	-0.069354
-3.214065	eleusis	-0.069354
-3.481737	eligibility	-0.069354
-3.481737	eligible	-0.069354
-3.481737	eliminated	-0.069354
-3.481737	employed	-0.069354
-3.481737	enabled	-0.069354
-3.481737	enacted	-0.069354
-3.481737	encouraged	-0.069354
-3.481737	ended	-0.069354
-3.481737	ending	-0.069354
-3.481737	ends	-0.069354
-3.481737	enforced	-0.069354
-3.481737	enfranchisement	-0.069354
-3.481737	enjoy	-0.069354
-3.279497	enrolled	-0.111938
-3.279497	enrollment	-0.069354
-3.481737	enslaved	-0.069354
-3.481737	enslavement	-0.069354
-3.481737	entrench	-0.069354
-3.481737	envision	-0.069354
-3.481737	eponymos	-0.069354
-3.481737	eponymous	-0.069354
-3.279497	erechtheus	-0.069354
-3.279497	eretria	-0.069354
-3.481737	es	-0.069354
-3.481737	escapes	-0.069354
-3.481737	essentially	-0.069354
-3.279497	establish	-0.069354
-2.847538	established	-0.083090
-3.481737	establishes	-0.069354
-3.481737	establishment	-0.069354
-3.481737	estates	-0.069354
-3.481737	eto	-0.069354
-3.279497	euboea	-0.069354
-3.481737	euboean	-0.069354
-3.481737	eumolpus	-0.069354
-3.481737	eunomia	-0.069354
-3.279497	eupatridae	-0.069354
-3.055145	eupatrids	-0.079615
-3.279497	european	-0.069354
-3.481737	even	-0.069354
-3.481737	events	-0.069354
-3.481737	eventually	-0.069354
-3.279497	evidence	-0.069354
-3.481737	evolved	-0.069354
-3.481737	ex	-0.069354
-3.481737	exceed	-0.069354
-3.055145	except	-0.069354
-3.481737	exclusive	-0.069354
-3.481737	executive	-0.069354
-3.279497	exile	-0.069354
-3.481737	exiled	-0.069354
-3.279497	existed	-0.069354
-3.481737	existence	-0.069354
-3.481737	expand	-0.069354
-3.481737	expels	-0.069354
-3.481737	expenditures	-0.069354
-3.481737	experienced	-0.069354
-3.481737	export	-0.069354
-3.481737	exported	-0.069354
-3.481737	expulsion	-0.069354
-3.481737	extant	-0.069354
-3.481737	extensive	-0.069354
-3.481737	extent	-0.069354
-3.481737	factional	-0.069354
-3.481737	factor	-0.069354
-3.481737	factors	-0.069354
-3.481737	failed	-0.069354
-3.481737	fails	-0.069354
-3.481737	fallen	-0.069354
-2.847538	families	-0.069354
-3.055145	family	-0.069354
-3.481737	famous	-0.069354
-3.279497	far	-0.069354
-3.481737	faster	-0.069354
-3.279497	father	-0.069354
-3.481737	fathers	-0.069354
-3.481737	favoring	-0.069354
-3.214065	features	-0.097274
-3.481737	festival	-0.069354
-3.279497	feuding	-0.111938
-3.481737	fifth	-0.069354
-3.481737	fighting	-0.069354
-3.481737	figures	-0.069354
-3.481737	finally	-0.069354
-3.214065	fine	-0.069354
-2.771992	first	-0.078463
-3.279497	five	-0.069354
-3.481737	flees	-0.069354
-3.481737	follow	-0.069354
-3.481737	followed	-0.069354
-3.481737	followers	-0.069354
-3.214065	following	-0.097274
-3.481737	follows	-0.069354
-2.021466	for	-0.245298
-3.481737	forbade	-0.069354
-3.481737	forbidding	-0.069354
-3.481737	force	-0.069354
-3.481737	forces	-0.069354
-3.481737	foreign	-0.069354
-3.481737	form	-0.069354
-3.481737	formed	-0.069354
-3.481737	formerly	-0.069354
-3.481737	formidable	-0.069354
-3.481737	fortress	-0.069354
-3.279497	found	-0.111938
-2.939052	four	-0.079615
-3.279497	framework	-0.111938
-3.279497	free	-0.069354
-3.481737	friend	-0.069354
-2.117567	from	-0.215241
-3.481737	full	-0.069354
-3.481737	functions	-0.069354
-3.481737	fundamental	-0.069354
-3.481737	further	-0.069354
-3.481737	g	-0.069354
-3.481737	gain	-0.069354
-3.481737	gained	-0.069354
-3.481737	gains	-0.069354
-3.481737	garrison	-0.069354
-3.481737	gave	-0.069354
-3.481737	geleontes	-0.069354
-2.939052	gene	-0.081101
-3.481737	general	-0.069354
-2.939052	generals	-0.083090
-3.214065	generation	-0.097274
-3.481737	gennetai	-0.069354
-3.481737	genos	-0.069354
-3.214065	geometric	-0.090124
-3.481737	georgoi	-0.069354
-3.481737	gerrymandering	-0.069354
-3.481737	get	-0.069354
-3.481737	getting	-0.069354
-3.481737	gloried	-0.069354
-3.279497	go	-0.111938
-3.214065	gods	-0.069354
-3.481737	gold	-0.069354
-3.279497	golden	-0.111938
-3.481737	good	-0.069354
-2.847538	government	-0.069354
-3.279497	gradually	-0.069354
-3.279497	grain	-0.069354
-3.481737	grandson	-0.069354
-3.279497	granted	-0.069354
-3.279497	graphe	-0.069354
-2.939052	great	-0.145364
-3.481737	greatest	-0.069354
-2.847538	greece	-0.083090
-3.055145	greek	-0.069354
-3.481737	greeks	-0.069354
-3.481737	grievances	-0.069354
-3.481737	grouped	-0.069354
-3.481737	groupings	-0.069354
-3.279497	groups	-0.069354
-3.481737	growing	-0.069354
-3.481737	growth	-0.069354
-3.481737	guarding	-0.069354
-3.481737	h	-0.069354
-2.480184	had	-0.080308
-3.481737	hailed	-0.069354
-3.481737	hall	-0.069354
-3.481737	hand	-0.069354
-3.481737	handled	-0.069354
-3.481737	harbor	-0.069354
-2.939052	harmodius	-0.334469
-3.481737	harsh	-0.069354
-2.771992	have	-0.069354
-3.055145	having	-0.069354
-3.481737	hdt	-0.069354
-2.557505	he	-0.111148
-3.481737	heads	-0.069354
-3.481737	height	-0.069354
-3.279497	hektemoroi	-0.069354
-3.279497	hektemors	-0.069354
-3.481737	held	-0.069354
-3.214065	heliaia	-0.069354
-3.214065	helladic	-0.069354
-3.279497	hellespont	-0.069354
-3.214065	help	-0.097274
-3.481737	helps	-0.069354
-3.481737	henceforth	-0.069354
-3.279497	her	-0.069354
-3.214065	hereditary	-0.069354
-3.481737	hermocreon	-0.069354
-3.279497	hero	-0.069354
-3.481737	heroes	-0.069354
-3.481737	higher	-0.069354
-3.279497	highly	-0.069354
-3.279497	hill	-0.069354
-3.481737	hills	-0.069354
-3.214065	him	-0.069354
-3.214065	himself	-0.097274
-3.214065	hipparchus	-0.069354
-3.055145	hippeis	-0.069354
-2.651640	hippias	-0.075640
-3.481737	hippocleides	-0.069354
-2.307211	his	-0.125049
-3.481737	historical	-0.069354
-3.481737	history	-0.069354
-3.481737	holding	-0.069354
-3.481737	homer	-0.069354
-3.481737	homeric	-0.069354
-3.481737	homers	-0.069354
-3.481737	homicide	-0.069354
-3.481737	hopletes	-0.069354
-3.055145	hoplite	-0.090124
-3.481737	hoplites	-0.069354
-3.279497	horoi	-0.069354
-3.481737	horsemen	-0.069354
-3.481737	hostile	-0.069354
-3.481737	house	-0.069354
-3.214065	how	-0.069354
-3.481737	however	-0.069354
-3.279497	hundred	-0.069354
-3.481737	hunger	-0.069354
-3.481737	hyperakria	-0.069354
-3.481737	hyperakrioi	-0.069354
-2.707660	i	-0.402423
-3.279497	if	-0.069354
-3.481737	ignored	-0.069354
-3.481737	illegitimate	-0.069354
-3.481737	iltiades	-0.069354
-3.214065	image	-0.312076
-3.481737	imagined	-0.069354
-3.481737	immigrants	-0.069354
-3.481737	impact	-0.069354
-3.279497	impeachment	-0.111938
-3.481737	implications	-0.069354
-3.279497	importance	-0.069354
-3.214065	important	-0.069354
-3.481737	imports	-0.069354
-3.481737	imposed	-0.069354
-1.653583	in	-0.334894
-3.481737	inalienability	-0.069354
-3.481737	inauguration	-0.069354
-3.481737	include	-0.069354
-3.481737	included	-0.069354
-3.481737	including	-0.069354
-3.481737	increase	-0.069354
-3.279497	increased	-0.069354
-3.214065	increases	-0.069354
-3.481737	incursions	-0.069354
-3.481737	independent	-0.069354
-3.481737	indicate	-0.069354
-3.481737	indicated	-0.069354
-3.279497	individuals	-0.069354
-3.279497	indo	-0.111938
-3.481737	industry	-0.069354
-3.214065	influence	-0.069354
-3.481737	information	-0.069354
-3.214065	inhabitants	-0.312076
-3.481737	inheritance	-0.069354
-3.481737	initiated	-0.069354
-3.481737	install	-0.069354
-3.481737	instance	-0.069354
-3.214065	instead	-0.097274
-3.481737	instigation	-0.069354
-3.481737	institute	-0.069354
-3.481737	instituted	-0.069354
-3.481737	intelligence	-0.069354
-3.481737	intend	-0.069354
-3.481737	intended	-0.069354
-3.279497	inter	-0.069354
-3.481737	interest	-0.069354
-3.481737	interests	-0.069354
-3.481737	interference	-0.069354
-3.481737	interpretation	-0.069354
-2.939052	into	-0.069354
-3.279497	introduced	-0.069354
-3.279497	invasion	-0.069354
-3.481737	invoking	-0.069354
-3.481737	involved	-0.069354
-3.481737	involving	-0.069354
-3.481737	ionia	-0.069354
-3.055145	ionian	-0.237559
-3.481737	ionians	-0.069354
-3.481737	ippia	-0.069354
-3.481737	iron	-0.069354
-2.651640	is	-0.078463
-2.602027	isagoras	-0.129060
-3.481737	isegoria	-0.069354
-3.481737	island	-0.069354
-3.214065	isonomia	-0.069354
-3.481737	issued	-0.069354
-2.771992	it	-0.069354
-2.847538	its	-0.069354
-3.279497	itself	-0.069354
-3.481737	join	-0.069354
-3.279497	judges	-0.069354
-3.481737	judgments	-0.069354
-3.481737	judicial	-0.069354
-3.279497	jurisdiction	-0.069354
-3.214065	just	-0.097274
-3.279497	justice	-0.069354
-3.481737	k	-0.069354
-3.481737	ka	-0.069354
-3.481737	keep	-0.069354
-3.279497	kept	-0.069354
-3.279497	key	-0.111938
-3.481737	killed	-0.069354
-3.481737	kimon	-0.069354
-2.602027	king	-0.069354
-3.214065	kings	-0.069354
-3.214065	kingship	-0.069354
-3.481737	kinship	-0.069354
-3.481737	kleisthenes	-0.069354
-3.481737	kleroi	-0.069354
-3.481737	knowing	-0.069354
-3.481737	knowledge	-0.069354
-3.481737	known	-0.069354
-3.279497	laborers	-0.069354
-3.481737	laid	-0.069354
-3.481737	lampsacus	-0.069354
-3.214065	land	-0.069354
-3.279497	landless	-0.069354
-3.481737	lands	-0.069354
-3.481737	large	-0.069354
-3.279497	late	-0.069354
-3.214065	later	-0.069354
-3.481737	launches	-0.069354
-2.771992	law	-0.081101
-3.481737	lawagetas	-0.069354
-3.481737	lawmakers	-0.069354
-2.707660	laws	-0.075188
-3.481737	lays	-0.069354
-3.214065	leader	-0.069354
-3.481737	leaders	-0.069354
-3.279497	leadership	-0.069354
-3.279497	leading	-0.069354
-3.481737	league	-0.069354
-3.481737	leave	-0.069354
-3.481737	lecture	-0.069354
-2.939052	led	-0.085890
-3.481737	left	-0.069354
-3.481737	legally	-0.069354
-3.481737	legend	-0.069354
-3.481737	legislation	-0.069354
-3.279497	legislative	-0.069354
-3.481737	leisthen	-0.069354
-3.481737	lelantine	-0.069354
-3.481737	lesbian	-0.069354
-3.214065	less	-0.069354
-3.481737	lessen	-0.069354
-3.481737	let	-0.069354
-3.481737	liberate	-0.069354
-3.481737	liberated	-0.069354
-3.481737	liberation	-0.069354
-3.481737	liberators	-0.069354
-3.279497	life	-0.069354
-3.279497	lifelong	-0.069354
-3.481737	light	-0.069354
-3.481737	like	-0.069354
-3.481737	likely	-0.069354
-3.481737	limiting	-0.069354
-3.279497	linear	-0.111938
-3.279497	list	-0.069354
-3.481737	lists	-0.069354
-3.481737	litigation	-0.069354
-3.481737	live	-0.069354
-3.481737	lliades	-0.069354
-3.214065	loans	-0.097274
-3.055145	local	-0.069354
-3.481737	location	-0.069354
-3.481737	long	-0.069354
-3.481737	longer	-0.069354
-3.481737	loses	-0.069354
-3.481737	loss	-0.069354
-3.481737	lost	-0.069354
-3.481737	lot	-0.069354
-3.481737	lots	-0.069354
-3.481737	love	-0.069354
-3.481737	lower	-0.069354
-3.214065	lycurgus	-0.069354
-3.279497	lygdamis	-0.069354
-3.481737	lypsidrium	-0.069354
-3.481737	m	-0.069354
-2.939052	made	-0.069354
-3.481737	magistracies	-0.069354
-3.481737	magistracy	-0.069354
-2.847538	magistrates	-0.069354
-3.481737	main	-0.069354
-3.055145	mainland	-0.237559
-3.481737	maintained	-0.069354
-3.279497	maintaining	-0.069354
-3.481737	majority	-0.069354
-3.481737	make	-0.069354
-3.279497	makes	-0.097274
-3.481737	making	-0.069354
-3.279497	manipulate	-0.069354
-3.481737	manner	-0.069354
-3.481737	manufacture	-0.069354
-3.481737	many	-0.069354
-3.481737	map	-0.069354
-3.214065	marathon	-0.069354
-3.481737	marks	-0.069354
-3.481737	married	-0.069354
-3.481737	massive	-0.069354
-3.481737	matched	-0.069354
-3.481737	may	-0.069354
-3.481737	meaning	-0.069354
-3.481737	measure	-0.069354
-3.481737	measured	-0.069354
-2.939052	measures	-0.087767
-3.481737	medici	-0.069354
-3.481737	mediterranean	-0.069354
-3.481737	meetings	-0.069354
-2.847538	megacles	-0.083090
-3.214065	megara	-0.069354
-3.481737	melesias	-0.069354
-2.771992	members	-0.215387
-3.279497	membership	-0.111938
-3.481737	memory	-0.069354
-2.771992	men	-0.157396
-3.481737	mercenaries	-0.069354
-3.481737	merchants	-0.069354
-3.481737	merely	-0.069354
-3.481737	merge	-0.069354
-3.481737	mesogeion	-0.069354
-3.481737	met	-0.069354
-3.481737	metalworking	-0.069354
-3.481737	metics	-0.069354
-3.481737	mid	-0.069354
-3.214065	middle	-0.069354
-3.481737	might	-0.069354
-3.279497	migration	-0.069354
-3.481737	migrations	-0.069354
-3.055145	military	-0.069354
-3.055145	miltiades	-0.090124
-3.481737	mines	-0.069354
-3.481737	minimum	-0.069354
-3.481737	minoan	-0.069354
-3.214065	minor	-0.069354
-3.481737	moderate	-0.069354
-3.481737	monarchs	-0.069354
-3.481737	monopolized	-0.069354
-3.214065	monopoly	-0.097274
-3.279497	months	-0.069354
-3.214065	more	-0.069354
-3.214065	most	-0.069354
-3.279497	motion	-0.069354
-3.481737	mouth	-0.069354
-3.481737	movable	-0.069354
-3.481737	moveable	-0.069354
-3.481737	movement	-0.069354
-3.481737	mt	-0.069354
-3.279497	murder	-0.069354
-3.481737	my	-0.069354
-3.279497	mycenae	-0.069354
-3.214065	mycenaean	-0.083090
-3.481737	myrtle	-0.069354
-3.481737	mysteries	-0.069354
-3.481737	mytilene	-0.069354
-3.279497	named	-0.069354
-3.481737	namely	-0.069354
-3.481737	names	-0.069354
-3.481737	natural	-0.069354
-3.481737	naucraries	-0.069354
-3.279497	naxos	-0.069354
-3.481737	near	-0.069354
-3.481737	neleid	-0.069354
-3.279497	neolithic	-0.069354
-3.481737	never	-0.069354
-2.847538	new	-0.069354
-3.481737	newly	-0.069354
-3.481737	next	-0.069354
-3.279497	nine	-0.111938
-3.481737	nisaea	-0.069354
-3.279497	no	-0.069354
-3.481737	nobility	-0.069354
-3.481737	noble	-0.069354
-3.279497	nobles	-0.069354
-3.481737	nomenclature	-0.069354
-3.481737	non	-0.069354
-2.602027	not	-0.069354
-3.481737	nothoi	-0.069354
-3.481737	now	-0.069354
-2.939052	number	-0.334469
-3.481737	numerous	-0.069354
-3.481737	o	-0.069354
-3.214065	oath	-0.069354
-3.481737	obtain	-0.069354
-3.481737	obtained	-0.069354
-3.279497	obverse	-0.069354
-3.481737	occurred	-0.069354
-1.330082	of	-0.273965
-3.481737	off	-0.069354
-3.481737	offenders	-0.069354
-3.214065	office	-0.069354
-3.481737	officers	-0.069354
-3.481737	official	-0.069354
-3.279497	oikoi	-0.069354
-3.481737	oikos	-0.069354
-3.481737	oil	-0.069354
-3.214065	old	-0.069354
-3.481737	oligarchic	-0.069354
-3.279497	oligarchy	-0.069354
-3.279497	olive	-0.111938
-2.183840	on	-0.234113
-2.602027	one	-0.123280
-3.055145	only	-0.069354
-3.481737	onsider	-0.069354
-3.481737	opened	-0.069354
-3.481737	opponent	-0.069354
-3.481737	opportunist	-0.069354
-3.481737	opposition	-0.069354
-2.202119	or	-0.099157
-3.481737	oracle	-0.069354
-3.481737	orators	-0.069354
-3.481737	orchomenus	-0.069354
-3.481737	order	-0.069354
-3.481737	ordinary	-0.069354
-3.279497	organization	-0.069354
-3.279497	organized	-0.069354
-3.481737	organs	-0.069354
-3.481737	orgeones	-0.069354
-2.939052	ostracism	-0.083090
-2.707660	other	-0.079615
-3.481737	others	-0.069354
-3.214065	out	-0.069354
-3.481737	outlaw	-0.069354
-3.481737	outlay	-0.069354
-3.481737	outstripped	-0.069354
-2.707660	over	-0.402423
-3.481737	overseas	-0.069354
-3.481737	overseer	-0.069354
-3.481737	overwhelms	-0.069354
-3.481737	owed	-0.069354
-3.481737	owl	-0.069354
-3.214065	own	-0.069354
-3.481737	owners	-0.069354
-3.481737	ownership	-0.069354
-3.481737	p	-0.069354
-2.939052	palace	-0.085890
-3.481737	palaces	-0.069354
-3.279497	pallene	-0.069354
-3.279497	panathenaia	-0.069354
-3.481737	panathenaic	-0.069354
-3.279497	pangaeus	-0.069354
-3.481737	paralia	-0.069354
-3.279497	paralioi	-0.069354
-3.481737	parents	-0.069354
-3.279497	pares	-0.111938
-3.214065	part	-0.069354
-3.481737	participate	-0.069354
-3.481737	participation	-0.069354
-3.481737	particular	-0.069354
-3.481737	parties	-0.069354
-3.279497	partisans	-0.069354
-3.481737	parts	-0.069354
-3.481737	passes	-0.069354
-3.481737	pave	-0.069354
-3.481737	pay	-0.069354
-3.481737	peasants	-0.069354
-3.481737	peculiar	-0.069354
-3.481737	pediakoi	-0.069354
-3.481737	pedieis	-0.069354
-3.481737	peisi	-0.069354
-3.481737	peisistratid	-0.069354
-3.481737	peisistratids	-0.069354
-2.651640	peisistratus	-0.076793
-3.481737	peninsula	-0.069354
-2.939052	pentakosiomedimnoi	-0.085890
-3.055145	people	-0.083090
-3.481737	per	-0.069354
-3.481737	periander	-0.069354
-3.279497	perikles	-0.069354
-2.939052	period	-0.069354
-3.279497	persian	-0.069354
-3.279497	person	-0.069354
-3.481737	persons	-0.069354
-3.279497	petty	-0.069354
-3.055145	phratries	-0.069354
-3.214065	phratry	-0.069354
-3.481737	phye	-0.069354
-3.214065	phylai	-0.097274
-3.214065	place	-0.069354
-3.481737	placed	-0.069354
-3.214065	plain	-0.069354
-3.481737	plataea	-0.069354
-3.481737	plot	-0.069354
-3.279497	plutarch	-0.069354
-3.481737	plutocratic	-0.069354
-3.481737	pnyx	-0.069354
-3.481737	poems	-0.069354
-3.481737	poetry	-0.069354
-3.214065	polemarch	-0.097274
-3.214065	policy	-0.069354
-3.481737	polis	-0.069354
-3.279497	politeia	-0.069354
-2.771992	political	-0.069354
-3.481737	politically	-0.069354
-3.481737	politics	-0.069354
-3.481737	polluted	-0.069354
-3.481737	poor	-0.069354
-3.481737	popular	-0.069354
-3.055145	population	-0.069354
-2.847538	position	-0.083090
-3.279497	possession	-0.069354
-2.939052	possible	-0.069354
-3.481737	possibly	-0.069354
-3.481737	potters	-0.069354
-3.214065	pottery	-0.069354
-2.651640	power	-0.136231
-3.055145	powerful	-0.069354
-3.214065	powers	-0.069354
-3.481737	practices	-0.069354
-3.481737	precinct	-0.069354
-3.481737	predominant	-0.069354
-3.481737	preliminary	-0.069354
-3.481737	premeditated	-0.069354
-3.481737	prepare	-0.069354
-3.481737	present	-0.069354
-3.279497	presided	-0.111938
-3.481737	presides	-0.069354
-3.481737	pressure	-0.069354
-3.481737	pressures	-0.069354
-3.481737	prevented	-0.069354
-3.481737	priesthoods	-0.069354
-3.481737	primes	-0.069354
-3.481737	primus	-0.069354
-3.279497	principles	-0.069354
-3.481737	prior	-0.069354
-3.481737	privileged	-0.069354
-3.481737	privileges	-0.069354
-3.481737	probably	-0.069354
-3.481737	probalinthos	-0.069354
-3.481737	problems	-0.069354
-3.279497	probouleutic	-0.069354
-3.481737	produce	-0.069354
-3.481737	produced	-0.069354
-3.481737	products	-0.069354
-3.481737	program	-0.069354
-3.279497	progressive	-0.111938
-3.481737	prohibition	-0.069354
-3.279497	prominent	-0.069354
-3.481737	propaganda	-0.069354
-3.481737	property	-0.069354
-3.481737	prosperous	-0.069354
-3.481737	protection	-0.069354
-3.214065	proto	-0.097274
-3.481737	provide	-0.069354
-3.481737	provides	-0.069354
-3.481737	provision	-0.069354
-3.481737	prytaneis	-0.069354
-3.481737	prytany	-0.069354
-3.481737	psephismata	-0.069354
-3.279497	public	-0.111938
-3.481737	punish	-0.069354
-3.481737	punishments	-0.069354
-3.481737	purpose	-0.069354
-3.481737	pursued	-0.069354
-3.214065	put	-0.090124
-3.481737	pylos	-0.069354
-3.481737	quarrels	-0.069354
-3.481737	radical	-0.069354
-3.481737	rapid	-0.069354
-3.481737	reaching	-0.069354
-3.481737	reading	-0.069354
-3.279497	real	-0.111938
-3.481737	realize	-0.069354
-3.481737	reason	-0.069354
-3.481737	recalled	-0.069354
-3.481737	receives	-0.069354
-3.481737	recently	-0.069354
-3.481737	recitation	-0.069354
-3.481737	recognized	-0.069354
-3.481737	reconstruct	-0.069354
-3.481737	reduce	-0.069354
-3.279497	reduced	-0.069354
-3.481737	reducing	-0.069354
-3.481737	referendum	-0.069354
-3.481737	reform	-0.069354
-3.481737	reformer	-0.069354
-3.055145	reforms	-0.069354
-3.481737	refuge	-0.069354
-3.481737	refugees	-0.069354
-3.481737	refusing	-0.069354
-3.481737	regain	-0.069354
-3.481737	regard	-0.069354
-3.481737	regarding	-0.069354
-3.481737	regiments	-0.069354
-3.481737	registered	-0.069354
-3.481737	registers	-0.069354
-3.481737	regressive	-0.069354
-3.481737	regulate	-0.069354
-3.481737	reign	-0.069354
-3.481737	reintroduced	-0.069354
-3.481737	relative	-0.069354
-3.481737	reliable	-0.069354
-3.481737	religion	-0.069354
-3.214065	religious	-0.069354
-3.481737	remain	-0.069354
-3.481737	remained	-0.069354
-3.279497	remains	-0.111938
-3.481737	removed	-0.069354
-3.481737	reorganization	-0.069354
-3.481737	reorganizes	-0.069354
-3.481737	replaces	-0.069354
-3.481737	republic	-0.069354
-3.279497	reputation	-0.069354
-3.481737	requests	-0.069354
-3.481737	required	-0.069354
-3.481737	resident	-0.069354
-3.481737	resources	-0.069354
-3.481737	responsible	-0.069354
-3.481737	restoration	-0.069354
-3.481737	restored	-0.069354
-3.481737	restrictions	-0.069354
-3.279497	result	-0.069354
-3.481737	results	-0.069354
-3.279497	retain	-0.069354
-3.481737	retained	-0.069354
-3.279497	retains	-0.069354
-3.481737	retroactive	-0.069354
-3.481737	return	-0.069354
-3.481737	returning	-0.069354
-3.279497	returns	-0.069354
-3.279497	reverse	-0.069354
-3.481737	revision	-0.069354
-3.481737	revolutionary	-0.069354
-3.481737	rides	-0.069354
-3.481737	right	-0.069354
-3.481737	rights	-0.069354
-3.481737	rise	-0.069354
-3.279497	rites	-0.069354
-3.481737	role	-0.069354
-3.481737	rule	-0.069354
-3.279497	ruled	-0.111938
-3.214065	ruler	-0.069354
-3.481737	rules	-0.069354
-3.481737	runs	-0.069354
-3.279497	rural	-0.069354
-3.214065	s	-0.069354
-3.481737	sacred	-0.069354
-3.481737	sacrifices	-0.069354
-3.214065	salamis	-0.069354
-3.481737	sat	-0.069354
-3.481737	scene	-0.069354
-3.481737	sea	-0.069354
-3.481737	seasons	-0.069354
-3.481737	second	-0.069354
-3.481737	secular	-0.069354
-3.279497	secure	-0.069354
-3.279497	secured	-0.069354
-3.481737	seek	-0.069354
-3.481737	seeking	-0.069354
-3.214065	seisachtheia	-0.069354
-3.481737	seized	-0.069354
-3.481737	seizes	-0.069354
-3.481737	seizing	-0.069354
-3.481737	self	-0.069354
-3.481737	seriously	-0.069354
-3.279497	serve	-0.069354
-3.481737	service	-0.069354
-3.481737	set	-0.069354
-3.481737	settle	-0.069354
-3.481737	settled	-0.069354
-3.279497	settlements	-0.069354
-3.279497	seventh	-0.111938
-3.481737	several	-0.069354
-3.481737	severity	-0.069354
-3.481737	shaking	-0.069354
-3.481737	shall	-0.069354
-3.481737	shape	-0.069354
-3.481737	shards	-0.069354
-3.481737	share	-0.069354
-3.481737	shed	-0.069354
-3.481737	shore	-0.069354
-3.481737	shown	-0.069354
-3.481737	sicyon	-0.069354
-3.481737	side	-0.069354
-3.214065	sigeum	-0.069354
-3.481737	significance	-0.069354
-3.481737	significant	-0.069354
-3.481737	sikyon	-0.069354
-3.279497	silver	-0.069354
-3.481737	similar	-0.069354
-3.481737	simonides	-0.069354
-3.481737	single	-0.069354
-3.481737	sites	-0.069354
-3.481737	situation	-0.069354
-3.481737	six	-0.069354
-3.279497	sixth	-0.069354
-3.481737	skolia	-0.069354
-3.279497	slavery	-0.069354
-3.481737	slaying	-0.069354
-3.481737	slew	-0.069354
-3.481737	small	-0.069354
-3.214065	so	-0.069354
-2.939052	social	-0.198303
-3.481737	society	-0.069354
-3.481737	soil	-0.069354
-2.557505	solon	-0.081101
-2.602027	solons	-0.099339
-3.481737	some	-0.069354
-3.481737	sometimes	-0.069354
-3.055145	son	-0.237559
-3.481737	songs	-0.069354
-3.279497	sons	-0.069354
-3.481737	sought	-0.069354
-3.481737	sources	-0.069354
-3.481737	sovereign	-0.069354
-3.214065	sparta	-0.069354
-3.279497	spartan	-0.069354
-3.481737	spartans	-0.069354
-3.481737	spartas	-0.069354
-3.481737	speakers	-0.069354
-3.481737	sprung	-0.069354
-3.481737	stable	-0.069354
-3.481737	stance	-0.069354
-3.481737	standard	-0.069354
-2.847538	state	-0.085890
-3.481737	statement	-0.069354
-3.055145	states	-0.085890
-3.481737	status	-0.069354
-3.481737	still	-0.069354
-3.481737	stimulated	-0.069354
-3.481737	stimulus	-0.069354
-3.481737	strat	-0.069354
-3.481737	strategoi	-0.069354
-3.481737	strong	-0.069354
-3.481737	structure	-0.069354
-3.481737	struggles	-0.069354
-3.481737	sub	-0.069354
-3.279497	subsequent	-0.069354
-3.481737	substitutes	-0.069354
-3.481737	succeeded	-0.069354
-3.279497	successful	-0.069354
-3.279497	such	-0.111938
-3.279497	suggest	-0.097274
-3.481737	superiority	-0.069354
-3.481737	supervision	-0.069354
-3.481737	supplanted	-0.069354
-3.481737	supplied	-0.069354
-3.279497	support	-0.111938
-3.481737	supported	-0.069354
-3.481737	survives	-0.069354
-3.481737	sword	-0.069354
-3.481737	sympoliteia	-0.069354
-3.214065	synoecism	-0.069354
-3.481737	synoikismos	-0.069354
-3.481737	syria	-0.069354
-2.651640	system	-0.350066
-3.481737	table	-0.069354
-3.481737	tablets	-0.069354
-3.214065	take	-0.069354
-3.279497	taken	-0.069354
-3.481737	taxiarchs	-0.069354
-3.481737	technology	-0.069354
-3.481737	temple	-0.069354
-3.481737	temples	-0.069354
-3.214065	ten	-0.069354
-3.481737	tenth	-0.069354
-3.481737	tenure	-0.069354
-3.481737	teos	-0.069354
-3.481737	term	-0.069354
-3.481737	territorial	-0.069354
-3.481737	tetrapolis	-0.069354
-3.055145	than	-0.069354
-2.480184	that	-0.082018
-1.389055	the	-0.139442
-3.481737	theagenes	-0.069354
-3.481737	thebandominated	-0.069354
-3.481737	thebans	-0.069354
-3.055145	thebes	-0.069354
-2.446140	their	-0.074797
-3.055145	them	-0.069354
-3.481737	themistes	-0.069354
-3.481737	then	-0.069354
-3.481737	there	-0.069354
-3.279497	these	-0.069354
-2.939052	theseus	-0.069354
-3.214065	thesmothetai	-0.069354
-2.847538	thetes	-0.081101
-2.446140	they	-0.074797
-3.481737	things	-0.069354
-3.481737	thirty	-0.069354
-2.847538	this	-0.079615
-3.055145	those	-0.085890
-3.481737	though	-0.069354
-3.481737	thrace	-0.069354
-3.481737	thracian	-0.069354
-3.214065	three	-0.069354
-3.481737	threefold	-0.069354
-3.214065	through	-0.069354
-3.279497	throughout	-0.069354
-3.481737	thuc	-0.069354
-3.055145	thucydides	-0.069354
-3.279497	thus	-0.069354
-2.847538	time	-0.083090
-3.481737	times	-0.069354
-3.279497	tiryns	-0.069354
-1.618116	to	-0.166519
-3.481737	toasted	-0.069354
-3.481737	together	-0.069354
-3.279497	took	-0.069354
-3.055145	top	-0.237559
-3.481737	torture	-0.069354
-3.481737	total	-0.069354
-3.279497	toward	-0.069354
-3.214065	town	-0.097274
-3.214065	trade	-0.312076
-3.481737	trademark	-0.069354
-3.481737	traditional	-0.069354
-3.481737	transforms	-0.069354
-3.055145	tribal	-0.069354
-3.055145	tribe	-0.069354
-2.707660	tribes	-0.126159
-3.055145	trittyes	-0.069354
-3.481737	troad	-0.069354
-3.481737	truce	-0.069354
-3.481737	try	-0.069354
-3.481737	trying	-0.069354
-3.481737	turn	-0.069354
-3.481737	twelve	-0.069354
-3.055145	two	-0.069354
-3.481737	type	-0.069354
-3.279497	tyrannicides	-0.069354
-3.481737	tyrannies	-0.069354
-3.055145	tyranny	-0.069354
-2.707660	tyrant	-0.170453
-3.481737	tyrants	-0.069354
-3.481737	unable	-0.069354
-3.481737	unaffected	-0.069354
-3.481737	uncivilized	-0.069354
-3.481737	uncle	-0.069354
-2.517126	under	-0.153701
-3.279497	unification	-0.111938
-3.481737	unit	-0.069354
-3.279497	united	-0.069354
-3.481737	units	-0.069354
-3.481737	unpremeditated	-0.069354
-3.481737	unwritten	-0.069354
-2.847538	up	-0.069354
-3.279497	upon	-0.111938
-3.481737	upper	-0.069354
-3.481737	value	-0.069354
-3.055145	various	-0.083090
-3.481737	verdicts	-0.069354
-3.279497	victory	-0.069354
-3.481737	village	-0.069354
-3.481737	vote	-0.069354
-3.481737	waged	-0.069354
-3.214065	wanax	-0.069354
-2.939052	war	-0.081101
-3.481737	warfare	-0.069354
-2.149441	was	-0.129357
-3.279497	watch	-0.069354
-3.481737	way	-0.069354
-3.481737	we	-0.069354
-3.481737	weak	-0.069354
-3.481737	weakened	-0.069354
-3.055145	wealth	-0.069354
-3.279497	wealthy	-0.069354
-3.481737	week	-0.069354
-3.481737	weights	-0.069354
-3.279497	well	-0.111938
-2.480184	were	-0.079615
-2.385143	what	-0.109010
-2.939052	when	-0.085890
-3.481737	where	-0.069354
-3.481737	whereby	-0.069354
-2.357582	which	-0.074153
-2.331667	who	-0.129868
-3.214065	whose	-0.069354
-2.939052	why	-0.085890
-3.481737	wished	-0.069354
-2.202119	with	-0.150998
-3.481737	withdraw	-0.069354
-3.481737	withdraws	-0.069354
-3.481737	within	-0.069354
-3.279497	without	-0.069354
-3.481737	words	-0.069354
-3.481737	work	-0.069354
-3.279497	world	-0.069354
-3.481737	worse	-0.069354
-3.481737	worship	-0.069354
-3.481737	would	-0.069354
-3.055145	writing	-0.069354
-3.055145	year	-0.083090
-2.847538	years	-0.069354
-3.481737	yes	-0.069354
-3.481737	yet	-0.069354
-3.481737	yield	-0.069354
-3.481737	yoked	-0.069354
-3.481737	younger	-0.069354
-3.055145	zeugitai	-0.103081

\2-grams:
-1.543640	<s> </s>
-2.971723	<s> aegean	-0.153675
-2.724653	<s> age	-0.153675
-2.971723	<s> ages	-0.153675
-2.893466	<s> alcmaeonidae	-0.153675
-2.496897	<s> alcmaeonids	-0.023158
-2.971723	<s> anarchia	-0.153675
-1.617133	<s> and	-0.153675
-2.534838	<s> annual	-0.023158
-2.017376	<s> archonship	-0.274077
-2.893466	<s> assembly	-0.153675
-2.365146	<s> athenian	-0.153675
-2.444939	<s> athenians	-0.153675
-2.140706	<s> athens	-0.153675
-2.915800	<s> autochthonous	-0.153675
-2.534838	<s> b	-0.023158
-2.773975	<s> based	-0.153675
-2.724653	<s> becomes	-0.153675
-2.829624	<s> being	-0.153675
-2.915800	<s> boeotia	-0.153675
-2.971723	<s> boeotian	-0.153675
-2.773975	<s> boule	-0.153675
-2.971723	<s> bouleutic	-0.153675
-2.971723	<s> brauron	-0.153675
-2.056015	<s> c	-0.062461
-2.557232	<s> chronological	-0.023158
-2.283264	<s> cleisthenes	-0.153675
-2.017376	<s> cleomenes	-0.153675
-2.971723	<s> consider	-0.153675
-2.386015	<s> council	-0.153675
-2.045726	<s> cylon	-0.062461
-2.893466	<s> dark	-0.153675
-2.971723	<s> dedicated	-0.153675
-2.915800	<s> demiourgoi	-0.153675
-2.971723	<s> demotikotatos	-0.153675
-2.971723	<s> destruction	-0.153675
-2.971723	<s> diakria	-0.153675
-2.915800	<s> diakrioi	-0.153675
-2.481245	<s> did	-0.153675
-2.915800	<s> dionysus	-0.153675
-2.971723	<s> districts	-0.153675
-2.971723	<s> dorians	-0.153675
-2.525409	<s> draco	-0.023158
-2.444939	<s> early	-0.153675
-2.893466	<s> ecclesia	-0.153675
-2.915800	<s> eretria	-0.153675
-2.534838	<s> establish	-0.023158
-2.534838	<s> euboea	-0.153675
-2.915800	<s> eupatridae	-0.153675
-2.829624	<s> eupatrids	-0.153675
-2.971723	<s> festival	-0.153675
-2.421120	<s> first	-0.153675
-2.773975	<s> gene	-0.153675
-2.557232	<s> genos	-0.023158
-2.971723	<s> georgoi	-0.153675
-2.915800	<s> golden	-0.153675
-2.724653	<s> government	-0.153675
-2.915800	<s> graphe	-0.153675
-2.773975	<s> great	-0.153675
-2.971723	<s> h	-0.153675
-2.773975	<s> harmodius	-0.153675
-2.680366	<s> have	-0.153675
-2.534838	<s> hektemoroi	-0.023158
-2.915800	<s> hellespont	-0.153675
-2.893466	<s> himself	-0.153675
-2.829624	<s> hippeis	-0.153675
-2.377075	<s> hippias	-0.153675
-2.525409	<s> image	-0.023158
-2.971723	<s> increase	-0.153675
-2.915800	<s> indo	-0.153675
-2.893466	<s> inhabitants	-0.153675
-2.525409	<s> instead	-0.023158
-2.971723	<s> ionia	-0.153675
-2.829624	<s> ionian	-0.153675
-2.915800	<s> landless	-0.153675
-2.534838	<s> late	-0.023158
-2.640180	<s> laws	-0.153675
-2.557232	<s> lecture	-0.153675
-2.893466	<s> lycurgus	-0.153675
-2.470141	<s> measures	-0.153675
-2.724653	<s> megacles	-0.153675
-2.893466	<s> middle	-0.153675
-2.525409	<s> monopoly	-0.023158
-2.893466	<s> most	-0.153675
-2.971723	<s> neleid	-0.153675
-2.915800	<s> neolithic	-0.153675
-1.445083	<s> of	-0.153675
-2.241814	<s> on	-0.153675
-2.971723	<s> orgeones	-0.153675
-2.773975	<s> ostracism	-0.153675
-2.915800	<s> panathenaia	-0.153675
-2.915800	<s> paralioi	-0.153675
-2.915800	<s> pares	-0.153675
-2.893466	<s> part	-0.153675
-2.971723	<s> pediakoi	-0.153675
-2.377075	<s> peisistratus	-0.153675
-2.470141	<s> pentakosiomedimnoi	-0.023158
-2.829624	<s> people	-0.153675
-2.915800	<s> persian	-0.153675
-2.496897	<s> phratries	-0.023158
-2.971723	<s> phye	-0.153675
-2.893466	<s> phylai	-0.153675
-2.829624	<s> population	-0.153675
-2.773975	<s> possible	-0.153675
-2.829624	<s> powerful	-0.153675
-2.971723	<s> primus	-0.153675
-2.893466	<s> proto	-0.153675
-2.971723	<s> provision	-0.153675
-2.971723	<s> rapid	-0.153675
-2.971723	<s> reconstruct	-0.153675
-2.971723	<s> remain	-0.153675
-2.971723	<s> rule	-0.153675
-2.893466	<s> seisachtheia	-0.153675
-2.773975	<s> social	-0.153675
-1.796617	<s> solons	-0.083532
-2.971723	<s> synoikismos	-0.153675
-2.603399	<s> system	-0.153675
-1.211989	<s> the	-0.153675
-2.893466	<s> thesmothetai	-0.153675
-2.724653	<s> thetes	-0.153675
-2.915800	<s> tiryns	-0.153675
-1.723877	<s> to	-0.153675
-2.829624	<s> top	-0.153675
-2.829624	<s> trittyes	-0.153675
-2.915800	<s> unification	-0.153675
-2.971723	<s> unpremeditated	-0.153675
-2.212173	<s> was	-0.153675
-2.971723	<s> week	-0.153675
-1.548240	<s> what	-0.209717
-2.386015	<s> which	-0.153675
-2.773975	<s> why	-0.153675
-2.829624	<s> writing	-0.153675
-2.496897	<s> zeugitai	-0.153675
-1.434811	a </s>
-2.629128	a ble	-0.023158
-2.629128	a bodyguard	-0.153675
-2.629128	a boy	-0.153675
-2.629128	a branch	-0.153675
-2.629128	a certain	-0.023158
-2.629128	a colony	-0.153675
-2.600473	a conservative	-0.153675
-2.246109	a council	-0.153675
-2.629128	a court	-0.023158
-2.629128	a creditor	-0.153675
-2.629128	a crucial	-0.153675
-2.519813	a deme	-0.153675
-2.588527	a democracy	-0.153675
-2.629128	a democrat	-0.153675
-2.629128	a friend	-0.153675
-2.629128	a garrison	-0.153675
-2.134145	a great	-0.153675
-2.629128	a harsh	-0.153675
-2.161116	a hereditary	-0.062461
-2.600473	a highly	-0.153675
-2.629128	a judicial	-0.153675
-2.073246	a king	-0.153675
-2.175850	a large	-0.153675
-2.460500	a law	-0.023158
-2.600473	a legislative	-0.153675
-2.600473	a lifelong	-0.153675
-2.629128	a love	-0.153675
-2.588527	a minor	-0.153675
-2.175850	a moderate	-0.153675
-2.134145	a number	-0.023158
-2.519813	a palace	-0.153675
-2.588527	a phratry	-0.153675
-1.637482	a political	-0.062461
-2.629128	a preliminary	-0.153675
-2.629128	a primes	-0.153675
-2.600473	a progressive	-0.153675
-2.629128	a prytany	-0.153675
-2.600473	a public	-0.023158
-2.629128	a radical	-0.153675
-2.629128	a reformer	-0.153675
-2.629128	a regressive	-0.153675
-2.600473	a reputation	-0.153675
-2.629128	a restoration	-0.153675
-2.600473	a result	-0.153675
-2.629128	a revolutionary	-0.153675
-2.629128	a second	-0.153675
-2.629128	a small	-0.153675
-2.629128	a statement	-0.023158
-2.629128	a sympoliteia	-0.023158
-2.408322	a system	-0.023158
-2.629128	a term	-0.153675
-2.629128	a threefold	-0.153675
-2.629128	a total	-0.023158
-2.552812	a tribal	-0.153675
-2.552812	a tribe	-0.153675
-2.629128	a truce	-0.153675
-2.147421	a tyranny	-0.062461
-2.433628	a tyrant	-0.153675
-2.629128	a village	-0.153675
-2.519813	a war	-0.023158
-0.738983	abolish the	-0.153675
-0.825368	abolished after	-0.153675
-1.388588	about athenian	-0.153675
-1.418963	about cleomenes	-0.153675
-1.429690	about spartas	-0.153675
-1.144482	about the	-0.153675
-0.824700	absentia isagoras	-0.153675
-0.830100	absolute civil	-0.153675
-0.759166	abundant and	-0.153675
-0.829397	accursed whose	-0.153675
-0.826707	acquired political	-0.023158
-0.826707	acquires first	-0.153675
-1.164443	acropolis </s>
-1.197792	acropolis and	-0.153675
-1.429690	acropolis homers	-0.153675
-1.427746	acropolis subsequent	-0.153675
-0.738983	across the	-0.153675
-1.095282	act as	-0.153675
-1.032808	act in	-0.153675
-0.815456	acting with	-0.153675
-0.964175	action the	-0.153675
-1.025329	action to	-0.023158
-0.812202	acts as	-0.153675
-0.738983	added the	-0.153675
-0.799424	adding a	-0.023158
-0.723876	addition of	-0.023158
-1.164585	addition to	-0.062461
-0.738983	administering the	-0.023158
-0.727096	administration of	-0.153675
-0.828723	admitted only	-0.023158
-1.071083	advanced a	-0.153675
-1.128903	advanced following	-0.153675
-0.738983	advised the	-0.153675
-0.815456	aegean athens	-0.153675
-0.809616	aegina by	-0.023158
-0.774348	aeginetan to	-0.023158
-0.828050	affair harmodius	-0.153675
-0.944391	affairs of	-0.023158
-1.129328	affairs without	-0.153675
-0.830100	affecting resident	-0.153675
-0.830100	affiliation dependent	-0.153675
-1.564268	after a	-0.153675
-1.766123	after being	-0.153675
-1.777939	after eponymous	-0.023158
-1.687947	after his	-0.153675
-1.777939	after reaching	-0.153675
-1.777939	after refusing	-0.153675
-1.777939	after seizing	-0.153675
-1.072786	after the	-0.153675
-1.391228	against a	-0.153675
-1.523356	against erechtheus	-0.153675
-1.522302	against him	-0.153675
-1.522302	against megara	-0.153675
-1.525780	against opposition	-0.153675
-1.902062	age early	-0.153675
-1.715946	age for	-0.153675
-1.934548	age height	-0.153675
-1.879426	age hippias	-0.153675
-1.526720	age in	-0.153675
-1.928541	age late	-0.153675
-1.925943	age middle	-0.153675
-1.132697	age of	-0.153675
-1.934548	age sub	-0.153675
-1.857912	age under	-0.153675
-1.389086	age was	-0.153675
-0.807687	agenda for	-0.023158
-0.799424	ages a	-0.153675
-1.305573	agora aristides	-0.153675
-1.050312	agora of	-0.153675
-1.305573	agora trademark	-0.153675
-0.759166	agriculture and	-0.153675
-0.759166	agroikoi and	-0.153675
-0.759166	aigikoreis and	-0.153675
-1.129328	alcmaeon damasias	-0.153675
-1.130305	alcmaeon marks	-0.153675
-0.830100	alcmaeonid curse	-0.153675
-1.303475	alcmaeonidae code	-0.153675
-1.291582	alcmaeonidae hippias	-0.153675
-1.299474	alcmaeonidae pentakosiomedimnoi	-0.153675
-1.251520	alcmaeonids and	-0.153675
-1.523356	alcmaeonids go	-0.153675
-1.502790	alcmaeonids hippias	-0.153675
-1.525780	alcmaeonids polluted	-0.023158
-1.523356	alcmaeonids taken	-0.153675
-0.778528	aliens in	-0.153675
-1.130305	alkmeonid grandson	-0.153675
-1.129328	alkmeonid perikles	-0.153675
-1.357286	all </s>
-1.371811	all citizens	-0.062461
-1.381092	all debtors	-0.023158
-1.858536	all debts	-0.023158
-1.858536	all free	-0.023158
-1.836017	all magistrates	-0.023158
-1.863616	all natural	-0.023158
-1.327563	all the	-0.153675
-1.763094	all who	-0.023158
-1.126222	alliances does	-0.153675
-1.101549	alliances with	-0.153675
-0.824700	allowed solons	-0.153675
-1.601241	also created	-0.023158
-1.604142	also employed	-0.023158
-1.601241	also enrolled	-0.153675
-1.561922	also had	-0.153675
-1.601241	also presided	-0.153675
-1.226212	also the	-0.023158
-0.579470	altar of	-0.153675
-0.830100	always consisted	-0.153675
-0.738983	amalgamation the	-0.023158
-0.826707	amnesty law	-0.023158
-1.304356	among her	-0.153675
-0.734931	among the	-0.062461
-0.727096	amount of	-0.023158
-1.894812	an alkmeonid	-0.153675
-1.894812	an annual	-0.274077
-1.418564	an aristocrat	-0.023158
-1.900444	an army	-0.153675
-1.900444	an exclusive	-0.153675
-1.892375	an important	-0.153675
-1.894812	an individuals	-0.023158
-1.892375	an old	-0.153675
-1.894812	an oligarchy	-0.153675
-1.900444	an opponent	-0.153675
-1.900444	an opportunist	-0.153675
-0.727096	anacreon of	-0.153675
-0.746721	anarchia </s>
-0.829610	anarchy damasias	-0.153675
-1.130305	ancestral customs	-0.153675
-1.129328	ancestral rites	-0.153675
-0.829610	ancient reputation	-0.153675
-1.512110	and </s>
-1.969799	and a	-0.153675
-2.802292	and about	-0.153675
-2.819980	and act	-0.153675
-2.863414	and administering	-0.023158
-2.750722	and also	-0.023158
-2.819980	and altar	-0.153675
-2.863414	and anacreon	-0.153675
-2.863414	and application	-0.153675
-2.750722	and appointed	-0.023158
-2.863414	and argadeis	-0.153675
-2.819980	and aristogiton	-0.153675
-2.863414	and artistic	-0.153675
-2.240271	and athens	-0.153675
-2.819980	and background	-0.153675
-2.750722	and basileus	-0.153675
-2.819980	and became	-0.153675
-1.893329	and becomes	-0.153675
-2.802292	and black	-0.153675
-2.863414	and centralized	-0.153675
-2.430424	and chalcidians	-0.153675
-2.214299	and cleisthenes	-0.153675
-2.819980	and common	-0.023158
-2.863414	and constitutional	-0.153675
-2.863414	and crete	-0.153675
-2.863414	and dividing	-0.153675
-2.819980	and dominant	-0.153675
-2.819980	and dracos	-0.153675
-2.819980	and drives	-0.153675
-2.819980	and duties	-0.153675
-2.863414	and east	-0.153675
-2.863414	and eastward	-0.153675
-2.863414	and electoral	-0.023158
-2.863414	and entrench	-0.153675
-2.863414	and favoring	-0.153675
-2.863414	and finally	-0.153675
-2.364893	and gene	-0.153675
-2.802292	and geometric	-0.153675
-2.819980	and granted	-0.153675
-2.704631	and great	-0.153675
-2.802292	and help	-0.153675
-2.819980	and her	-0.153675
-1.813377	and his	-0.046311
-1.757497	and in	-0.153675
-2.863414	and indicated	-0.153675
-2.863414	and industry	-0.153675
-2.624950	and it	-0.023158
-2.863414	and judgments	-0.153675
-2.527541	and king	-0.153675
-2.819980	and laborers	-0.153675
-2.802292	and later	-0.153675
-2.863414	and lays	-0.153675
-2.750722	and local	-0.153675
-2.802292	and lycurgus	-0.153675
-2.704631	and made	-0.153675
-2.345340	and magistrates	-0.153675
-2.863414	and making	-0.023158
-2.863414	and manufacture	-0.153675
-2.863414	and many	-0.153675
-2.364893	and measures	-0.062461
-2.819980	and oikoi	-0.023158
-2.819980	and olive	-0.023158
-2.527541	and one	-0.153675
-2.589996	and over	-0.153675
-2.802292	and phratry	-0.023158
-2.802292	and place	-0.153675
-2.863414	and plutocratic	-0.153675
-2.326629	and political	-0.083532
-2.863414	and prevented	-0.153675
-2.863414	and priesthoods	-0.153675
-2.819980	and prominent	-0.153675
-2.863414	and punish	-0.023158
-2.802292	and put	-0.153675
-2.863414	and receives	-0.153675
-2.863414	and recognized	-0.153675
-2.819980	and reduced	-0.023158
-2.863414	and reducing	-0.153675
-2.863414	and relative	-0.153675
-1.914074	and religious	-0.153675
-2.863414	and remained	-0.153675
-2.863414	and sacrifices	-0.153675
-2.863414	and settled	-0.153675
-2.819980	and silver	-0.153675
-2.527541	and solons	-0.153675
-2.863414	and syria	-0.153675
-0.900407	and the	-0.121660
-2.750722	and thebes	-0.153675
-2.424458	and their	-0.023158
-2.662966	and thetes	-0.153675
-2.819980	and thus	-0.023158
-1.673418	and to	-0.153675
-2.863414	and toasted	-0.153675
-2.802292	and town	-0.153675
-2.750722	and trittyes	-0.153675
-2.863414	and trying	-0.023158
-2.385369	and two	-0.153675
-2.750722	and various	-0.153675
-2.197423	and was	-0.023158
-2.819980	and wealthy	-0.153675
-2.240271	and with	-0.153675
-2.863414	and withdraws	-0.153675
-2.863414	and worship	-0.153675
-2.750722	and zeugitai	-0.153675
-1.124888	annual archonship	-0.023158
-1.130305	annual magistracy	-0.062461
-1.128903	any citizen	-0.023158
-1.129328	any motion	-0.153675
-0.828723	apaturia phratries	-0.153675
-1.092704	apollo </s>
-1.120806	apollo and	-0.153675
-1.166695	apollo in	-0.153675
-1.025329	appeal to	-0.023158
-1.130305	appeal verdicts	-0.023158
-0.774348	appeals to	-0.153675
-1.127560	appear called	-0.023158
-1.101549	appear with	-0.153675
-0.727096	application of	-0.153675
-1.353384	appointed by	-0.153675
-1.346673	appointed for	-0.153675
-1.144482	appointed the	-0.023158
-1.240819	appointed to	-0.023158
-0.746721	arbitrator </s>
-0.819394	archaic athenian	-0.153675
-1.403558	archon and	-0.153675
-1.828733	archon archon	-0.153675
-1.849065	archon basileus	-0.153675
-1.376247	archon chief	-0.023158
-1.863465	archon eponymos	-0.153675
-1.863465	archon hippocleides	-0.153675
-1.858298	archon list	-0.153675
-1.856060	archon polemarch	-0.153675
-1.856060	archon ruler	-0.153675
-1.322140	archon the	-0.153675
-1.042261	archons and	-0.023158
-1.667137	archons appear	-0.023158
-1.661228	archons appointed	-0.153675
-1.667137	archons automatically	-0.153675
-1.656793	archons generals	-0.153675
-1.259974	archons the	-0.023158
-1.339612	archonship </s>
-1.389524	archonship and	-0.153675
-1.785172	archonship but	-0.153675
-1.797298	archonship established	-0.023158
-1.803490	archonship led	-0.023158
-1.072837	archonship of	-0.153675
-1.809772	archonship top	-0.153675
-1.739796	archonship what	-0.153675
-1.797298	archonship years	-0.153675
-1.600946	are called	-0.153675
-0.352132	are the	-0.153675
-1.576936	are they	-0.153675
-0.727096	areas of	-0.153675
-1.701356	areopagus archon	-0.153675
-1.711520	areopagus boule	-0.153675
-1.653821	areopagus council	-0.153675
-1.681713	areopagus he	-0.023158
-1.723599	areopagus retains	-0.153675
-1.681713	areopagus solon	-0.062461
-1.409090	areopagus to	-0.023158
-1.610979	areopagus was	-0.023158
-0.829397	argadeis so	-0.153675
-0.830100	argive mercenaries	-0.153675
-1.130305	argos pylos	-0.153675
-1.128903	argos sparta	-0.153675
-0.814804	arises on	-0.153675
-0.830100	aristides broneer	-0.153675
-0.829610	aristions motion	-0.153675
-0.944391	aristocracies of	-0.153675
-1.115662	aristocracies were	-0.153675
-0.819394	aristocrat who	-0.153675
-1.322361	aristocratic and	-0.153675
-1.651773	aristocratic families	-0.153675
-1.651773	aristocratic government	-0.153675
-1.665430	aristocratic monopoly	-0.153675
-1.638533	aristocratic power	-0.153675
-1.670272	aristocratic republic	-0.023158
-1.651773	aristocratic state	-0.153675
-1.164443	aristocrats </s>
-1.400987	aristocrats had	-0.153675
-1.240819	aristocrats to	-0.153675
-1.388588	aristocrats who	-0.153675
-1.525780	aristogiton assassinate	-0.153675
-1.525780	aristogiton gloried	-0.153675
-1.522302	aristogiton later	-0.153675
-1.522302	aristogiton phylai	-0.153675
-1.515700	aristogiton when	-0.153675
-0.290122	aristotle ath	-0.495926
-0.829397	army leader	-0.153675
-0.774348	arrangements to	-0.153675
-0.799424	arranges a	-0.153675
-0.759166	artisans and	-0.153675
-0.778528	artistic in	-0.153675
-0.923552	as a	-0.112218
-2.315828	as accursed	-0.153675
-2.315828	as arbitrator	-0.153675
-2.304250	as argos	-0.153675
-2.269185	as before	-0.153675
-2.254882	as citizens	-0.153675
-2.315828	as criteria	-0.153675
-2.315828	as cyprus	-0.153675
-2.299288	as eleusis	-0.153675
-1.837100	as far	-0.023158
-2.315828	as follows	-0.153675
-2.269185	as harmodius	-0.153675
-2.102232	as his	-0.153675
-2.315828	as illegitimate	-0.153675
-1.711473	as in	-0.153675
-2.241034	as it	-0.023158
-2.315828	as overseer	-0.023158
-2.315828	as refugees	-0.153675
-2.315828	as taxiarchs	-0.153675
-0.860742	as the	-0.096684
-1.684166	as to	-0.153675
-1.809415	as tyrant	-0.153675
-0.809616	ascribed by	-0.153675
-0.642673	asia minor	-0.153675
-0.825368	assassinate hippias	-0.153675
-0.830100	assassination plot	-0.153675
-0.814804	assault on	-0.153675
-0.727096	assemblies of	-0.153675
-1.367361	assembly and	-0.023158
-1.754230	assembly athenians	-0.153675
-1.765728	assembly called	-0.023158
-1.771594	assembly ecclesia	-0.153675
-1.726749	assembly he	-0.153675
-1.451909	assembly in	-0.023158
-1.777787	assembly met	-0.153675
-1.754230	assembly thetes	-0.023158
-1.432548	assembly to	-0.153675
-0.727096	assertiveness of	-0.153675
-1.128903	assigned him	-0.153675
-1.025329	assigned to	-0.153675
-0.727096	assignment of	-0.153675
-0.830100	asty paralia	-0.153675
-1.254763	at athens	-0.062461
-1.772149	at marathon	-0.153675
-1.773947	at mycenae	-0.153675
-1.773947	at pallene	-0.153675
-1.076512	at the	-0.153675
-1.766518	at tyranny	-0.153675
-1.778091	at work	-0.153675
-0.830100	ath const	-0.046311
-0.634008	athena on	-0.023158
-0.746721	athenaeus </s>
-1.693428	athenian citizenship	-0.062461
-2.174774	athenian contingent	-0.153675
-2.133228	athenian control	-0.153675
-1.693428	athenian democracy	-0.153675
-2.174774	athenian economy	-0.153675
-1.679459	athenian families	-0.153675
-2.164507	athenian hero	-0.153675
-2.174774	athenian history	-0.153675
-2.095805	athenian laws	-0.023158
-2.174774	athenian merchants	-0.153675
-2.174774	athenian nobility	-0.153675
-2.174774	athenian parents	-0.153675
-2.174774	athenian politics	-0.153675
-2.174774	athenian potters	-0.153675
-1.693428	athenian pottery	-0.153675
-1.694929	athenian silver	-0.023158
-2.120392	athenian state	-0.153675
-2.084014	athenian system	-0.023158
-1.773467	athenians began	-0.153675
-1.777787	athenians condemn	-0.153675
-1.777787	athenians defeat	-0.153675
-1.777787	athenians follow	-0.153675
-1.777787	athenians force	-0.153675
-1.777787	athenians outlaw	-0.153675
-1.737534	athenians peisistratus	-0.153675
-1.777787	athenians settle	-0.153675
-1.716226	athenians were	-0.062461
-1.391200	athens </s>
-2.393357	athens acquires	-0.153675
-2.257375	athens after	-0.153675
-1.443918	athens and	-0.153675
-2.377225	athens appear	-0.153675
-2.349371	athens areopagus	-0.153675
-2.393357	athens avoids	-0.153675
-2.310205	athens becomes	-0.153675
-1.733723	athens by	-0.153675
-2.349371	athens chief	-0.153675
-2.310205	athens cleomenes	-0.153675
-2.393357	athens escapes	-0.153675
-2.377225	athens free	-0.153675
-2.349371	athens hoplite	-0.153675
-2.393357	athens involved	-0.153675
-2.377225	athens itself	-0.153675
-2.377225	athens key	-0.153675
-1.184911	athens like	-0.083532
-2.377225	athens makes	-0.153675
-2.393357	athens orchomenus	-0.153675
-2.393357	athens politically	-0.153675
-2.329347	athens possible	-0.153675
-2.393357	athens provide	-0.153675
-2.393357	athens similar	-0.153675
-1.360706	athens the	-0.153675
-2.393357	athens thuc	-0.023158
-1.645385	athens to	-0.023158
-2.393357	athens unaffected	-0.153675
-1.852967	athens under	-0.153675
-2.030202	athens was	-0.153675
-2.141620	athens which	-0.153675
-1.127560	attack against	-0.153675
-1.100288	attack on	-0.153675
-1.503773	attempt at	-0.153675
-1.168179	attempt of	-0.153675
-1.522584	attempt put	-0.023158
-0.956037	attempt to	-0.153675
-0.774348	attempts to	-0.023158
-0.738983	attend the	-0.153675
-1.258170	attica </s>
-2.069990	attica alcmaeonids	-0.153675
-2.081772	attica among	-0.153675
-1.468190	attica and	-0.153675
-2.036448	attica become	-0.153675
-2.081772	attica during	-0.153675
-1.976260	attica had	-0.153675
-2.094389	attica iron	-0.153675
-2.015445	attica is	-0.153675
-2.094389	attica minoan	-0.153675
-2.094389	attica share	-0.023158
-2.081772	attica so	-0.153675
-2.081772	attica synoecism	-0.153675
-1.966993	attica they	-0.153675
-1.551248	attica to	-0.153675
-2.085569	attica well	-0.153675
-1.949031	attica what	-0.153675
-1.883800	attica with	-0.153675
-0.727096	attitude of	-0.153675
-0.830100	attracts simonides	-0.153675
-0.964175	attributes the	-0.153675
-1.025329	attributes to	-0.153675
-0.977251	autochthonous </s>
-1.122232	autochthonous i	-0.153675
-1.129328	automatically assigned	-0.153675
-1.123558	automatically become	-0.153675
-0.830100	avoids devastation	-0.153675
-0.774348	awarded to	-0.153675
-1.127560	b e	-0.023158
-1.130305	b tablets	-0.153675
-1.097778	background was	-0.153675
-1.111767	background what	-0.153675
-0.778528	backward in	-0.153675
-0.828723	banished except	-0.023158
-0.812202	barred from	-0.153675
-0.727096	base of	-0.153675
-1.513193	based not	-0.023158
-0.291948	based on	-0.062461
-0.829610	basic framework	-0.153675
-0.827378	basileis are	-0.153675
-1.222433	basileus </s>
-1.031820	basileus king	-0.153675
-1.522584	basileus thesmothetai	-0.153675
-1.477002	basileus who	-0.153675
-0.944391	basis of	-0.153675
-1.119592	basis one	-0.153675
-0.799424	be a	-0.153675
-1.071083	became a	-0.153675
-1.123558	became archon	-0.153675
-1.651773	become citizens	-0.153675
-1.666896	become dominant	-0.153675
-1.666896	become hektemors	-0.153675
-1.647314	become members	-0.153675
-1.638533	become power	-0.153675
-1.252697	become the	-0.153675
-1.642901	become tyrant	-0.023158
-1.183065	becomes a	-0.153675
-0.712018	becomes an	-0.240706
-1.725738	becomes leading	-0.153675
-1.235623	becomes tyrant	-0.153675
-0.827378	becoming years	-0.153675
-1.318733	been a	-0.153675
-1.429690	been banished	-0.023158
-1.429690	been killed	-0.153675
-1.429690	been supplied	-0.153675
-1.222433	before </s>
-1.446375	before as	-0.023158
-1.506852	before but	-0.153675
-1.030787	before solon	-0.153675
-1.130305	began foreign	-0.153675
-1.025329	began to	-0.153675
-0.727096	beginning of	-0.153675
-0.727096	beginnings of	-0.153675
-0.774348	begins to	-0.153675
-0.829397	behind him	-0.153675
-1.427746	being driven	-0.153675
-1.429690	being enslaved	-0.153675
-1.427746	being granted	-0.153675
-1.144482	being the	-0.153675
-0.774348	believed to	-0.153675
-0.815456	bended with	-0.153675
-0.738983	beneath the	-0.153675
-0.812202	benefit from	-0.153675
-0.738983	benefited the	-0.153675
-0.746721	beside </s>
-0.818735	betrayed his	-0.153675
-0.738983	betraying the	-0.153675
-0.857346	between and	-0.399016
-1.424643	between powerful	-0.153675
-1.429843	between premeditated	-0.153675
-0.738983	beyond the	-0.153675
-1.092704	birth </s>
-1.219665	birth a	-0.023158
-1.293541	birth i	-0.023158
-1.304356	black earth	-0.023158
-0.818911	black sea	-0.153675
-0.774348	ble to	-0.023158
-0.829397	blocks through	-0.153675
-0.579470	board of	-0.153675
-0.727096	boards of	-0.023158
-1.304112	body board	-0.153675
-1.166695	body in	-0.153675
-1.156548	body to	-0.153675
-0.809616	bodyguard by	-0.153675
-0.977251	boeotia </s>
-1.128903	boeotia cities	-0.023158
-0.830100	boeotian league	-0.153675
-0.759166	boeotians and	-0.153675
-0.815456	born or	-0.153675
-0.829610	borrowers person	-0.023158
-0.774348	both to	-0.023158
-1.523599	boule ekklesia	-0.153675
-1.500716	boule isagoras	-0.153675
-0.888547	boule of	-0.153675
-1.460029	boule with	-0.153675
-0.829397	bouleutic oath	-0.153675
-0.830100	boundaries ending	-0.023158
-0.814804	boy on	-0.153675
-0.727096	branch of	-0.153675
-0.819394	brauron athenian	-0.153675
-1.127560	break down	-0.153675
-0.964175	break the	-0.153675
-0.827378	breaks up	-0.153675
-0.830100	broneer shards	-0.153675
-0.289672	bronze age	-0.153675
-0.829397	brother hipparchus	-0.153675
-0.823367	brought under	-0.153675
-0.827378	build up	-0.153675
-0.830100	building program	-0.153675
-0.815456	built athens	-0.153675
-0.820054	burdens which	-0.023158
-0.828050	bureaucratic control	-0.153675
-1.602896	but as	-0.153675
-1.623394	but athens	-0.153675
-1.686541	but not	-0.023158
-1.619216	but on	-0.023158
-1.723599	but retain	-0.153675
-1.723599	but retains	-0.153675
-1.273677	but the	-0.153675
-1.667543	but they	-0.153675
-1.868836	by a	-0.153675
-2.337952	by alcmaeon	-0.153675
-2.207850	by an	-0.153675
-2.351376	by aristions	-0.153675
-2.351376	by betraying	-0.153675
-1.878800	by capturing	-0.153675
-2.351376	by changing	-0.023158
-2.351376	by conviction	-0.153675
-2.337952	by corinth	-0.023158
-2.351376	by invoking	-0.153675
-2.221583	by isagoras	-0.153675
-2.221583	by king	-0.153675
-2.250424	by laws	-0.023158
-2.351376	by lot	-0.153675
-2.332217	by lycurgus	-0.153675
-2.337952	by maintaining	-0.153675
-2.265597	by members	-0.153675
-2.351376	by mid	-0.023158
-2.337952	by partisans	-0.153675
-2.351376	by periander	-0.153675
-2.351376	by returning	-0.023158
-2.351376	by slaying	-0.023158
-0.727244	by the	-0.090789
-1.853918	by this	-0.062461
-2.314579	by those	-0.153675
-2.314579	by thucydides	-0.153675
-2.250424	by tribes	-0.153675
-0.977251	c </s>
-1.130305	c onsider	-0.153675
-1.164443	called </s>
-1.144482	called the	-0.023158
-1.429690	called themistes	-0.153675
-1.426900	called thesmothetai	-0.023158
-0.825368	cancelled all	-0.023158
-0.746721	candidate </s>
-0.830100	candidates obtained	-0.153675
-0.826037	capacities but	-0.023158
-0.759166	capacity and	-0.153675
-0.829610	capital individuals	-0.153675
-0.998628	capturing and	-0.153675
-0.964175	capturing the	-0.153675
-1.128903	career how	-0.153675
-1.130305	career shed	-0.153675
-0.814804	carried on	-0.153675
-0.830100	carry my	-0.153675
-0.727096	case of	-0.153675
-1.130305	cases affecting	-0.153675
-1.130305	cases involving	-0.153675
-0.774348	ceases to	-0.153675
-0.759166	cecrops and	-0.153675
-0.640689	census classes	-0.083532
-0.830100	center namely	-0.153675
-1.101549	centers athens	-0.153675
-1.101549	centers with	-0.153675
-0.828050	central attica	-0.153675
-0.828050	centralized palace	-0.153675
-1.213965	century </s>
-1.502790	century is	-0.153675
-1.502790	century power	-0.023158
-1.300545	century to	-0.153675
-1.525780	century transforms	-0.153675
-0.759166	ceos and	-0.153675
-0.828050	certain number	-0.023158
-0.828723	chalcidian aristocrats	-0.153675
-1.120910	chalcidians after	-0.153675
-0.944391	chalcidians of	-0.153675
-0.746721	chalcis </s>
-0.759166	chamber and	-0.153675
-0.759166	chambers and	-0.153675
-0.813501	change was	-0.153675
-0.829610	changes took	-0.153675
-0.738983	changing the	-0.023158
-0.727096	character of	-0.153675
-0.742115	chersonese </s>
-1.264136	chersonese on	-0.153675
-1.040224	chief city	-0.062461
-1.525933	chief executive	-0.023158
-1.522584	chief features	-0.153675
-1.525933	chief organs	-0.153675
-0.830100	children nothoi	-0.153675
-0.746721	chose </s>
-0.828723	chosen only	-0.153675
-0.830100	chronological table	-0.023158
-0.829610	cimon subsequent	-0.153675
-0.829610	circuit judges	-0.153675
-1.120806	cities and	-0.153675
-1.295510	cities each	-0.153675
-1.276214	cities which	-0.023158
-1.305573	citizen lists	-0.153675
-1.305573	citizen status	-0.153675
-1.274331	citizen who	-0.023158
-1.300774	citizens </s>
-1.696361	citizens but	-0.153675
-1.727448	citizens cleruchs	-0.153675
-1.727448	citizens including	-0.153675
-1.234243	citizens of	-0.153675
-1.721929	citizens so	-0.153675
-1.273677	citizens the	-0.023158
-1.658347	citizens what	-0.153675
-1.213965	citizenship </s>
-1.251520	citizenship and	-0.153675
-1.525780	citizenship contrasting	-0.023158
-1.522302	citizenship instead	-0.153675
-1.300545	citizenship to	-0.023158
-0.944391	city of	-0.153675
-1.127560	city thebes	-0.153675
-0.828723	civil military	-0.153675
-1.122232	civilization but	-0.153675
-1.100288	civilization on	-0.153675
-0.829610	civilized life	-0.153675
-0.822703	claim that	-0.153675
-0.830100	claiming descent	-0.153675
-0.727096	clan of	-0.153675
-1.197792	class and	-0.153675
-1.429690	class interests	-0.153675
-1.421593	class led	-0.153675
-1.114857	class of	-0.062461
-1.823035	classes acquired	-0.023158
-1.803996	classes based	-0.023158
-1.823035	classes demanding	-0.153675
-1.339966	classes eligible	-0.023158
-1.273667	classes for	-0.023158
-1.803996	classes pentakosiomedimnoi	-0.153675
-1.818422	classes serve	-0.153675
-1.316409	classes the	-0.153675
-1.412684	cleisthenes </s>
-1.735656	cleisthenes a	-0.153675
-1.473008	cleisthenes and	-0.153675
-2.066544	cleisthenes archonship	-0.153675
-1.831703	cleisthenes by	-0.153675
-2.106600	cleisthenes drives	-0.153675
-1.638284	cleisthenes establishes	-0.153675
-2.090255	cleisthenes family	-0.153675
-2.090255	cleisthenes having	-0.153675
-2.115868	cleisthenes hostile	-0.153675
-2.115868	cleisthenes ignored	-0.153675
-1.582874	cleisthenes in	-0.153675
-2.115868	cleisthenes intend	-0.153675
-2.106600	cleisthenes key	-0.153675
-2.090255	cleisthenes miltiades	-0.153675
-1.329106	cleisthenes of	-0.153675
-2.090255	cleisthenes reforms	-0.153675
-2.115868	cleisthenes reorganization	-0.153675
-1.557134	cleisthenes to	-0.153675
-1.130305	cleisthenic propaganda	-0.153675
-1.130305	cleisthenic secular	-0.153675
-1.082487	cleomenes and	-0.153675
-1.727600	cleomenes arranges	-0.153675
-1.727600	cleomenes expels	-0.153675
-1.687592	cleomenes isagoras	-0.153675
-1.712033	cleomenes ostracism	-0.153675
-1.707033	cleomenes position	-0.153675
-1.727600	cleomenes seized	-0.153675
-0.814804	cleruchs on	-0.153675
-0.823367	coast under	-0.153675
-1.318733	code a	-0.153675
-1.429690	code indicate	-0.153675
-1.114857	code of	-0.153675
-1.367125	code was	-0.153675
-0.271361	codification of	-0.046311
-0.738983	codifying the	-0.153675
-1.129328	coin obverse	-0.153675
-1.129328	coin reverse	-0.153675
-0.825368	coinage system	-0.153675
-1.130305	coins issued	-0.153675
-0.944391	coins of	-0.153675
-0.727096	collapse of	-0.153675
-0.829610	colonies throughout	-0.153675
-0.830100	colonization movement	-0.153675
-0.830100	colony there	-0.153675
-0.774348	come to	-0.153675
-0.738983	command the	-0.153675
-0.809616	commanded by	-0.153675
-1.109190	common athenian	-0.023158
-1.128903	common cults	-0.023158
-1.128903	commoners fine	-0.153675
-1.129328	commoners real	-0.153675
-0.727096	communities of	-0.023158
-0.774348	compelled to	-0.153675
-0.809616	complete by	-0.023158
-0.746721	completed </s>
-0.579470	composed of	-0.023158
-0.738983	concerning the	-0.153675
-0.774348	condemn to	-0.153675
-0.807687	condemned for	-0.023158
-0.830100	conditions getting	-0.153675
-0.830100	conjectural reading	-0.153675
-0.815456	connected with	-0.153675
-0.727096	conquest of	-0.153675
-1.128903	conservative body	-0.153675
-1.097778	conservative was	-0.153675
-0.822039	consider cleisthenes	-0.153675
-0.829397	considerable influence	-0.153675
-0.738983	considered the	-0.023158
-0.727096	consisted of	-0.153675
-0.727096	consisting of	-0.023158
-0.759166	conspiracy and	-0.153675
-0.774348	conspired to	-0.023158
-1.305573	const considered	-0.023158
-1.305573	const enforced	-0.153675
-1.287688	const he	-0.023158
-0.916198	constitution </s>
-1.523599	constitution politeia	-0.023158
-1.523599	constitution such	-0.153675
-1.525933	constitution weakened	-0.023158
-0.830100	constitutional arrangements	-0.153675
-0.778528	consulted in	-0.153675
-0.830100	contingent commanded	-0.153675
-0.774348	continued to	-0.023158
-0.774348	contrary to	-0.153675
-0.738983	contrast the	-0.153675
-0.815456	contrasting with	-0.023158
-1.259267	control and	-0.153675
-1.525933	control massive	-0.153675
-0.888547	control of	-0.153675
-1.506852	control over	-0.153675
-0.809616	controlled by	-0.153675
-0.824033	conviction an	-0.153675
-0.830100	copyright restrictions	-0.240706
-1.374162	corinth athens	-0.153675
-1.429690	corinth maintained	-0.023158
-1.429690	corinth though	-0.153675
-1.388588	corinth who	-0.153675
-0.830100	corinthians followed	-0.153675
-0.830100	corinths establishment	-0.153675
-0.830100	correcting offenders	-0.023158
-0.830100	could now	-0.153675
-1.451546	council and	-0.153675
-2.124144	council chamber	-0.153675
-2.124144	council chambers	-0.153675
-2.124144	council develops	-0.153675
-2.119577	council no	-0.153675
-0.262906	council of	-0.334755
-2.059284	council that	-0.023158
-2.105291	council when	-0.023158
-1.115662	councilors had	-0.153675
-1.130305	councilors per	-0.153675
-0.825368	counted all	-0.153675
-0.977251	country </s>
-1.097778	country was	-0.153675
-0.727096	court of	-0.023158
-1.276214	courts council	-0.023158
-1.305573	courts fifth	-0.153675
-1.075723	courts the	-0.023158
-0.830100	crafts palaces	-0.153675
-0.964175	created the	-0.023158
-1.025329	created to	-0.023158
-0.818735	creditor his	-0.153675
-0.759166	crete and	-0.153675
-0.807687	criteria for	-0.153675
-1.086659	criterion for	-0.153675
-0.944391	criterion of	-0.153675
-0.829397	crucial development	-0.153675
-1.120806	cults and	-0.153675
-1.301470	cults e	-0.153675
-1.305573	cults further	-0.023158
-0.830100	curse hdt	-0.153675
-0.738983	curtail the	-0.153675
-0.826037	customary laws	-0.023158
-0.830100	customs rules	-0.153675
-0.759166	cyclades and	-0.153675
-0.828723	cyclopes thucydides	-0.153675
-1.429690	cylon attempts	-0.023158
-1.353384	cylon by	-0.023158
-1.418963	cylon megacles	-0.153675
-1.429690	cylon theagenes	-0.153675
-1.126222	cylons attempt	-0.153675
-1.130305	cylons conspiracy	-0.153675
-0.759166	cyprus and	-0.153675
-1.129328	damasias became	-0.153675
-1.129328	damasias eupatridae	-0.153675
-0.738983	danger the	-0.153675
-0.829397	darius aristocratic	-0.153675
-1.234048	dark </s>
-0.414269	dark age	-0.153675
-0.998628	date and	-0.153675
-0.964175	date the	-0.153675
-0.774348	dating to	-0.153675
-0.819394	day who	-0.153675
-0.815456	dealing with	-0.153675
-1.032808	death in	-0.153675
-1.111767	death what	-0.153675
-0.829610	debt slavery	-0.023158
-0.819394	debtors who	-0.023158
-1.129328	debts secured	-0.023158
-1.115662	debts were	-0.153675
-0.822703	decentralization that	-0.153675
-0.829397	decide minor	-0.153675
-0.738983	dedicated the	-0.153675
-0.738983	defeat the	-0.153675
-0.830100	deliberative capacity	-0.153675
-0.830100	delphi map	-0.153675
-0.830100	demanding yet	-0.153675
-0.830100	demaratus withdraw	-0.153675
-0.830100	demarch naucraries	-0.153675
-1.291428	deme and	-0.153675
-1.190698	deme of	-0.153675
-1.572993	deme one	-0.153675
-1.599981	deme phratry	-0.153675
-1.604142	deme registers	-0.153675
-1.226212	deme the	-0.153675
-0.857346	demes and	-0.153675
-1.350344	demes for	-0.153675
-1.429843	demes probalinthos	-0.153675
-0.977251	demiourgoi </s>
-1.130305	demiourgoi parties	-0.153675
-1.496476	democracy he	-0.153675
-1.512437	democracy new	-0.153675
-1.457532	democracy or	-0.153675
-1.515700	democracy ostracism	-0.153675
-1.300545	democracy to	-0.153675
-0.809616	democrat by	-0.153675
-0.977251	democratic </s>
-1.128903	democratic features	-0.023158
-1.130305	demos passes	-0.153675
-1.118278	demos solon	-0.023158
-0.828050	demotic boule	-0.153675
-0.746721	demotikotatos </s>
-1.123558	dentify archon	-0.153675
-1.120910	dentify peisistratus	-0.153675
-0.814804	dependence on	-0.023158
-0.829610	dependent upon	-0.153675
-0.812202	descent from	-0.153675
-0.738983	describes the	-0.153675
-0.827378	deserve its	-0.153675
-0.727096	destruction of	-0.153675
-0.827378	devastation early	-0.153675
-1.245603	development for	-0.153675
-0.723876	development of	-0.083532
-0.812202	develops from	-0.153675
-0.830100	diakria hyperakria	-0.153675
-0.977251	diakrioi </s>
-1.123558	diakrioi men	-0.153675
-1.853383	did cleisthenes	-0.153675
-1.431619	did he	-0.153675
-1.879003	did isagoras	-0.153675
-1.879003	did not	-0.153675
-1.872455	did solon	-0.153675
-1.879003	did solons	-0.153675
-0.827851	did the	-0.153675
-1.424611	did they	-0.153675
-1.841118	did what	-0.153675
-0.824033	died he	-0.153675
-0.812202	differ from	-0.153675
-0.812202	different from	-0.153675
-0.830100	dikai contrast	-0.153675
-0.759166	dionysia and	-0.153675
-1.130305	dionysus eleusinia	-0.153675
-1.130305	dionysus encouraged	-0.153675
-0.738983	discards the	-0.153675
-0.814804	discovered on	-0.153675
-0.822703	disintegration that	-0.153675
-1.127560	disputes against	-0.153675
-1.032808	disputes in	-0.153675
-0.820054	dissolve council	-0.153675
-0.828723	distinction between	-0.153675
-0.826707	distinguish it	-0.023158
-0.826037	distressing other	-0.153675
-0.820054	district which	-0.153675
-0.759166	districts and	-0.153675
-0.827378	dividing up	-0.153675
-1.523356	do cylons	-0.153675
-1.424441	do for	-0.153675
-1.191653	do the	-0.153675
-1.487174	do they	-0.153675
-1.525780	do we	-0.153675
-1.500716	does not	-0.153675
-1.522584	does sparta	-0.153675
-1.200522	does the	-0.153675
-1.035980	does this	-0.023158
-1.128903	dominant body	-0.153675
-1.086659	dominant for	-0.153675
-0.746721	done </s>
-0.642799	dorian invasion	-0.023158
-0.829610	dorians invasion	-0.153675
-1.395686	down a	-0.023158
-1.435753	down by	-0.023158
-0.905234	down the	-0.062461
-1.307254	down to	-0.153675
-0.727096	downfall of	-0.153675
-1.424238	draco except	-0.023158
-1.427746	draco makes	-0.153675
-1.426900	draco salamis	-0.153675
-1.406048	draco solon	-0.153675
-0.642673	dracos code	-0.153675
-0.830100	drinking songs	-0.153675
-0.642673	driven out	-0.153675
-0.642673	drives out	-0.153675
-0.280420	due to	-0.399016
-0.273715	during the	-0.153675
-1.115662	duties had	-0.153675
-1.129328	duties leadership	-0.153675
-0.727096	duty of	-0.399016
-1.533221	e a	-0.023158
-1.727600	e artisans	-0.153675
-1.723840	e earth	-0.153675
-1.717090	e eupatrids	-0.023158
-1.243541	e g	-0.153675
-1.702091	e members	-0.153675
-1.280356	e the	-0.153675
-1.354365	each </s>
-1.292593	each of	-0.153675
-0.714845	each tribe	-0.062461
-1.641736	each with	-0.153675
-1.240975	each year	-0.153675
-0.829610	earlier criterion	-0.153675
-0.830100	earliest temples	-0.153675
-1.667137	early aristocracies	-0.153675
-1.162522	early athenian	-0.023158
-1.665709	early bronze	-0.153675
-1.665709	early dark	-0.153675
-1.665709	early helladic	-0.153675
-1.652403	early years	-0.153675
-1.130305	earth born	-0.153675
-1.090334	earth by	-0.023158
-0.812202	east as	-0.153675
-0.830100	eastward across	-0.153675
-1.092704	ecclesia </s>
-1.050312	ecclesia of	-0.153675
-1.075723	ecclesia the	-0.023158
-1.197792	economic and	-0.153675
-1.429690	economic conditions	-0.153675
-1.429690	economic problems	-0.153675
-1.421593	economic social	-0.153675
-0.829397	economy during	-0.153675
-0.827378	effect established	-0.153675
-1.032808	eisangelia in	-0.023158
-1.130305	eisangelia placed	-0.153675
-1.123558	ekklesia have	-0.153675
-1.128903	ekklesia heliaia	-0.153675
-0.746721	elaborate </s>
-0.828723	elder miltiades	-0.153675
-0.820054	elders which	-0.153675
-1.126222	elect generals	-0.153675
-0.964175	elect the	-0.153675
-0.809616	elected by	-0.153675
-0.746721	election </s>
-0.830100	electoral capacities	-0.023158
-0.727096	elements of	-0.153675
-0.829610	eleusinia golden	-0.153675
-0.830100	eleusinian mysteries	-0.153675
-0.815456	eleusinians with	-0.153675
-1.092704	eleusis </s>
-1.297488	eleusis athenians	-0.153675
-1.281913	eleusis cleisthenes	-0.153675
-0.807687	eligibility for	-0.153675
-1.086659	eligible for	-0.023158
-1.025329	eligible to	-0.023158
-0.738983	eliminated the	-0.023158
-0.809616	employed by	-0.023158
-0.829610	enabled any	-0.023158
-0.738983	enacted the	-0.023158
-0.830100	encouraged added	-0.153675
-0.830100	ended debt	-0.023158
-0.738983	ending the	-0.023158
-0.819394	ends athenian	-0.153675
-0.809616	enforced by	-0.153675
-0.727096	enfranchisement of	-0.153675
-0.822039	enjoy their	-0.153675
-0.611957	enrolled in	-0.153675
-1.129328	enrollment automatically	-0.153675
-1.032808	enrollment in	-0.153675
-0.807687	enslaved for	-0.153675
-0.727096	enslavement of	-0.023158
-0.829397	entrench himself	-0.153675
-0.828050	envision why	-0.153675
-0.826707	eponymos archon	-0.153675
-0.826707	eponymous archon	-0.153675
-0.977251	erechtheus </s>
-1.101549	erechtheus athens	-0.153675
-1.032808	eretria in	-0.153675
-1.127560	eretria thebes	-0.153675
-0.824033	es an	-0.153675
-0.829610	escapes dorian	-0.153675
-0.830100	essentially discards	-0.153675
-1.071083	establish a	-0.023158
-0.964175	establish the	-0.023158
-1.063012	established a	-0.023158
-1.596422	established people	-0.153675
-1.592616	established possible	-0.023158
-1.600261	established trade	-0.153675
-1.566872	established under	-0.153675
-1.123558	establishes law	-0.153675
-0.964175	establishes the	-0.153675
-0.727096	establishment of	-0.153675
-0.827378	estates athenians	-0.153675
-0.830100	eto rides	-0.153675
-1.092704	euboea </s>
-1.241758	euboea for	-0.153675
-1.075723	euboea the	-0.153675
-0.830100	euboean standard	-0.023158
-0.828723	eumolpus against	-0.153675
-0.830100	eunomia ended	-0.023158
-0.977251	eupatridae </s>
-1.128903	eupatridae alcmaeonidae	-0.153675
-1.082487	eupatrids and	-0.023158
-1.717090	eupatrids areopagus	-0.153675
-1.697204	eupatrids but	-0.023158
-1.722207	eupatrids monopoly	-0.023158
-1.723840	eupatrids secure	-0.023158
-1.722207	eupatrids three	-0.153675
-1.655534	eupatrids which	-0.153675
-1.303475	european gods	-0.153675
-1.305573	european side	-0.153675
-1.305573	european speakers	-0.153675
-0.830100	even waged	-0.153675
-0.829610	events suggest	-0.153675
-0.738983	eventually the	-0.153675
-1.086659	evidence for	-0.153675
-0.944391	evidence of	-0.153675
-0.812202	evolved from	-0.153675
-0.827378	ex archons	-0.023158
-0.822703	exceed that	-0.153675
-1.346673	except for	-0.023158
-1.253170	except in	-0.153675
-1.427746	except olive	-0.023158
-1.424238	except those	-0.023158
-0.820054	exclusive council	-0.153675
-0.727096	executive of	-0.023158
-0.977251	exile </s>
-1.097778	exile was	-0.153675
-0.830100	exiled recalled	-0.153675
-1.126222	existed before	-0.023158
-1.032808	existed in	-0.153675
-0.727096	existence of	-0.153675
-0.746721	expand </s>
-0.819394	expels athenian	-0.153675
-0.829610	expenditures without	-0.023158
-0.830100	experienced tyrannies	-0.153675
-0.727096	export of	-0.062461
-0.774348	exported to	-0.153675
-0.727096	expulsion of	-0.153675
-0.778528	extant in	-0.153675
-0.829610	extensive if	-0.153675
-1.124888	extent are	-0.153675
-1.126222	extent does	-0.153675
-0.830100	factional struggles	-0.153675
-0.826037	factor tribes	-0.153675
-0.822703	factors were	-0.153675
-0.774348	failed to	-0.153675
-0.827378	fails athenians	-0.153675
-0.828050	fallen into	-0.023158
-1.559286	families as	-0.153675
-1.647314	families become	-0.153675
-1.656278	families four	-0.153675
-1.666896	families go	-0.153675
-1.670272	families higher	-0.153675
-1.670272	families recently	-0.153675
-1.666896	families toward	-0.153675
-1.197792	family and	-0.153675
-1.429690	family tenure	-0.023158
-1.144482	family the	-0.153675
-1.429690	family unit	-0.153675
-0.807687	famous for	-0.153675
-1.095282	far as	-0.153675
-1.128903	far less	-0.153675
-0.830100	faster change	-0.153675
-1.400987	father had	-0.153675
-1.253170	father in	-0.153675
-1.114857	father of	-0.153675
-1.418963	father this	-0.153675
-0.829610	fathers death	-0.153675
-0.829610	favoring oligarchy	-0.153675
-1.174273	features in	-0.153675
-0.723876	features of	-0.062461
-0.812202	festival as	-0.153675
-0.642673	feuding among	-0.023158
-0.829610	fifth century	-0.153675
-0.826707	fighting men	-0.153675
-0.830100	figures attend	-0.153675
-0.774348	finally to	-0.153675
-1.164443	fine </s>
-1.197792	fine and	-0.023158
-1.374162	fine athens	-0.153675
-1.427746	fine real	-0.153675
-1.292424	first codification	-0.023158
-1.773707	first coins	-0.153675
-1.754850	first established	-0.153675
-1.777939	first instance	-0.153675
-1.771871	first kings	-0.153675
-1.777939	first overseas	-0.153675
-1.777939	first sacred	-0.153675
-1.437589	first to	-0.153675
-1.095282	five from	-0.153675
-1.129328	five hundred	-0.153675
-0.826707	flees first	-0.153675
-0.827378	follow up	-0.153675
-0.809616	followed by	-0.153675
-0.727096	followers of	-0.023158
-1.224673	following a	-0.153675
-0.734931	following the	-0.153675
-0.746721	follows </s>
-1.603024	for </s>
-1.947338	for a	-0.023158
-2.358053	for aristocrats	-0.153675
-2.390237	for assignment	-0.153675
-2.184900	for athenian	-0.023158
-1.808894	for athens	-0.153675
-1.909897	for citizenship	-0.153675
-2.378535	for debts	-0.153675
-2.328675	for early	-0.153675
-2.390237	for eligibility	-0.153675
-2.328675	for government	-0.153675
-2.358053	for having	-0.153675
-2.373522	for himself	-0.153675
-2.288030	for hippias	-0.153675
-2.378535	for murder	-0.023158
-2.390237	for next	-0.153675
-2.378535	for possession	-0.153675
-2.390237	for seeking	-0.023158
-2.390237	for several	-0.153675
-2.275285	for solons	-0.153675
-2.373522	for ten	-0.153675
-0.452044	for the	-0.123288
-2.358053	for two	-0.153675
-0.738983	forbade the	-0.023158
-0.829397	forbidding loans	-0.023158
-0.824700	force isagoras	-0.153675
-0.825368	forces at	-0.153675
-0.829397	foreign policy	-0.153675
-0.738983	form the	-0.153675
-0.738983	formed the	-0.153675
-0.824700	formerly not	-0.153675
-0.830100	formidable fortress	-0.153675
-0.778528	fortress in	-0.153675
-0.624747	found a	-0.153675
-1.242303	four census	-0.274077
-1.712033	four generals	-0.153675
-1.723840	four hundred	-0.096684
-1.717090	four ionian	-0.274077
-1.722207	four old	-0.153675
-1.727600	four traditional	-0.153675
-1.697204	four tribes	-0.153675
-0.629739	framework for	-0.023158
-1.128903	free inhabitants	-0.023158
-1.128903	free isonomia	-0.153675
-0.727096	friend of	-0.153675
-2.190528	from an	-0.153675
-2.294031	from asia	-0.153675
-2.066198	from athens	-0.153675
-2.262638	from deme	-0.153675
-2.294031	from dorian	-0.153675
-1.804420	from each	-0.337616
-2.289605	from generation	-0.153675
-2.289605	from gods	-0.153675
-1.752971	from his	-0.153675
-2.304337	from holding	-0.153675
-2.275912	from mainland	-0.153675
-2.249757	from megacles	-0.153675
-2.294031	from membership	-0.153675
-2.225088	from other	-0.023158
-2.304337	from significant	-0.153675
-2.201746	from solons	-0.153675
-0.522473	from the	-0.105678
-1.818294	from those	-0.153675
-2.275912	from tyranny	-0.153675
-0.829397	full development	-0.023158
-0.727096	functions of	-0.153675
-0.830100	fundamental units	-0.153675
-0.829610	further united	-0.023158
-1.130305	g eleusinian	-0.153675
-1.130305	g temple	-0.153675
-0.825368	gain power	-0.153675
-0.799424	gained a	-0.153675
-0.828050	gains control	-0.153675
-0.774348	garrison to	-0.153675
-0.825368	gave all	-0.023158
-0.830100	geleontes hopletes	-0.153675
-1.019297	gene </s>
-1.328865	gene and	-0.023158
-1.562027	gene as	-0.153675
-1.643753	gene i	-0.153675
-1.648056	gene members	-0.153675
-1.259974	gene the	-0.153675
-0.825368	general at	-0.153675
-1.298500	generals and	-0.153675
-1.588844	generals established	-0.153675
-1.090740	generals on	-0.153675
-1.574073	generals one	-0.153675
-1.604295	generals strategoi	-0.153675
-1.300003	generation before	-0.153675
-0.767689	generation to	-0.153675
-0.815456	gennetai or	-0.023158
-0.759166	genos and	-0.023158
-1.173898	geometric </s>
-1.206356	geometric and	-0.153675
-0.942711	geometric pottery	-0.153675
-0.746721	georgoi </s>
-0.829397	gerrymandering isonomia	-0.153675
-0.829397	get out	-0.153675
-0.830100	getting worse	-0.153675
-0.778528	gloried in	-0.153675
-0.641879	go into	-0.023158
-1.166695	gods in	-0.153675
-1.304112	gods introduced	-0.153675
-1.263199	gods or	-0.153675
-0.759166	gold and	-0.153675
-0.641482	golden age	-0.153675
-0.826707	good law	-0.023158
-1.384281	government and	-0.153675
-1.796682	government are	-0.153675
-1.784346	government but	-0.153675
-1.754958	government did	-0.153675
-1.822732	government eventually	-0.153675
-1.472554	government in	-0.153675
-1.822732	government service	-0.153675
-1.304864	government the	-0.153675
-1.754958	government were	-0.153675
-1.696551	government with	-0.153675
-1.130305	gradually begins	-0.153675
-1.130305	gradually lost	-0.153675
-0.998628	grain and	-0.023158
-1.130305	grain imports	-0.153675
-0.727096	grandson of	-0.153675
-1.071083	granted a	-0.153675
-1.128903	granted loans	-0.153675
-1.092704	graphe </s>
-1.120806	graphe and	-0.023158
-1.276214	graphe which	-0.153675
-1.661872	great athenian	-0.153675
-0.715378	great panathenaia	-0.153675
-1.710724	great state	-0.153675
-1.728496	great stimulus	-0.153675
-1.725255	great tyrannicides	-0.153675
-1.728496	great uncle	-0.153675
-0.828050	greatest number	-0.023158
-1.164532	greece </s>
-1.420302	greece and	-0.153675
-1.877786	greece does	-0.153675
-1.354891	greece from	-0.153675
-1.892650	greece geometric	-0.153675
-1.900595	greece ionians	-0.153675
-1.877786	greece social	-0.153675
-1.870541	greece time	-0.153675
-1.492185	greece to	-0.153675
-1.797926	greece which	-0.153675
-1.429690	greek peninsula	-0.153675
-1.424238	greek states	-0.062461
-1.427746	greek world	-0.153675
-1.424238	greek writing	-0.153675
-0.828050	greeks into	-0.153675
-0.830100	grievances long	-0.153675
-0.778528	grouped in	-0.023158
-0.746721	groupings </s>
-0.977251	groups </s>
-1.130305	groups supported	-0.153675
-0.830100	growing assertiveness	-0.153675
-0.727096	growth of	-0.153675
-0.738983	guarding the	-0.399016
-0.830100	h ippia	-0.153675
-1.684722	had a	-0.153675
-1.995084	had advised	-0.153675
-1.995084	had always	-0.153675
-1.949048	had become	-0.023158
-1.512420	had been	-0.083532
-1.995084	had done	-0.153675
-1.988158	had existed	-0.023158
-1.995084	had fallen	-0.023158
-1.512420	had jurisdiction	-0.023158
-1.995084	had monopolized	-0.153675
-1.358785	had the	-0.153675
-1.892276	had their	-0.153675
-1.524839	had to	-0.153675
-0.812202	hailed as	-0.153675
-0.998628	hall and	-0.153675
-0.944391	hall of	-0.153675
-0.746721	hand </s>
-0.829610	handled disputes	-0.153675
-0.746721	harbor </s>
-0.282382	harmodius and	-0.399016
-1.526332	harmodius aristogiton	-0.153675
-0.829397	harsh ruler	-0.153675
-1.723599	have been	-0.153675
-1.727448	have come	-0.153675
-1.727448	have evolved	-0.153675
-1.575732	have for	-0.153675
-1.727448	have held	-0.153675
-1.427411	have in	-0.153675
-1.619216	have on	-0.153675
-1.716694	have only	-0.153675
-1.429690	having failed	-0.153675
-1.429690	having gained	-0.153675
-1.429690	having laid	-0.023158
-1.429690	having liberated	-0.153675
-0.827378	hdt cleomenes	-0.153675
-1.406436	he </s>
-1.685550	he a	-0.153675
-0.956577	he also	-0.083532
-1.896636	he an	-0.153675
-1.949835	he do	-0.153675
-1.966661	he initiated	-0.153675
-1.966661	he left	-0.153675
-1.966661	he likely	-0.153675
-1.966661	he reform	-0.153675
-1.896636	he solon	-0.023158
-1.966661	he substitutes	-0.153675
-1.795052	he was	-0.153675
-0.727096	heads of	-0.153675
-0.727096	height of	-0.153675
-0.977251	hektemoroi </s>
-1.115662	hektemoroi did	-0.153675
-1.305573	hektemors forbade	-0.023158
-1.272456	hektemors his	-0.153675
-1.304112	hektemors sixth	-0.153675
-0.820714	held what	-0.153675
-1.303475	heliaia cylon	-0.153675
-1.305573	heliaia oracle	-0.153675
-1.299474	heliaia when	-0.023158
-1.305573	helladic incursions	-0.153675
-1.305573	helladic metalworking	-0.153675
-1.075723	helladic the	-0.153675
-1.130305	hellespont chose	-0.153675
-1.032808	hellespont in	-0.153675
-0.802526	help from	-0.153675
-1.062588	help of	-0.153675
-0.829610	helps break	-0.153675
-0.830100	henceforth compelled	-0.153675
-1.124888	her citizens	-0.153675
-1.130305	her owl	-0.153675
-1.429690	hereditary alcmaeonid	-0.153675
-1.408600	hereditary king	-0.153675
-1.427746	hereditary lifelong	-0.023158
-1.426900	hereditary office	-0.153675
-0.829397	hermocreon oath	-0.153675
-0.998628	hero and	-0.153675
-0.944391	hero of	-0.153675
-0.829610	heroes these	-0.153675
-0.827378	higher magistrates	-0.153675
-1.129328	highly conservative	-0.153675
-1.129328	highly organized	-0.153675
-0.944391	hill of	-0.153675
-1.130305	hill shore	-0.153675
-1.101549	hills or	-0.153675
-1.116968	hills under	-0.153675
-1.092704	him </s>
-1.254136	him as	-0.153675
-1.156548	him to	-0.153675
-1.257305	himself as	-0.153675
-0.805510	himself or	-0.023158
-1.411168	hipparchus at	-0.153675
-1.398479	hipparchus cleisthenes	-0.153675
-1.416349	hipparchus first	-0.153675
-1.429690	hipparchus lypsidrium	-0.153675
-1.213965	hippeis </s>
-1.391228	hippeis a	-0.153675
-1.251520	hippeis and	-0.153675
-1.525780	hippeis horsemen	-0.023158
-1.518989	hippeis zeugitai	-0.153675
-1.371819	hippias </s>
-1.901459	hippias becomes	-0.153675
-1.934397	hippias brother	-0.153675
-1.934397	hippias delphi	-0.153675
-1.901459	hippias early	-0.153675
-1.934397	hippias flees	-0.153675
-1.450158	hippias hipparchus	-0.153675
-1.925669	hippias less	-0.153675
-1.925669	hippias s	-0.153675
-1.886038	hippias tyrant	-0.153675
-1.761727	hippias was	-0.153675
-1.829309	hippias what	-0.153675
-0.825368	hippocleides peisistratus	-0.153675
-1.751416	his amnesty	-0.023158
-2.212201	his class	-0.153675
-2.212201	his code	-0.153675
-1.746284	his constitution	-0.062461
-2.227381	his day	-0.153675
-1.225227	his father	-0.153675
-2.227381	his fathers	-0.153675
-2.227381	his interference	-0.153675
-2.158372	his law	-0.153675
-2.227381	his legislation	-0.153675
-2.198105	his military	-0.153675
-2.216760	his organization	-0.153675
-2.212201	his own	-0.153675
-1.747837	his partisans	-0.153675
-2.133769	his power	-0.153675
-1.223287	his reforms	-0.153675
-2.227381	his resources	-0.153675
-2.227381	his supervision	-0.153675
-2.216760	his support	-0.153675
-0.815456	historical athens	-0.153675
-0.977251	history </s>
-0.998628	history and	-0.153675
-0.738983	holding the	-0.153675
-0.822039	homer they	-0.153675
-0.830100	homeric poems	-0.153675
-0.830100	homers house	-0.153675
-0.998628	homicide and	-0.023158
-1.126222	homicide made	-0.153675
-0.830100	hopletes aigikoreis	-0.153675
-1.427183	hoplite class	-0.153675
-1.427183	hoplite democracy	-0.153675
-0.943582	hoplite warfare	-0.153675
-0.830100	hoplites yoked	-0.023158
-1.130305	horoi boundaries	-0.023158
-1.128903	horoi synoecism	-0.153675
-0.828723	horsemen between	-0.023158
-0.774348	hostile to	-0.153675
-0.727096	house of	-0.153675
-1.283830	how did	-0.153675
-1.305573	how reliable	-0.153675
-1.305573	how stable	-0.153675
-0.822039	however they	-0.153675
-1.322361	hundred and	-0.153675
-1.656278	hundred boule	-0.153675
-1.666896	hundred councilors	-0.153675
-1.647314	hundred members	-0.023158
-1.638533	hundred peisistratus	-0.153675
-1.670272	hundred replaces	-0.153675
-1.605080	hundred which	-0.153675
-0.830100	hunger distressing	-0.153675
-0.746721	hyperakria </s>
-0.826707	hyperakrioi men	-0.153675
-1.730953	i dentify	-0.153675
-0.245990	i e	-0.074376
-1.730953	i shall	-0.153675
-1.119592	if not	-0.153675
-1.130305	if yes	-0.153675
-0.746721	ignored </s>
-0.830100	illegitimate children	-0.153675
-0.828723	iltiades miltiades	-0.153675
-0.289227	image not	-0.399016
-0.830100	imagined kinship	-0.023158
-0.830100	immigrants believed	-0.153675
-0.822703	impact did	-0.153675
-0.643088	impeachment eisangelia	-0.062461
-0.727096	implications of	-0.153675
-1.086659	importance for	-0.153675
-0.944391	importance of	-0.153675
-1.427746	important affairs	-0.023158
-1.197792	important and	-0.153675
-1.429690	important distinction	-0.153675
-1.429690	important functions	-0.153675
-0.812202	imports from	-0.153675
-0.829610	imposed exile	-0.153675
-1.156916	in a	-0.083532
-2.733054	in absentia	-0.153675
-2.259187	in addition	-0.274077
-1.686590	in athens	-0.153675
-1.192576	in attica	-0.153675
-2.712309	in cases	-0.153675
-2.733054	in central	-0.153675
-2.703550	in demes	-0.153675
-2.733054	in drinking	-0.153675
-2.733054	in effect	-0.153675
-2.712309	in euboea	-0.153675
-2.651953	in four	-0.153675
-2.281948	in from	-0.153675
-1.383841	in greece	-0.153675
-2.676986	in greek	-0.153675
-2.124766	in his	-0.153675
-2.733054	in homer	-0.153675
-2.712309	in importance	-0.153675
-2.628285	in its	-0.023158
-2.733054	in knowing	-0.023158
-2.703550	in land	-0.023158
-2.733054	in litigation	-0.153675
-2.712309	in maintaining	-0.153675
-2.733054	in movable	-0.153675
-2.703550	in office	-0.153675
-2.733054	in order	-0.153675
-2.733054	in ordinary	-0.153675
-2.584498	in other	-0.153675
-2.733054	in particular	-0.023158
-2.703550	in place	-0.153675
-2.605840	in political	-0.153675
-2.733054	in regard	-0.023158
-2.712309	in rural	-0.153675
-2.703550	in sparta	-0.153675
-2.676986	in states	-0.153675
-0.521543	in the	-0.104114
-2.651953	in theseus	-0.153675
-2.628285	in this	-0.153675
-2.733054	in times	-0.153675
-2.733054	in turn	-0.023158
-2.651953	in war	-0.153675
-2.428683	in which	-0.153675
-0.727096	inalienability of	-0.023158
-0.727096	inauguration of	-0.153675
-0.738983	include the	-0.153675
-0.799424	included a	-0.153675
-0.738983	including the	-0.153675
-0.778528	increase in	-0.153675
-1.129328	increased grain	-0.153675
-1.130305	increased interest	-0.153675
-1.219665	increases a	-0.153675
-1.166695	increases in	-0.153675
-1.297488	increases new	-0.153675
-0.727096	incursions of	-0.153675
-0.829397	independent cities	-0.153675
-0.829397	indicate about	-0.153675
-0.829397	indicated citizen	-0.153675
-1.130305	individuals might	-0.153675
-1.127560	individuals wealth	-0.023158
-0.642799	indo european	-0.153675
-0.819394	industry athenian	-0.153675
-1.254136	influence as	-0.153675
-1.303475	influence increases	-0.153675
-1.050312	influence of	-0.153675
-0.828723	information do	-0.153675
-0.271361	inhabitants of	-0.399016
-0.759166	inheritance and	-0.153675
-0.822703	initiated did	-0.153675
-0.824700	install isagoras	-0.153675
-0.727096	instance of	-0.153675
-1.298138	instead early	-0.153675
-0.723876	instead of	-0.062461
-0.727096	instigation of	-0.153675
-0.799424	institute a	-0.023158
-0.774348	instituted to	-0.153675
-0.830100	intelligence matched	-0.153675
-0.738983	intend the	-0.153675
-0.774348	intended to	-0.153675
-0.977251	inter </s>
-1.129328	inter pares	-0.153675
-0.778528	interest in	-0.153675
-0.727096	interests of	-0.153675
-0.830100	interference sometimes	-0.153675
-0.759166	interpretation and	-0.153675
-1.523356	into exile	-0.023158
-1.512437	into greece	-0.153675
-1.525780	into lots	-0.153675
-1.523356	into slavery	-0.023158
-1.191653	into the	-0.153675
-0.977251	introduced </s>
-1.126222	introduced into	-0.153675
-1.129328	invasion migration	-0.153675
-1.130305	invasion overwhelms	-0.153675
-0.738983	invoking the	-0.153675
-0.778528	involved in	-0.153675
-0.830100	involving religion	-0.153675
-0.830100	ionia apaturia	-0.153675
-1.429422	ionian migration	-0.153675
-0.413917	ionian tribes	-0.153675
-0.829610	ionians organized	-0.153675
-0.829397	ippia s	-0.153675
-0.830100	iron technology	-0.153675
-1.564268	is a	-0.153675
-1.664731	is athens	-0.153675
-1.773707	is far	-0.153675
-1.727885	is he	-0.153675
-1.777939	is registered	-0.153675
-1.777939	is reintroduced	-0.153675
-1.072786	is the	-0.153675
-1.773707	is well	-0.153675
-0.752323	isagoras and	-0.062461
-1.823776	isagoras appeals	-0.153675
-1.689799	isagoras as	-0.153675
-1.806474	isagoras attempt	-0.153675
-1.800932	isagoras cleomenes	-0.153675
-1.823776	isagoras envision	-0.153675
-1.812087	isagoras trittyes	-0.153675
-1.698410	isagoras was	-0.153675
-0.828723	isegoria hoplite	-0.153675
-0.829397	island salamis	-0.153675
-1.305573	isonomia athenaeus	-0.153675
-1.241758	isonomia for	-0.153675
-1.305573	isonomia isegoria	-0.153675
-0.809616	issued by	-0.153675
-1.681713	it an	-0.153675
